DTWD2	0.0046810363 0.00086651917 0.0032759074 0.0047926307 -0.0046529076 0.0033102033 0.004847479 -0.002289592 -0.0017620639 -0.0006589737 -0.0030863397 0.0029254328 -0.0043917075 0.0013768735 -0.000586201 0.0005853947 0.0034885416 0.0038233516 -0.003122576 -0.0034657368 -0.0025140387 -0.00025275792 -0.00032429214 -0.00016319861 -0.0038145268 0.0022753961 -0.0025680321 -0.00039211527 -0.00036651353 -0.0034266044 0.0026242698 -0.00040017898 -0.0043489938 0.004363134 -0.0037643448 0.00059053075 0.00012208776 -0.003371355 0.0022675064 0.0026155654 -0.0030195531 -0.0017803893 0.0014102177 0.001854297 0.00080001605 0.0019976092 0.0049045077 8.300902e-05 -0.0024734135 0.0012476 0.0032405644 -0.00023665358 0.0009436137 -0.0017609309 0.0019368649 -0.004662857 -0.0041324124 -0.00021916996 -0.00152406 -0.004374602 0.003819483 -0.0011422401 0.0011510222 -0.00011762133 -0.0036826767 -0.001228594 0.0044558328 -0.002799306 0.0030507979 0.0036359853 0.0029263003 0.004606963 -0.0031120505 0.0017231373 -0.0036279454 -0.0012992109 -0.002857699 0.0010317131 -0.0017986133 -0.0005860316 -0.003104368 0.0018355934 -0.0015409926 0.0011055553 0.00284372 -0.0038600166 0.0024862138 -0.0027073764 0.00046877327 0.001966506 -0.0037981546 0.000818576 0.004950086 0.001323299 0.0015581187 0.00091017655 0.0044255457 0.004742814 -0.0025675474 0.0018021845 
PSMA6	0.0032238644 0.00089634926 -0.000100218844 0.00454586 0.001415946 0.0007992528 0.0019325851 -0.004958622 0.0012595818 0.002871148 -0.0012109937 0.0013411843 0.001918874 -0.00077623944 0.0020383152 0.0017809217 -0.004643104 0.0032442252 0.0020409806 0.002440394 -0.00020616996 -0.003915151 -0.0021889284 -0.0032519165 0.0010159618 0.0029899315 -0.0037715808 -0.0009921069 0.0037274319 0.004047248 -0.00336378 0.00036663428 -0.0013491254 -0.0017650871 -0.0024990856 -0.004734834 0.0020248315 -0.002570676 5.3954212e-05 -0.0038824144 -0.0045796135 -0.0027383189 -0.00455645 0.0031934122 0.0022245515 -0.0017391068 0.0019301249 0.0027032613 0.0042611924 0.003948823 0.00031211332 -0.0009943782 -0.0008374682 0.002919852 -0.00075079506 0.0011203717 -0.0018190837 -0.0034314282 -0.0012990654 -0.0008957256 0.004966434 0.003896456 0.004586075 0.003347434 -0.0041509066 -0.0011846676 -0.004120253 -0.0031190356 -0.00095658656 0.0041341325 0.0002822271 -0.0014875047 -0.0027850196 0.00404654 0.0029598349 -0.001457835 0.0009898448 -0.0033401602 0.00045381882 -0.0023150505 0.00087152136 -0.0019260921 -0.0026449312 0.001700299 -0.002200829 -0.0032280157 0.0021725514 -0.0019693333 -0.0006592045 -0.0026891942 0.0019613546 -0.0024200794 -0.0029628254 -0.0023291698 0.00315487 0.002930292 0.0037324 0.0009102778 0.002090354 -0.0044909804 
GUCY2D	0.0022859233 0.004107559 0.0040812474 -0.004199921 0.0016008386 0.004243199 -0.003821913 0.002638568 0.0009150553 0.001072548 -0.00046811625 -0.0035643736 -0.0022688392 0.00050624274 0.004237658 0.00303805 0.0007699837 0.0046064476 0.0013006238 0.002799945 -0.004527392 -0.0026133636 -0.004975551 0.003015575 -0.0021585901 0.0033226074 0.0038191641 -0.0014887062 0.002551407 -0.0030699344 0.0036121723 0.00078972086 -0.0043700263 -0.0042404337 0.0030324443 -0.0036188292 0.00094289274 0.0013958778 0.0041111936 0.004325814 0.00047317002 0.0031847034 0.0022964317 -0.0014391862 -0.00016530015 0.002473322 0.0025222984 -0.002358634 -0.003504486 0.003418825 -0.0047194385 -0.0008068354 0.00043832933 0.004287937 0.0020766635 0.00056557806 -0.0020109406 -0.00038085057 0.0018548132 -0.0021432398 -0.0007169213 0.00023476966 -0.00082917704 5.8871625e-05 0.0003667865 -0.00025720237 -0.0042602876 0.002227796 0.003680454 -0.0016601206 -0.0043247878 -0.0043727364 0.0011961253 -0.0007503962 -0.004257934 -0.0017534167 0.0034432816 0.004708285 0.003446155 0.00201548 0.0002466396 9.823322e-05 -0.0021720065 -1.5525997e-05 -0.0030955737 0.003995207 0.002766036 -0.0015687612 -0.00256749 -0.0005805991 -0.004913983 -0.0028193803 -0.001685809 -0.0026032496 -0.0017556697 0.0027370774 0.0043658586 0.0022530097 0.000105507665 -0.0033688587 
GPR143	-0.0045583714 -0.0011970539 -0.0033421924 0.00031097434 -0.0022957134 0.0034660755 0.0044444087 0.0008427657 -0.00327409 0.0038982334 0.004255344 -0.00440817 -0.0016108718 0.0011093749 -0.004227449 0.0015559028 -0.001998579 0.0028680146 -0.00087184564 -0.00024009857 0.00015909843 -0.0018546504 -0.0021030807 -0.0023418497 -0.003158905 -0.0010755087 0.0029618444 -0.0036966898 0.00493503 -0.0042344313 0.004373395 0.004289225 -0.0038299542 0.0029763067 -0.0011952806 -0.0022630675 -0.0049512936 0.0024147131 0.0021805982 -0.0028028404 -0.0020223078 -0.0047213207 -0.0039538145 0.0012448421 0.0038796645 0.0047175223 0.0021267252 -0.0024187444 -0.0023917824 0.000592536 -0.00107692 0.001259928 0.0026956694 0.0019788821 -0.0043025287 -0.0019979258 9.991611e-05 -0.0015624748 0.0034322375 -0.0043537277 0.0018472946 -0.00069081964 -0.0039164 -0.0007812666 0.0029789258 -0.0043063574 0.0009491026 -0.00079018355 0.0044677667 -0.0033006717 -0.0006232398 -0.0025732901 0.0015244414 -0.0041780816 -0.0028869633 -0.0032922532 0.0006859245 0.0049340795 0.00067789416 -0.0005261875 0.0007536205 0.00033961894 -0.00286357 -0.00069838105 -0.00058841845 0.0046473546 -0.0017911686 -0.00053957873 -0.0021844395 -0.0025191861 -0.0013403737 -0.0010080467 0.0010931451 -0.001445277 0.0007281468 -0.00072939816 -0.0009919648 0.0010194699 0.0027161834 0.00073638174 
CCAR2	0.0029985034 -0.0035696132 0.0033368303 -0.00023408365 0.0016221208 -0.001682433 -0.0031138023 2.4509724e-05 -0.0047986195 -0.0017612395 -0.0037587457 -0.0026638415 -3.616441e-05 -0.0009848834 5.598223e-06 -0.0033496763 -0.0035016185 0.004801784 -0.0004866624 -0.004411371 -0.0014487084 0.0020974264 -0.004680853 -0.00068259134 0.0013414598 -0.0030941106 0.002028075 0.000644528 -0.003467567 -0.0037789098 0.0044308733 -0.0017623623 -0.00086190895 -0.0024036912 0.0038654949 -0.003063266 0.0011771437 -0.003818145 -0.00050632964 -0.0012915492 0.0032212369 0.0020459646 0.0012160692 0.001586601 0.000107805994 -2.451295e-05 0.0018969334 0.0017818472 0.0031281011 -0.0009800431 0.0015181366 0.0033803866 -0.0012560178 -0.004887159 -0.003039912 0.0034078967 0.0019410712 0.0042011444 0.0045874403 -0.00094832823 0.0047177197 0.00015225906 0.0029734126 0.0017265888 -0.0019349327 -0.0037588065 0.0020867484 -0.003989229 0.0016895896 -0.0013750902 -0.003695842 -0.0012189395 0.004289737 -0.003730062 0.00470996 0.001286415 0.0019200029 0.004990121 -0.0037487436 0.0019207501 -0.0012879075 -0.0031468729 -0.0024456086 0.001217292 -0.0030413272 -0.0005058262 -0.002397126 -0.003142677 -0.002331726 0.002894561 0.002651172 -0.0046423464 -0.0002309887 0.0027770037 -0.0046667065 0.0013353914 0.001788403 0.0006288213 -0.0005787999 -0.0011506138 
GPR65	-0.00025208356 -0.0031995527 0.0043152794 0.003326653 0.0044464665 -0.0047165626 0.00192277 0.00294477 0.0019746905 0.0038367964 -0.0018030382 0.003366842 -0.0011115393 0.00277001 0.0034712756 -0.0013760476 -0.00067589484 -0.00058290624 -0.003918698 -0.0034286217 0.002218768 -0.0010779649 0.003180846 -0.0037810174 0.0010668971 -0.004860484 -0.00053264643 -0.0048678443 0.0016927483 0.0020783786 0.0036284167 0.0032144918 -0.0036434957 0.0033099663 -0.0040416755 0.00052558945 -0.0025956566 -0.0038167106 -0.0044947737 -0.00062093354 -0.00406595 0.0033059705 -0.0048602857 0.0037453938 -0.0014551667 0.003450945 0.0025326232 0.0049012196 0.0024643028 0.0016425234 -0.0044315537 -0.0023299996 -0.0021670933 0.0045720316 -0.00041503427 -0.0010410905 0.0015476414 0.0015348183 -0.002551349 0.00211876 0.0009873101 -0.0023341503 -0.00444842 0.00041974615 -0.00066067016 -0.00037274382 -0.0033599949 0.0009139738 -0.0031070942 0.00096732256 0.0034431384 -0.0016139388 -0.004375101 0.0033188604 0.004841747 0.0044013294 0.0036944773 0.0043840054 0.0009559339 0.0033349746 0.0013980442 -0.00049066363 0.0028173726 -0.004393718 0.0023813965 0.0026015404 -0.0004524957 -0.0019125566 0.00016645803 0.0034884717 0.0025554253 0.002946532 0.0027208282 -0.0021344249 0.0028711215 -0.0012282847 -0.002521497 0.00068447547 -0.003586998 0.0030564216 
PDSS1	-0.00095005985 -0.003972401 0.0025359385 0.0005299012 -0.0048734266 0.0011349772 -0.0043719774 0.0016815531 -0.004264128 -0.0016413508 -0.0007120513 0.00082336646 -0.0025348822 -0.0026840137 0.003257804 0.0010219496 0.0034337847 0.00141531 -0.0040463363 0.0025191477 0.0028777146 0.0026603998 0.00083928916 -0.002805445 0.004265665 0.004206273 0.004636521 0.00013223689 -0.0029185596 0.004409961 -0.002499827 0.0014136006 0.0041776146 -0.00092107017 -0.0020371596 -0.00085170515 0.004758674 0.0007779415 -0.004435762 -0.0010634912 -0.0004745163 2.756925e-05 -0.0001940509 -0.0030032312 0.0008918795 0.0035936597 -0.0049488135 0.0026482202 -0.0042510526 0.004868833 -0.0013375324 0.0015537224 0.003994352 0.00054072647 -0.002032193 0.0010102117 0.0015891944 0.004810091 -0.0021584386 0.0027795003 -0.0015087851 -0.00037186546 -0.0036199922 0.0017887779 0.0015494106 0.0027430675 0.004688824 -0.004553243 0.0038641698 -0.0045126975 -0.004983788 -0.0021423278 0.00072562706 0.0021291762 -0.0014757469 0.004873937 0.004340888 0.0026115836 -0.0027578531 -0.00016626701 0.0015520491 0.0047930237 0.0045173406 -0.00040596048 -0.0014852701 0.0011991517 0.0035145986 -0.0011515076 -0.0023541246 0.004096777 -0.0033779691 0.0020805572 -0.003399392 0.0015828211 0.0047385516 3.171377e-05 0.00060104276 -0.0009162423 0.0027334765 0.004810324 
CSNK1G1	-0.00083081756 -0.0017934864 -0.0023528084 0.004934213 0.0030239376 0.0010460301 -0.0026388739 -0.00016012615 -0.0043148883 -0.0003484417 0.00026958607 -0.003280041 -0.0018271292 0.004930205 -0.003714162 0.0031272336 0.0021391592 -0.0037603844 -0.0031986607 0.002122456 -0.004658821 -0.0028422324 0.00045997303 0.0036966805 -0.003538021 -0.0031322422 -0.00028793231 0.001859849 0.0034410427 -0.0030528097 -0.00079573056 0.00088991364 0.0019369884 0.00069306034 0.0043081488 0.0030874715 -0.0022132767 0.0026645078 -7.376729e-05 -0.0038079794 -0.00025236534 0.0015210231 -0.0019425101 -0.0021219377 -0.0013468643 -0.0026488246 0.00308662 -0.0035309566 -0.0013270599 -0.0033824178 -0.0036489356 -0.004733006 -0.0029467323 -0.0009092021 0.0011793561 0.0026328787 0.0048944564 -0.0016429406 0.0025160243 0.002574695 0.0018379882 0.002580051 0.0032299878 -0.004576063 0.0047585987 0.0018809206 -0.0025896982 0.002528751 0.0013794595 -0.0030808616 -0.0042203357 -0.0008658912 -0.0028174496 0.0037593928 0.004936632 0.0035244548 0.00028597403 -0.00081672886 -0.004937585 -0.001444742 -0.0045562014 0.0048982785 0.0043627294 -0.00079547777 -0.0049515497 0.0009724539 0.0020227237 -0.0033795647 0.0038957829 -0.0035968525 -0.003033466 0.0020371964 0.003011213 -0.002447862 -0.0010808377 -0.00078307284 0.0042136735 0.0045195236 -0.0002699431 0.0012888389 
FGF6	-0.0027745506 -0.0002062051 -0.0007287685 -0.0041117407 0.0003159067 0.002516663 0.0025308884 -0.0011892546 0.0012712859 -0.003679022 -0.0038178246 -0.002093483 0.0031644194 -0.0007280471 -0.0036252774 0.0048166523 -0.0007878422 0.0019444141 -0.0018556863 0.00020576255 0.0014127609 0.0038841537 0.0014920724 -0.0017994444 0.0049836533 0.002890553 -0.00046559612 -0.004472383 -0.000304746 0.0035454493 -0.0026589236 0.0031281484 0.0013829538 -0.0036324447 -0.0044829827 -0.0015305014 0.0028948258 -0.0033314112 0.0016338924 0.0034271013 0.0045476514 -0.001361838 -0.0002128133 -0.0006319789 0.002448897 -0.0023855323 0.0014869489 -0.00044764054 -0.0019825946 0.0041616973 -0.0024973855 -0.0012472543 -0.00092007726 0.0015190202 -0.0020054064 -0.0049548317 -0.0039117695 -0.0045339107 -0.0018565439 0.00016610035 -0.0046196007 -0.0011525261 0.0011076962 0.0030234142 -0.0002698227 0.0020826291 -0.0015796934 -0.0015649276 -0.0021677034 0.0031698793 -0.0035695515 -0.00022126328 -0.002095528 0.004436669 -0.0016302163 -0.00019618172 6.534447e-06 -0.0005236719 -0.0018146947 -0.0029221242 -0.001365571 0.0014202739 -0.0015045622 0.003693105 -0.0013893344 0.00092563016 0.0015027702 -0.00088958745 -0.0005941477 0.003423119 0.0010343293 0.0015495175 0.004461586 0.002539994 0.001463935 -0.00029914075 -0.0020217034 -0.0012678864 0.0024298169 -0.0005006687 
GFI1B	-0.0011861213 0.0027657235 -0.00046082525 0.003250877 -0.004966171 0.0022294887 -0.0026812996 0.0029400643 -0.0021175307 0.0020260043 -0.0014901648 -0.004807623 0.00461111 -0.004999203 -0.0042262943 -5.8642163e-05 0.0025356833 -0.00089200726 0.0028836706 -0.0028700063 0.0023919248 -0.0016073035 -0.0036810979 -0.00073729415 -0.004049878 0.0040248213 -0.0044062887 -0.0027226687 0.004584601 0.004877753 0.00488791 -0.00049215794 -0.002416125 -0.0047429954 0.0011434661 -0.0046697687 0.004725526 -0.0046880236 -0.0036618682 0.0044145514 0.00081608933 0.0036490709 0.0033417938 0.0007625971 -0.0025388591 0.00027211822 0.004184431 -0.0038978315 0.004448121 0.004695218 0.0035137397 0.0035155823 -0.0030572189 -0.0010595935 -0.0045308857 0.0009614418 -0.0037675237 -0.0038106507 -0.0021023555 0.0010254444 -0.004418121 -0.0032079406 0.00454827 0.003901924 0.0022902428 -0.00036475153 0.0009246097 0.00050095486 -0.0021909892 -0.0008514763 -0.000818793 -0.004738676 -0.004123663 0.0039970516 -0.0040059444 0.004668673 0.002933503 0.0022041735 -0.0035269472 0.003393672 -0.00025465278 -0.0037776486 -0.0031948844 -0.0028815863 -0.0014808231 -0.004814277 -0.0036094168 0.001303261 -0.0009410089 -0.002583441 0.004746532 -0.00037176147 0.0011468985 0.00067256525 -0.0019023325 0.0042172805 0.0028529116 -0.0037915655 -0.0021053862 -0.0005092676 
OR2H1	0.00087390613 0.0028247181 -0.0026773533 -0.0021078787 -0.0033969355 -0.0019090684 0.0047178753 0.003535807 -0.0038407897 -0.0008511627 0.0017870193 -0.0049199285 0.004570335 -0.0028568055 -0.0037492416 0.004371345 0.0008633892 0.0043703024 -0.0035307582 0.0047411295 0.0021647145 -0.00044028653 -0.00048862986 -0.0034673342 -0.0037965423 0.0039554834 0.0008558323 -0.0005909085 0.00073686923 0.0022022645 0.0036048 -0.0005996204 -0.00038180308 0.0032839652 -0.0028524022 -0.00094492186 0.0036313797 0.00060152856 -0.002244499 -0.0033590018 -0.0048792413 0.00046715204 0.0030304547 0.0026948994 0.0007196894 -0.0041281385 -0.0036845836 0.0014038162 0.002383382 -0.0021485894 -0.0047615278 0.0041290345 0.0032046887 0.0014758453 -0.0026284887 0.0024834494 -0.0018396958 0.0037599262 -0.00096267427 0.0033805575 -0.0026456984 0.0048590847 -0.00337533 0.00092247844 1.9217334e-05 -0.00059899746 -0.0028666107 -0.0032933592 -0.003573598 0.0028547817 -0.0032547787 -0.0015302591 -0.0033065905 -0.001838441 0.00022674775 -0.0048167324 0.0018780428 0.0018618488 0.0048467964 0.0041087694 0.001072074 -0.004667919 0.004475161 -0.0034338427 0.0022567785 0.0031799732 0.0006564315 0.0043722424 -0.0037327951 -0.0040340973 0.0016483516 0.0038591542 -0.004688461 0.0036840355 0.004852227 -0.0042479974 -0.004865642 -0.004966159 0.004599322 -0.0016593228 
ITPK1	0.0017374896 0.004263988 0.00042772555 0.001233421 -0.0031476868 -0.0042240955 -0.0048374776 -0.0032437623 -0.0029525831 -0.004912834 -0.004087401 -0.004593855 0.000118134856 0.00257417 -0.0015424589 0.004346996 0.0040170653 0.0008354962 -0.002445919 -0.003091748 -0.0006604565 0.004345756 0.0034032057 0.0014949801 0.00022215286 0.00061625196 0.0031731557 0.004258694 0.0029569694 -0.0045574796 -0.004335744 0.0013529954 -0.00013150055 -0.003255272 -0.00052951585 -0.0014771079 0.0037251334 -0.0036225424 -0.00078967644 -0.0002201778 -0.0013295255 -0.0029039292 0.001676972 0.0041616242 0.0020375352 -0.00020696464 0.0013181415 -0.0026872067 0.0032398086 -0.0048420522 0.0039605037 -0.0029863592 0.0049105086 -0.0005992816 -0.0015677614 -0.00093638024 0.0018659402 0.001622813 0.002329175 -0.0032327361 -0.0031513425 -0.0031095135 0.0033912037 -0.00013555205 0.0006236556 0.004587335 -0.003014568 0.0008553888 -0.0010192868 0.00059707655 0.0004089926 0.0041881516 -0.0035551128 0.0044284477 0.0019173109 0.0024773262 0.0031602662 -0.0026209573 -0.0020951182 -0.0016552518 -0.0014643724 -0.0048100622 0.0032922272 -0.0025658791 0.0017821394 -0.0018737264 -0.00041090508 -0.003921089 0.00039475405 -0.002255426 -0.0048934 -0.0044897906 0.0023234219 0.001657361 0.003882861 -0.0016654652 -0.0023488624 -0.00071379717 -0.0041667665 -0.00092129223 
ALDOB	0.00038877016 -0.0030241418 0.0023717314 -0.0015100398 -0.0029937057 0.0026764052 -0.0020335326 0.00035795063 -0.004337461 -0.00452314 -2.1884707e-05 0.0013374541 -0.003535238 0.00087276456 -0.0033415607 0.0019983444 0.0033228802 0.0030283816 0.0041995323 0.00060100795 -0.004256699 -0.0018722385 -0.0047513577 0.004640943 -0.0040147617 -0.00045423233 -5.656927e-06 0.0035176347 -0.0048752795 0.0030746371 -0.0017974364 2.1360656e-05 0.001613011 0.0012727036 -0.0015105846 -0.0027209558 -0.0003072602 -0.0046515674 -0.0021231766 0.0021421076 -0.0014388837 0.003701802 -0.0018187006 -0.000936589 0.0017703944 0.0003470986 -7.217938e-05 0.00051287573 0.0033306526 -0.0048498185 0.0040317187 -0.00054801756 0.002575236 -0.0036485463 0.003187304 -3.9840077e-05 -0.0015015515 -0.0048057195 0.0027161515 -0.0012264781 0.0047776946 -0.000818823 -0.0047021317 -0.00046473183 -0.0009498351 0.004212576 0.002641599 0.0005176636 -0.0027938148 0.0019183471 -0.0004572808 0.00030825255 -0.0040327716 0.00061904994 0.0021446468 -0.004665855 -0.0005808131 -0.00123576 -0.0023052967 6.561636e-06 0.0006561042 -0.0013451723 0.0007777307 -0.0017792643 -0.0013570623 0.0046123005 -0.002080541 -0.003231962 -0.0027810836 -0.0032604428 -0.0024715231 0.0021765516 -0.0010645438 -0.00376765 -0.004450705 -0.00131064 0.000830698 -0.00077383785 0.0022329746 -0.004271914 
SIGMAR1	4.8846236e-05 0.0020269451 -0.004246323 0.0034787215 0.0012023557 0.0036218863 0.0008233482 0.0045083957 -0.0024498135 0.004152908 0.0029633266 -0.00021207017 0.00485803 -0.004467796 -0.0033509575 -0.0036795808 -0.0047698817 0.00080031715 -0.003542785 0.0037343316 0.000525469 -0.0011781999 -0.003953256 -0.0041718623 -0.00017939246 0.0033885574 -0.0041339193 0.0008916188 -0.0036013825 0.0005606939 0.0026865932 -0.0015080796 -0.0029187212 -0.0013742563 0.0026858354 -0.0008264487 0.00094236573 0.0032003403 0.0048758397 0.002219748 0.0045869607 -0.00493092 0.00010915382 0.0012813164 -0.0008119839 -0.0026778253 0.004712836 -0.0040543424 -0.001420064 0.00040875265 -0.00029800896 -0.0012051148 -0.000864666 -0.0002226972 0.0017014882 -0.0042051724 0.000369005 0.0047165556 -0.004780745 -0.0034681063 0.0024695166 0.00041482446 -3.9953866e-05 0.0040314603 0.0045529916 -0.0049739224 0.0006483624 -0.0002060031 0.0029180406 -0.004339588 -0.0033495503 -0.0014858331 -0.0043704095 -0.003922474 0.0022918044 -0.0010754501 -0.0043118168 -0.00081631105 -0.0039453655 0.0034261888 -0.0015766177 -0.0018364731 0.0039711073 -0.0019922196 -0.004549445 0.00049737166 -0.0021097073 0.0032022223 0.00326182 -0.003277984 -0.0022325448 0.00053470826 0.0018281365 -0.002859867 -0.0048744283 0.0008575556 0.004505561 5.3380256e-05 0.002043123 -0.0018652517 
NRBP2	0.0040518497 -0.00012125885 0.0005088411 -0.00315335 0.0021974468 0.0034440986 -0.0007480898 -0.0030935039 0.0021977068 -0.00033614572 -0.0012125989 0.0019492285 0.0015491974 1.0035383e-05 0.0027928154 -0.003183229 -0.0024111255 0.0048688645 -0.0012477956 -0.0045036296 -0.0032207787 -0.0031823267 0.0027241295 -0.0047056517 -0.0016613352 -0.0024340295 0.0016709561 0.0036856725 0.0041463426 -0.004914441 0.0045591067 0.0027202545 -0.001402509 0.0048758606 -0.0013239081 -0.0031972288 -0.004723044 -0.0016755691 0.0036285536 0.0029192893 0.0011994025 0.0013873006 -0.0038684052 -0.0003948699 -0.0025813326 0.0029108417 0.0013300591 -0.00090440694 0.000779136 0.0022192032 0.0014514406 0.0007055531 -0.002267286 -0.00027500498 0.004729293 -5.1753494e-05 0.00256694 -0.002621468 -0.0018078751 0.00449184 0.00047948866 -0.0048075365 0.0020058574 -0.0037080557 0.004211111 -0.0022221173 -0.0048511107 0.004062687 0.003884724 -0.0028290283 -0.002356884 0.0031332516 0.0022470374 0.004609981 -0.00039711336 0.0019495515 0.0029108129 -0.0016504271 0.003889444 -0.0012904302 -0.0022582028 -0.00131869 0.0018243208 -0.0024298024 -0.0008662818 0.0009830856 0.003924414 0.0028198513 0.0028365643 0.002262849 -0.0013500656 0.00072503486 -0.003782121 0.0029332135 0.0005598596 0.0012494952 0.0028171956 0.0042131953 -0.0006422472 0.0013213431 
INTS1	0.003763123 -0.002487222 -0.0019092715 -0.001051263 0.0012315967 -0.0042778575 -0.0012288404 -0.0033270505 0.0049348646 0.0038928478 -0.00011821149 0.0025260597 0.0009797923 0.0045094863 0.0018349687 0.004325543 -0.0034592545 0.0022038445 -0.0030538312 0.0015589393 -0.00048632154 0.0028408328 0.0031081587 0.002112638 -0.004305616 0.0031175571 -0.0020924425 -0.00080515875 -0.004198559 -0.0026882936 -0.0032822024 8.6295084e-05 0.0017258647 0.00070763624 -0.002752376 0.0031080951 -0.0020158254 -0.004768054 -0.0010039185 -0.003969802 0.0024264073 0.0023787413 -0.0035048816 -0.0010395867 -0.002118369 -0.001914001 0.0019561453 0.0044692485 0.0023350546 0.0020535644 -0.0048258505 0.004974081 0.0027020543 0.002649126 0.0022254877 0.004683268 0.0022833142 -0.0013849192 0.0037158711 -0.0021799433 0.0033324987 0.00089639815 -0.004372156 -0.0029488294 0.003804293 -0.004980875 0.0037031262 -0.0027717836 -0.0007045633 -0.004347425 0.00033521745 0.0027793075 0.0039090025 0.0031420046 0.0042994684 0.0013087104 0.00013379357 0.0026057316 0.002049051 -0.001956479 0.004748585 0.0046943272 -0.0018080802 -0.0038313754 -0.0014065532 -0.0039924127 -0.0013172404 -0.0034170526 0.002719924 0.004886495 0.004640875 0.0004704416 -0.0031689808 0.003523251 -0.0018718705 -0.0028329762 0.0045628627 -0.0025889957 0.0017782405 -0.0019977072 
PHLDA2	-0.0028718556 0.00026488313 0.0023542645 -0.0038534275 0.004667698 0.004619521 0.000342378 -0.004706747 -0.00013075679 0.0023338383 -0.0017852928 -0.0019946354 0.003891054 0.0048512244 -0.0029330414 0.0034155727 0.0044902684 0.002835947 -8.235503e-05 0.00034421775 0.0024017629 -0.0008359212 0.002444409 -0.0022285802 0.0004572239 0.0033553608 0.0016206565 -0.0044765277 0.0015069478 -0.0020599398 0.004727315 0.0011318743 -0.0014889636 -0.0021127772 -0.0029531037 -0.0010879698 -0.00019941406 -0.0016094808 -0.0018252607 -0.0033919548 -0.00039469052 0.0032452405 0.0007097857 0.0034707345 -0.0033731204 -0.004158615 0.0035706095 0.00431299 0.0047462652 -0.0030480174 0.0049805595 0.0043794666 0.0036880348 0.00049954024 -0.00075349456 0.0018297513 0.0004987116 -0.0044852695 -0.0001597724 0.00024194225 0.002311332 -0.0047917604 -0.00043529092 -0.0020790165 -0.0034756323 0.004550103 -0.0030698692 0.0001514745 -0.000101563215 -0.0014334235 0.00098646 0.003939535 0.0038449098 0.0047290544 -0.0021070084 0.0010987443 -0.0017800368 0.0027285893 0.0018733358 -0.000839579 0.0029806017 -0.0037355248 -0.0042597284 -0.00055272575 -0.003904909 0.0019030519 0.0019489836 0.0023999235 -0.003471542 -0.003469358 0.000960623 0.004319648 0.0007213892 0.0049792365 -0.0041267453 -0.001995066 0.0016622287 -0.0012001963 0.0020708528 0.0004087153 
YARS	0.0013093557 -0.0017230035 -0.0027412293 0.0038293898 0.00059406436 -0.0010991358 0.0029423996 -0.0028824017 -0.0008265653 0.0030899262 0.004060887 -0.002321283 0.0026310273 -0.0042081424 -0.0046684765 -0.0020707247 0.00014327417 -0.0033936198 -0.0044116853 0.0003320131 0.0026850577 -0.0034596531 0.0026119063 -0.00037676992 0.0018154428 0.0044003725 -0.0023000173 0.0046530645 -0.0026903008 -0.0042382753 0.002388732 0.0019445498 5.4598706e-05 0.002480147 -0.0030036278 -0.0016680749 -0.0019143573 -0.0027088313 -0.002051973 0.0036161686 -0.0043077962 -0.0043873317 -0.0011585063 0.0016016297 0.0008421842 -0.0007543384 -0.003157757 0.0035470168 -0.00073497515 -0.004549292 5.2548898e-05 -0.0039859368 -0.0028359715 -0.0030643188 0.00304419 0.0049654073 0.001173261 0.001073434 -0.0003360112 0.00041298632 0.00094741146 -0.0024511912 0.0009337521 0.0014419757 0.0049423208 -0.00034256047 -0.002315614 -0.0036206862 -0.0028159423 0.0011412812 0.0025393947 0.0035512997 0.0016106155 -0.00087273004 -0.0023985305 0.002626117 0.003869509 -0.0021428983 0.00042437884 -0.003903739 0.0015469443 0.0037019146 -0.0014012845 -0.0008579296 0.0014562062 0.0029899504 -0.0023484437 -0.0033497147 0.0034115366 -0.0043128226 -0.0006295759 -0.0010583081 0.004194754 0.0027254736 0.004675587 -0.0024515209 0.0036961245 -0.0024784652 -0.0028381958 -0.00044488846 
CEBPD	-0.00280044 -0.00014495087 -0.0044774623 0.0012813737 -0.0027395803 0.004900607 -0.0044052247 0.0028927347 0.0022276083 0.0008697312 0.00029987656 -0.0017519565 -0.0028552837 0.00011822307 -0.0042421217 0.0032525475 -0.0018752274 -0.00026906107 -0.0048772106 0.001000733 -0.00034515996 0.0013095196 -0.0018626682 -0.0037553236 0.00034277196 -0.0015612867 0.00221381 0.0030665474 0.000848601 -0.0005427458 -0.004814311 0.0047151977 -0.00083757873 0.0039623897 0.0036521538 0.00196639 0.0014010108 0.0011508078 -0.00014805695 0.004227557 -0.002354021 -0.0010818514 0.0016090902 -0.0001287577 -0.0040870253 -0.00034510478 -0.0047062784 0.0044995733 -0.0037677886 -0.0011747481 0.0028358465 -0.0030862265 4.136126e-06 -0.0018368341 0.0027333614 -0.0007394145 -0.004104252 0.0040638926 0.0041255164 0.0020287891 0.0015620586 -0.0035555593 0.0011655277 -0.0011965161 -9.057251e-06 -0.001449036 0.0018898855 -0.0048204605 0.0049091363 0.0030215145 0.0043532774 -0.00055230845 -0.0017918169 -0.0037304228 -0.0035338625 -0.0007750161 0.0011789728 0.0025626828 -0.0017596926 -0.0022207533 0.0028131453 0.004046063 0.0013749029 -0.0033861776 0.0015099705 -0.002829414 -0.0042197155 0.0037551236 0.0044132094 -0.0008247114 -0.0049711512 -0.0025101756 -0.0048281588 -0.004041163 -0.0010849534 -0.0011068983 -0.0017029322 0.003889374 0.00056006276 -0.004658675 
HCFC1	0.0038539276 0.002971449 0.0036342815 -0.0020286865 -0.0037354587 0.0010717455 0.0019555625 -0.004511561 -0.0024452305 0.0020053291 0.0008428806 -0.00012550087 -0.0023284038 -0.0010195721 0.0006771574 -0.0023590117 -0.001867889 -0.0010964294 0.0043446724 -0.0029506013 -0.003882776 0.0041787145 0.0025317653 0.0017402674 0.0013891925 -0.004828633 0.003176946 -0.0042073354 0.004131756 -0.00026093365 0.004647243 -0.0014349668 0.0045077763 0.0010248532 0.002781227 -0.0026138218 0.0007228168 0.0005525355 0.003392127 0.0020630711 0.0041400813 0.0012678511 0.0022591264 -0.0035304062 -0.001136348 0.002284761 -0.002346603 0.0011619735 0.002885673 -0.0010814662 -0.0029365872 -0.0026571548 0.0013480545 -0.0018680975 0.0047454345 -0.004916855 -0.00069704576 0.0035063874 0.0031356933 -0.0036636807 -0.0001291785 0.0032171102 0.0037138197 0.0012755203 0.002441678 -0.0031288627 0.0023254948 0.0020450747 -0.0032833747 -0.00020754438 -0.002929765 0.0033586381 0.0008979731 -0.0044672806 0.0009170036 0.00026726443 0.0010269671 0.0048177494 -0.0012037911 0.0006587688 -0.000112520065 -0.003113386 -0.0027729177 -0.0016139299 0.0022140883 0.0027963184 -0.0019657 -0.00437399 -0.0023981815 -0.003428383 0.0033833173 0.0024224415 0.002884145 -0.004881146 0.004296055 -0.003526502 0.0038819374 -0.0035488256 -0.0013676364 -0.0042703818 
NAA35	0.0008515191 0.0047397558 -0.0010501656 0.0036690815 0.00076342997 0.0014777508 -0.004618377 -0.0038411494 8.1307015e-05 1.1315171e-05 0.0005516359 -0.002725872 0.0014192899 -0.004161767 -0.00025719852 0.0027985896 0.0013191965 -0.003002256 -0.0015313869 0.0039313077 0.0030754209 -0.004885649 0.0020481546 0.004293377 -0.003829413 0.0027375065 0.0047708475 -0.0046057845 0.0034090788 0.004241696 -0.00095933455 0.002147785 -0.003856038 0.003778491 -0.00052399415 -0.0022697444 0.0006754162 -0.00070999307 0.0012034681 -0.003147111 -0.00034849797 -0.0015276768 -0.0031295975 -0.003866875 0.0005930997 -0.0014879416 0.00092736393 0.002466303 0.0029077819 0.0027362453 -0.001060017 -0.0023688779 0.0002536528 0.0015786123 0.00054188736 0.003567161 0.0019226932 -0.004674599 -0.00068338297 0.004974596 -0.004719548 0.0018460251 -0.0014302977 0.002371254 0.0038690632 0.0033444185 -0.0029641017 0.0014611987 0.00134114 0.0022041202 -0.0033415882 -0.0008879 -0.0017450328 -0.0009942201 -0.0038513315 -0.0047596553 0.003638289 0.0033936794 -0.0012668183 0.000575743 0.0006496692 0.003826865 -0.00066719647 0.0038146318 0.0027567605 -0.002993608 0.0030787028 -0.0034947176 0.0028157393 -0.003735077 -0.004954257 -0.0021293766 -0.0026949216 -0.002339576 -0.001099814 -0.0019255828 -0.003846074 -0.0024402922 0.0029576588 0.00093654485 
HEY1	0.0011340191 0.0012366164 -0.0043009785 0.0008972125 -0.0038956543 -0.003170186 0.0010093177 0.0034744944 -0.001854795 0.0005248899 -0.003331799 -0.0024687282 -0.0025749102 0.0030257192 0.000108918604 0.0014349619 0.00189666 0.0033517745 -0.0048007253 -0.0039550774 0.0013378218 -0.00030119804 0.0047786906 0.002136256 -0.0031897174 0.0044257315 0.0021329187 0.0012772891 -0.0008650343 -0.0030178032 -0.003496661 0.0014140741 0.0004213626 0.0013150449 -0.0037235357 -0.0041616946 0.0038166617 0.0049876464 0.0028102286 0.001056 0.00037490568 -0.00411307 0.0036450096 -0.0016714508 0.0040552667 -0.00088456407 0.0004716288 -0.0032314253 0.0026109023 0.0003220068 -0.004939148 -0.0035592183 0.0027356325 -0.0040913597 -0.0035089904 -0.0025729188 0.0005956223 0.0034137468 0.0034180605 -0.003979081 0.002553595 0.0010896779 -0.0036644381 -0.004749717 -0.0016215747 0.002118568 0.0035892422 -0.0025267997 -0.0039528264 -0.0034921733 -0.0041412255 0.0017467338 0.00032803457 0.0013964963 -0.00042602862 0.0011499637 0.00011362907 0.002167564 0.0026384713 0.00027729713 -0.0043901075 0.0011886044 -0.0029132753 0.0038909547 0.0043003173 0.0025414156 0.0011628411 -0.0006711995 0.0025305373 0.003231989 6.0100287e-05 0.0004583163 -0.0047853105 0.0023919777 0.0010890464 -0.00495721 0.0035279081 -0.0030577066 0.0021697073 -0.0045366823 
ZNF367	0.0010829264 0.0018544528 -0.004244679 -0.002869471 -0.0049549057 0.004926648 0.0042523113 0.004950825 -0.0020825765 -0.0027823173 -0.0040897224 0.0026580142 -0.0016172776 0.00036635165 -0.002903949 0.0033406166 0.0028812026 0.003964237 -0.0009359296 -0.0022400063 -0.0015071107 -6.665587e-05 0.0032473248 -0.0013723829 -0.001484359 -0.0038908797 -0.0045266235 0.00076342205 -0.00035034728 -0.0038816785 0.0036261673 0.000914994 -0.003234747 -0.0038767138 -0.0020380206 0.0018520764 -0.00020178346 -0.0012640989 -0.0033510546 -0.004377889 -0.0014476845 -0.00088352227 -0.004385417 4.5914538e-05 -0.0016830359 0.0035845342 -0.004653189 -0.0043302216 0.00010971543 0.0036903145 -0.0023673389 -0.0030770942 0.002688229 0.0034109864 -0.0036616465 -0.0007170619 0.004199927 0.003189708 -0.00066861225 -0.0015063335 -0.004558149 -0.00041875045 0.004954862 0.001290837 0.0029975895 -0.0018957874 -0.00451884 -0.0038317032 0.0022633567 0.0029759847 -0.00186158 -0.0008361494 0.004070732 0.00019312136 -0.0029847478 -0.002017786 0.0045805466 -0.0010343088 0.0023783918 0.00045289696 0.0006754405 -0.004092026 -0.0037140208 -0.0014626449 0.0024374719 -0.0032833365 0.0022956093 0.0035200003 -0.002484462 0.0004791038 -0.0036161398 -0.0021995772 -0.0021155397 -0.0015360346 -0.00086024625 0.0008879104 -0.00042488833 0.0015977041 -0.0025497167 0.00060545193 
TEAD3	-0.0024487856 -0.00288745 0.002387622 0.0013998415 0.004873641 0.0038539558 -0.0032515437 -0.001621612 0.0010656922 -0.0045567644 -0.0024588958 -0.0034824242 0.0020724915 0.0032786143 0.0039751767 0.0016881975 -0.00055771053 4.6356785e-05 -0.0036090019 -0.0039490643 0.001957348 0.0034538892 -0.003977477 -0.0032221572 -0.0038023684 -0.004448365 0.004513083 -0.00482299 0.0047431076 0.0037646578 -0.0010282147 -0.0039883624 -0.003361074 0.0027963147 -0.00077691587 -0.0019103982 -0.0012097834 0.0031678164 0.0036544749 -8.1505765e-05 -0.0014364796 -0.0026483885 0.0023767585 -0.002141188 -0.0041497233 0.001643012 -0.003671308 0.0019171415 0.0014316634 0.00096175645 0.0025388002 0.0036677725 0.0018851756 0.00034109908 -0.0015845302 0.0009596226 -0.0022246742 -0.0043358384 -0.0015535724 -0.0013791249 -0.000104960905 -0.0021324412 -0.0038589071 0.0047766874 -0.0016779598 -0.0031136177 0.000747493 -0.001617439 0.0034394884 -0.0015708611 -0.004996531 0.0043022344 -0.0028022546 0.0018997955 -0.0045749913 -0.001548466 0.00022490865 -0.0034504784 -0.0024073934 -0.0035154538 0.0034811902 -0.00040783864 -0.0049435184 0.0046444237 -0.0010191008 -0.0043518506 0.0011780909 -0.0022031344 -0.00418393 -0.00027176974 5.4530385e-05 -0.0013409097 0.0030502882 0.0011771015 0.0032265834 0.0018193685 0.0003022603 0.0041855467 -0.002683489 0.0004901415 
CRABP1	-0.001167202 -0.0048354184 0.00043739835 -0.00420715 -0.0014941797 -0.0023165103 -0.0023501653 -0.0030591688 -0.003545262 -0.0012503802 -0.0011942025 -0.001039614 -0.002782822 0.00012416461 -0.0004588625 0.0019704793 0.003969185 -0.0006902241 0.0020971936 -0.0019190524 -0.0031642115 -0.0046803607 -0.00054819114 -0.0039645317 -0.0031989587 0.004583593 -0.00027692915 0.0045914473 0.0010679588 0.0025271003 -0.0027953552 -0.0031070285 0.001441182 0.0026059828 -0.0033998473 0.0036759814 -0.001979952 -0.0023354124 0.0042376406 0.0023331533 -0.0017825966 -0.0024759856 0.004053809 -0.0041446676 -0.0028477171 -0.0036722294 -0.00033688245 0.0010770656 0.004273935 -0.0013556867 -0.0011299342 0.0014497085 -0.0010143192 -0.0010819732 -0.0017747647 0.0013372794 -0.001273017 -0.00023340384 -0.002533944 0.00025092482 0.0016021997 0.004963119 -0.004918097 0.0035292841 0.0031596546 -4.9821894e-05 0.00026547004 0.0003777721 -0.00014378178 -0.0036890917 0.0021453747 0.0038327293 0.004905259 0.0033014026 0.0009541576 -0.0042724 -0.004943248 -0.001579787 0.0035026774 0.0009951738 -0.00055963336 0.002732185 0.0032931103 0.002411142 -0.0015027282 -0.004381119 -0.0012466739 0.0034973426 0.00095515116 0.004322299 -0.0034368942 -0.002234562 0.0037372154 0.0011925187 0.004137109 0.0016160225 -0.0014289236 0.0014490305 -0.0040211785 0.0021131816 
RRAS	0.0027108192 -0.0044502076 0.0041821525 -0.00046309354 0.0017607126 0.00046528745 -0.00063308433 -0.004775857 -0.0021409662 -0.0045148134 0.0002217065 -0.0025938433 -0.0040939576 0.0012099796 -0.0014566979 -0.0033130718 0.00066816167 0.003411523 0.0007106353 0.0026402392 0.0046890075 -0.003362549 0.002075069 -0.002666637 -0.00092492433 -0.002608855 -0.0037830914 -0.0029028382 -0.0022564128 0.0016202704 0.0032178897 0.0030614845 -0.0014729211 -0.004897623 0.0029519715 9.9656514e-05 -0.0015585194 0.0014276946 0.004916285 0.0013385837 -0.0045301425 -0.00013578928 -0.004511864 0.00018826804 0.0016842954 0.0034740353 0.0044787303 0.0015782012 -0.00046345743 -0.00031248687 -0.0046094805 -0.0021601983 -0.00335633 -0.003343843 0.0019900473 0.0013938945 -0.0037677232 -0.0044768723 0.004549628 0.0014841657 0.0016176325 0.00072275545 0.00039917632 -0.002567325 7.2556584e-05 0.002177955 -0.0036664256 -0.004186263 0.0039088824 0.0005369324 -0.0016647975 0.0047777523 0.003345378 0.0046714284 -0.002009112 -0.0023843583 0.0047297827 -0.0035951925 0.001053703 0.0028608185 -0.0027051263 0.002446662 -0.0008350476 0.0003733004 -0.0038827565 -0.0039594034 -0.0031504985 -0.0012182759 -0.0012388529 -0.0026348482 0.0005422629 -0.0033335418 -0.0011389002 -0.0018156522 -0.0049709002 -0.0044289567 -0.0013347716 -0.0045973416 -0.0014136978 0.003776974 
DPH1	0.001142292 -0.0017846335 -0.0037383183 0.0033343174 0.0007259462 -0.0042406735 -0.0042242366 0.0014216888 0.0031692944 -0.0008572564 0.004395411 -0.0044783438 4.6890018e-05 -0.0036562772 0.0032265247 0.0032722743 -1.9831118e-06 0.00025655582 -0.0004630788 -0.004411032 -0.0034687482 -0.0009805545 0.0041482938 0.0035336788 -0.0012945016 -0.0022649386 -0.0021890262 0.0006071753 -0.00253332 -0.0005189277 0.001529216 0.0020931568 0.0042781965 0.002786923 0.002484358 -0.0031348662 0.00037134934 -0.001171657 0.004726262 -0.0014827003 0.0022955572 -0.0014819725 0.004622152 0.0008846082 0.00062296283 -0.0002146155 -0.0036875827 0.0034930077 -0.003296147 0.0036178154 -0.0016202226 -0.0023466083 0.0009668473 -0.002882474 0.0048739533 0.0023816915 0.0004655969 0.0017584111 -0.00068744045 0.0023206447 -0.002704157 0.0048496523 -0.0025278202 0.0027152004 0.00051595137 0.0011733401 0.0032015578 -0.004175485 0.0028734114 0.0005901218 -0.00072438584 -0.0030856729 0.00052212906 -0.0026899977 -0.004931084 -0.0020506303 0.003623324 -0.0036963352 0.0047300193 -0.0010083385 0.00068156765 -0.0016106025 -0.0009421716 -0.001408876 0.0013608319 0.0028198885 0.00037344772 -0.003943232 -0.00041785085 0.0012919909 0.0017635408 -0.0026880747 0.0030394557 -0.0017802451 -0.004746431 0.0047154403 0.00048422837 -0.0047002365 -0.001239731 -0.0036200024 
TTC28	0.0036026041 0.003991158 -0.0033899469 0.003488736 -0.004950309 0.001968895 -0.0021205454 -0.0038805525 -0.004012849 -0.0027230298 -0.0037393863 -0.001524544 0.0017371076 0.0034577867 0.0032804823 0.0015085826 -0.004202692 0.004774432 -0.003272616 -0.0017075528 -0.0007285228 -0.0031521856 -0.00087841 0.0023203776 0.004389197 0.0031895007 0.003326503 -0.0032546346 0.0027496356 0.0007851257 -0.0020598369 0.0037147307 0.0023424253 0.0038784158 -0.001077758 0.004496752 0.00020899261 -0.0024536054 -0.0040160706 -0.004621286 0.002179625 0.004851745 0.000285097 -0.0034912275 -0.0046859155 0.001276932 0.0048085945 0.0020121436 -0.004686623 0.0012757503 0.004009013 -0.0035477742 -0.003267484 -0.0034015398 -0.0025107495 -0.0042708954 0.004171933 0.0040746606 -0.0030580603 -0.001491282 -0.00036101407 0.0010645352 0.004262464 0.003108593 -0.003093556 0.0018649813 -0.0029178765 -0.0025056116 -0.0007802068 -0.001335729 0.0040466245 -0.001692484 1.1475311e-05 0.0027706956 -0.001113544 -0.0030906014 -0.0010240637 -0.0028000022 -0.0013028906 0.00074386125 -0.0014342004 0.0011202948 -0.004523669 0.00015417468 -0.002650726 0.0042070854 -0.002326516 0.0019842228 0.0044428147 -0.0007160093 -0.002747808 0.0010798951 -0.00044206 -0.001057721 -0.0004883912 0.0015921174 -0.0007026087 0.003368893 -0.0009110304 0.0012138548 
SLC29A2	0.00095960416 0.0017990489 0.002006108 -0.001775909 -0.0007589055 -0.0003670942 0.0038864303 -0.0013402308 -0.0043639303 -0.00019893679 0.00345153 1.3642343e-05 -0.0036025126 0.00086854683 0.001580162 -0.00010241131 -0.00088544475 0.0040578353 -0.0015184899 0.003906824 0.0011315704 0.0048247934 0.0015366247 0.0034269 0.0029463475 0.004356515 -0.0031689175 0.0032554488 0.00016885198 -0.0021193116 -0.0023895325 0.002862686 0.004916631 -0.004515479 -0.0036802723 -0.002339408 0.003679203 -0.0027813767 -0.00025231764 0.004503259 0.0020589307 -0.004645797 0.0041817217 0.0023625449 0.00072267605 -0.0015709535 0.0038291311 0.0038027102 0.0043422645 -0.00092091784 0.0017313639 0.0021799167 0.00084021746 0.002116914 0.0040779593 0.004833225 0.00057663966 0.0020705867 -0.00026191154 0.0042422027 -0.004515258 -0.0038767147 0.0046447157 -0.0048492495 0.002760127 0.0040786033 -0.004589247 0.0005629639 -0.0011327291 0.0026273269 0.0036509954 0.0010689099 -0.0020549365 -0.0010619549 -0.0022756555 -0.0019515019 -0.003267627 0.0042572943 -0.0009353302 0.004157131 -5.74174e-05 0.003649569 0.0020119231 7.663802e-05 0.0018045389 -0.0030140937 0.0011561321 -0.004388439 -0.0029695753 0.0028518592 0.00087957917 0.00367597 0.002771152 -0.004326073 0.0007942323 0.0013921662 -0.0019417226 -3.3698954e-05 -0.0042168777 -0.004296457 
NQO2	-0.0019509619 0.0022146797 0.0044418215 -0.001131647 -0.004044065 -0.0005790357 0.0030355016 0.0033518285 0.0023214065 0.0015562802 -0.0009882953 0.002988852 0.000980767 0.00400524 -0.002689932 -0.0017023615 -0.004044118 0.001293324 -0.0037555739 0.0016733943 -0.0011323385 0.0041878913 -0.002996552 0.0018409566 0.0011770754 0.00044675302 -0.00209959 -0.0035319396 0.0012940924 0.0020268532 0.003723774 0.002423575 -0.0011489391 -0.0020896008 0.002050319 -0.003577268 -0.0025958135 0.0012207258 0.0023282776 0.0042008343 0.00082601013 -0.00030365863 -0.00032858519 0.004189188 0.0030712686 -0.0014975996 0.0018705634 -0.0029842686 -0.0005228586 0.0016283154 -0.0011485314 -0.0014217248 -0.003606059 0.0008101731 0.002695545 0.00085401855 -0.0028944495 -0.0019277442 0.0043031415 0.004616645 -0.004171121 -0.004843793 0.0026013476 0.0006592968 0.0034640739 0.002438485 -0.0033825836 -0.002692359 0.003213272 0.0026972985 0.004123365 -0.00060930685 0.0016000046 -0.00039059768 -0.002647798 0.0037067966 0.0011715454 -0.0004637721 0.001718746 -0.003885667 0.0045973184 -0.00389079 0.0009263864 0.0016678096 -0.00306053 -0.001652434 -0.0019882706 -0.0041730637 -0.0037986059 -0.0039728666 0.0012158487 -0.001721191 -0.0039496156 0.0041587767 9.894186e-05 0.0025750871 -0.0035644537 -0.00393007 0.003659979 0.0048690694 
EID2	-0.0019050962 -0.0015923285 0.0044862246 0.002416416 0.003628437 0.003655315 -0.0010893533 0.0031233942 -0.0035138119 0.0038264927 -0.0030820088 0.0002206131 0.0015477099 -0.0020443588 -0.00080507394 -0.00020659472 -0.003565207 0.00033879097 0.0012178454 -0.0029708191 -0.0027031368 -0.0031242436 0.000748623 0.0048800022 -0.0029633795 -0.0037795792 0.0029767754 0.0005527187 0.0023922408 0.0023039663 0.0020231633 0.0047086617 0.0034692667 0.003534922 -0.00023504328 -0.004473987 0.00089699705 -0.003292813 0.0045154747 0.0030358841 -0.002885123 -0.0007666794 0.00017272982 -0.0049679508 -0.0044785626 0.0008981039 -0.0028866776 0.00073425384 -0.0035052325 0.004386325 0.0012610939 0.0015175492 -0.00043790837 0.0030527133 -0.00071531883 -0.0010210943 -0.0045852014 -0.003823796 -0.0035373042 -0.0006946096 -0.00071292394 0.0009832113 -0.0048796628 0.003965927 -0.003742906 0.0045427126 -0.0041649393 -0.0017359377 -0.0022910242 -0.0024010513 0.0038303714 -0.0017945854 -0.0012445813 -0.004521558 0.0013728628 -0.0013796611 -0.0008186299 -0.0019312886 0.0018631405 -0.0014015747 -0.0029001934 -0.004189584 -0.0049662036 0.0011404238 0.004898519 0.002644581 0.0008964953 -0.0028687948 0.0017915947 0.0019805164 -0.0011412685 -0.0032252027 0.0031345966 0.0017051669 0.0021120496 0.00095534645 0.000895458 0.0019552475 0.0031767434 0.0014625448 
GCLC	0.0047093434 -0.003501828 0.002196342 -0.0004832387 0.004538882 0.0010873484 -0.004097266 -0.004955584 -0.004398502 -0.0032946113 -0.004863315 -0.0017465258 0.0032216902 0.0013513984 0.0034659752 -0.0016019545 0.0040987874 -0.0035375305 -0.0038810924 0.0046440824 -4.0246967e-05 -0.0033168423 -0.004220759 -0.0034652622 0.00361991 -0.0014912098 -0.004646293 -0.0006350746 -0.003389451 -0.0049840626 -0.004822519 0.0012924877 0.0030418774 -0.0034983896 -0.0035656432 0.003211092 0.0029237212 -0.0013056938 -0.002771581 0.0005696051 0.0041867206 -3.83414e-05 0.0019353373 -0.0029831629 -0.0031088823 -0.0041832067 0.00035246962 0.0031489336 -0.0025518872 0.0022447812 0.0016780593 -0.00070439855 0.0039658346 -0.0029459065 -0.0013417014 0.0014408897 0.0026849997 0.004189723 0.0009984015 -0.0038252848 -0.0010450584 -0.0026776788 -0.0042730602 -0.004095293 0.0016633552 -0.00035751372 0.002205805 0.004490928 -0.00017052826 0.004618617 0.0014333373 -0.0038925223 -0.0037571955 -9.970616e-05 -0.004194687 0.0016192875 0.00018209936 0.004277305 0.002972697 0.0033969872 -0.0020924907 0.0034081142 0.0023672502 -0.004857449 -0.002486442 -0.0036890896 0.0021999332 0.0038120474 0.004026264 -0.0010565999 -0.0023120733 -0.0027685657 -0.0048915152 0.0049117585 -0.0013494306 0.0044069937 -0.0033024542 0.0040069157 -0.0040934137 -0.002535956 
FGF14	-0.0032023874 0.00046436107 -0.0036998456 -0.004871992 0.0016127174 0.0004865068 0.0011522928 0.0035015054 -0.00033785813 -0.0012798568 -0.004883252 0.00021241674 0.0033908181 0.0014762391 -0.003228967 0.00438413 0.0033632275 -0.0030846596 0.0046711494 -0.0035403857 -0.0015844394 0.0018321835 -0.004033704 0.0009899408 0.00013283575 -0.0044102855 0.0008025274 0.0032317478 -0.0007314737 -0.004910576 -0.0022480628 0.0014947116 0.00293312 0.0023169545 -0.0037224405 0.004696305 -0.0046200077 0.002072952 0.0038461578 -0.0042610173 -0.0036706626 -0.0009857509 -0.0015173757 -0.0017518369 0.0034356415 0.0031858762 0.0043120855 0.0006152788 0.002534971 -0.00356638 -0.0014637089 -0.004945146 0.004469563 0.0034419778 0.0026266952 0.00051807036 -0.003567241 -0.001513902 0.0033906712 -0.0026405186 -0.002245489 0.0020587228 -0.00014494281 -0.001566485 0.0020284383 0.004854092 -0.0009766835 0.0018290238 0.003480819 -0.0041867043 -0.0016306936 -0.0025485447 0.0030505958 -0.0001233059 0.0033599392 0.00065563 0.0014180269 -0.004458797 -0.0004586777 0.00058129267 -0.001771084 -0.0046724523 0.0025973164 0.0049346625 -0.004320496 -0.0009716338 0.003336202 0.0010507446 0.0035525085 -0.004098994 0.00084456307 -0.0043021557 -0.0026661397 0.00040143088 -0.003500378 0.0028331762 -0.00061452645 0.00078101916 -0.003503363 -0.003760769 
SIM2	-0.0036804553 -0.0008807837 0.003915463 -0.0031977457 0.0008944683 0.0019465955 0.0034385566 -0.00363089 0.0019653079 0.0046055675 -0.0028278683 0.000913747 -0.0045144632 0.0010119186 0.0013289725 -0.0037515252 -0.00031639624 -0.0029282388 0.0019140956 -0.0036742168 0.0006526685 -0.001109369 0.0025469451 -0.0022874686 -0.0015832379 -0.0020631913 0.0020566804 0.0031453047 0.0025007678 0.00040276788 -0.00093863846 -0.002651441 0.0020588094 -0.0007395117 -0.0011710074 0.00054973614 -0.0010677304 -0.0013562645 -0.0013441778 -0.0037743852 -0.0013747173 -0.00036422926 0.0011772458 -0.003984319 0.004758538 0.0049889823 -0.001116532 -0.00034161613 0.0027002876 0.0022306447 -0.0006417463 0.0004976492 -0.0033263294 0.0023798412 0.00084451836 0.00018405993 -0.0049594217 0.0033675963 0.0032515193 0.00014462149 -0.0014559088 0.0007076453 -0.0040893736 -0.00225304 0.0019982974 -0.004913227 0.0017180918 -0.0031755448 0.0011501183 -0.004803625 -0.001979408 0.004114758 0.004112821 0.0033438741 0.0025406976 -0.0020037536 0.002683368 0.0024497856 -0.0013990044 0.00058911846 0.00471904 0.0007305886 0.00066403905 0.0044461954 0.0038690083 -0.0027782193 0.0049537984 0.0007253911 0.00071553304 -0.000566551 0.0037330757 -0.004218445 -0.0037932105 0.0025754727 0.00094968645 0.0032521968 -0.00296438 -0.0016025917 0.0033782816 0.0004974881 
FAM13A	0.0045756595 0.0017200751 -0.003643856 0.0031819823 0.0043024276 0.00314196 0.0037008978 -0.00094544346 -0.004316991 -0.004236565 -0.004147138 -0.001509411 0.0012833198 0.0036814439 -0.0012095198 0.004125975 -0.0036068808 -0.0035859551 0.0004901166 0.003352765 0.0015171889 -0.00013871891 -5.50354e-05 -0.0020109199 0.001432924 -0.0024269852 0.0026033758 0.0024762687 -0.002568873 0.0040797386 -0.00032298142 -0.003338583 0.00078148243 -0.0031119713 -0.0026483494 -0.00079705776 0.0031183674 -0.0006181462 0.0049787583 0.0048659244 0.0017320195 -0.0029623508 -0.001260669 0.0046649487 -0.0041968506 0.0035595049 0.002767895 0.0016579806 0.0038334348 0.0008442539 -0.0004171981 -0.0020105047 0.003269321 0.0016451938 0.0028666346 -0.002342175 -0.0022743524 -0.0019410542 0.0044323737 0.0025898276 0.0023863486 0.0048875846 0.0006340719 -0.0020286578 -0.0006624326 -0.0018111833 -0.0028641399 0.0043368884 0.00055321015 -4.9318154e-05 0.0049893786 -0.0011395894 -0.0029649332 0.001329146 -0.0014378221 -0.0010177556 0.00023830813 0.0010828533 0.0023793837 0.0019590538 -0.0015888157 0.003643689 0.0030003614 -0.0032323273 0.0036590698 0.001118138 -0.0017109936 -0.0022956359 -0.0031424589 0.0012204747 -0.0031216454 -0.0021640905 -0.0028104028 0.0028514683 -0.0046460507 0.004003736 0.0022337197 -0.0014777092 0.0016173606 -0.0025395686 
POLM	-0.0046554604 -0.0038352653 -0.0018034494 0.0048922305 -0.0029419994 0.0009116785 0.0017320208 0.0034676814 -0.0027544498 -0.0043684677 -0.002764383 0.00066146924 0.0035712854 -0.0044445447 0.00046523067 0.004722901 -0.0029687013 0.0028551868 0.0002684344 -0.0039774952 0.0013125663 0.003451284 0.00091394776 0.0034828575 0.0045656813 -0.0002775649 -0.0039652647 0.0011710767 -0.0034178079 0.0025712107 0.0008870398 -0.003419924 0.0049097897 0.0032434135 0.001617031 0.003820413 -0.00054974086 0.0018524154 -0.0023901872 0.0037772767 0.0022986738 0.00089461706 0.0042044087 -0.0032313853 0.0018223046 -0.0038995314 0.0041911127 0.0013016019 -0.0014031996 0.0016061643 0.0017836015 0.0017457865 0.00027576566 -0.003985377 -0.0005826136 -0.004878774 -0.001005677 0.0026847876 0.003278024 -0.0038928862 0.0049295737 0.0038469038 -0.0012000039 1.8041781e-05 0.002772743 -0.004424361 0.0017812707 -0.0007271818 -0.0042426134 0.0020565372 -4.964809e-05 0.00186799 0.00040617512 0.002073803 0.00038537418 0.00012123357 0.00089261984 -0.00029521386 0.0045320024 -0.002319728 0.0027578103 0.0005701938 -0.0006959348 -0.004105459 -0.0045547015 -0.0015714465 -0.0033731759 -0.0033354568 0.0010167265 -0.0014929884 -0.004792031 0.0012391077 0.0039160573 -0.0027353042 -0.0026575227 0.004072387 0.0032668267 0.0004784742 -0.0009707686 0.0040135635 
KRTAP8-1	-0.004091202 0.0040782355 -0.0016909 9.834451e-05 0.0036963748 -0.00061242585 -0.004955546 0.004657605 -0.0032988011 -0.004686451 0.0013724787 0.00095419533 0.0016898493 0.00013256037 -0.004624592 -0.0014030816 -0.0046047224 -0.0043042144 -0.0015556896 6.506367e-05 0.004215792 -0.0046716193 -0.00058595923 0.00033440968 0.0035833614 0.002643367 -0.0038438388 -0.004964867 -0.00210712 -0.0003516312 -0.004877049 -0.0026287949 0.0015062038 0.0012815422 0.0039612013 -0.0025502974 -0.0033806884 0.0043990077 0.0041400874 0.0007337556 -0.0035517733 -0.0032153262 -0.0005448053 -0.0002770192 -0.0021968086 -0.0009846274 0.00032439074 0.003952313 -0.0046413136 0.00042084334 -0.0017308011 0.0039019652 0.00029353052 -0.0016827945 -0.00088259 0.0001144645 0.0012769861 0.000118695745 0.0018520164 0.004365021 -0.0031344995 -0.0034288121 -0.00018084708 0.004099532 0.004725766 0.0011371745 0.00021348282 0.0032727672 0.0014254558 0.003452435 -4.9535076e-05 -0.0019102552 0.0015806728 -0.0049232855 0.0005438023 -0.0023085598 -0.00041955686 0.00056183967 0.003141865 -0.004123225 -0.0040082335 0.0043419916 0.00321452 -0.004812357 0.002611992 -0.0031855677 0.0022588028 0.00065092824 0.0016704126 -0.0017575654 -0.00060034846 -0.0011509678 -0.0017800056 0.0023093263 0.0001901385 -0.004278132 -0.002785668 -0.0014682866 -0.00029980973 0.00038182872 
OR51M1	-0.003551437 -0.0048954654 0.00078121695 0.00044860016 0.004639912 -0.0005678323 -0.0008163027 0.00078146334 0.0017678018 -0.0042038355 -0.0032180552 -0.001812729 0.0018671756 0.0006876963 0.0019485018 0.0019118745 0.004469516 -0.0027856294 0.0023436653 0.00056803995 -0.0018600208 -0.0017802904 -0.0028931734 -0.003221237 -0.00332481 0.0011390547 -0.00095419225 -0.0015381061 0.004832974 -0.0012057138 0.0018071848 0.0012972557 0.0021501016 0.0028270483 -0.0024052155 -0.0021778226 -0.0029705255 0.004357075 0.0012377243 -0.0025544502 0.00017343993 -0.0038676178 -0.0012319428 -0.0049137147 0.0032742429 -0.004176127 0.0011016505 -0.00086389884 0.0030101605 -0.0006959534 -0.004741288 0.0020544527 0.004772364 -0.0024949925 -0.0048451168 -0.0023882005 -0.0004554579 0.0005884483 0.0030104378 0.0017037994 -0.0031839255 -0.004757386 0.0010328626 -0.001070572 -0.00023928638 -0.0025438028 0.0022640994 -0.0041572736 -0.0013737603 -0.0021105285 0.0034992318 -0.0036215587 -0.0010589483 0.0012073489 0.0021979294 0.0031468 0.0044663553 -0.0028024248 0.00040126868 -0.0032085432 -0.0024678095 0.00016339423 -0.00023662299 0.0028441723 0.0021638218 -0.0034338043 -0.0026339488 0.004360251 0.0035070209 -0.00045380753 -0.002147625 -0.004464701 0.0047464618 0.0040026903 0.00083586725 0.002678711 -0.0041751247 0.0028083115 -0.0020504755 -0.004616139 
TRPM7	0.0010706858 -0.002372255 -0.00045156264 0.002948928 -0.0015603405 0.0016859521 0.004306645 0.0008450002 -0.0006037858 -0.0007091147 3.546039e-05 0.0045888214 -0.00038665644 -0.00024254424 0.0029616817 0.0019744232 -0.003947528 0.0032830148 0.0014729319 -0.002626861 0.0032393974 -0.0021044507 -0.0043821926 -0.0025497763 -0.00034508444 -0.0044525606 0.0015471209 -0.00061591464 -0.0005900114 -0.004820876 -0.0029602912 0.0018848075 -0.0023370255 -0.0045270277 -0.0049059954 -0.00041994985 -0.0043382407 0.0035056104 -0.0007230137 -0.00069841236 0.0036289014 0.0036648503 -0.0018438733 -0.0022684264 0.0012398863 -0.001966123 0.0011903875 0.004707993 -0.0040593436 -0.001661327 -0.0047091544 0.003993706 0.004382762 -0.003563083 0.000911706 0.0028455658 -0.0011863002 -0.0019217888 -0.0021869317 -0.00036562938 0.004720455 0.0032596078 0.004920253 0.002853607 0.0016896619 -0.0017169893 -0.0046895803 -0.0030542526 0.00082854996 0.0033286703 -0.0015220694 0.0049376357 0.0036127751 -0.0038411596 0.0025945439 -0.0009950289 -0.0027030567 -0.0015862425 -0.00028643364 0.0033103323 -0.0020422058 -0.0014448954 0.0012655043 0.0033798867 0.0034673857 0.0022770583 -0.0045397743 0.0035865034 -0.0014521251 -0.0011469494 0.0012472951 0.0023184286 0.0049884194 -0.0014484547 -0.0024216762 0.0019391414 -0.0030697028 0.0032704647 -0.004361027 0.0008753188 
DTX3L	0.00473912 0.0012093518 -0.004871351 0.00011139432 -0.00078940584 -0.0018715337 -0.0032230979 -0.0007025055 -0.004510293 -0.0005976915 0.0028439118 -0.0031267856 0.0012505545 0.000592128 0.0039917645 0.0011895872 0.0044927737 -0.002712587 0.00446018 -0.0032780294 -0.00095426815 0.004066224 0.0031404863 -0.00052946206 0.004165795 -0.0036484902 0.0036471905 0.00043600771 -0.00056674343 -0.000168326 -0.00033997174 -0.0016533907 0.0009686219 -0.00044307704 -0.0012320261 -0.00088299747 0.00012380342 0.0026121761 -0.0011084628 0.0033400424 0.0043708305 0.004821677 -0.00083563157 0.00157868 -0.0033912945 0.001857092 0.0034908669 -0.00314244 0.00333977 -0.0035911035 -0.003637481 -0.0020193115 0.0025306807 -0.00026155522 -0.0047120093 0.003070927 0.0031335102 0.0035565256 0.0004962996 -0.0047023925 -0.0013099952 -0.0016257454 -0.0042734016 0.00086776825 8.537786e-05 -0.00031215473 -0.00080914126 0.0028754256 0.0031261877 0.0049324553 0.0029199512 -0.0040171584 0.0024539183 0.004260064 -0.0027154074 -0.0041047866 -0.0014395338 -0.00068132795 -0.0019444393 0.00027622876 -0.0031139932 -0.0004826702 -0.0030106832 0.0040403777 0.002004995 5.904735e-05 0.0038829728 0.0032321883 0.004592932 0.0002607743 -0.00045685464 4.8694717e-05 -2.814573e-05 -0.004655052 0.001070797 0.003985017 0.003031548 -0.004923419 -0.0005414721 0.0032868127 
POTEKP	-0.0039614267 -6.8281646e-05 0.0026618643 0.004701353 0.00205173 -0.0044757775 0.0031844263 -0.0049842824 -0.001690161 -0.0030559537 0.0044436282 0.0035314257 -0.0018573476 -0.0030750958 0.00074476463 -0.0013595992 -0.002678957 0.0045507886 0.00028473866 0.0021567093 0.00493108 -0.0022339486 -0.0044694655 0.0005588009 0.0011314948 0.0005576198 0.0030970636 -0.0031740684 -0.00096003443 -0.00039501334 0.0019985023 -0.0035635536 0.0044489093 -0.0034388022 0.0026309688 -0.003489369 0.0019155062 -0.0012215296 -0.003287542 0.0023937207 0.00034923592 -0.002144878 -0.002263102 0.0014677023 -0.0030091791 -0.0024538117 0.0014502957 -0.00038988903 0.0033689702 0.0005567924 0.0027961123 -0.004461528 -0.0032325834 0.0031632597 -0.0001634134 -0.0031749227 -0.0040270975 0.000679213 -0.0047999686 0.00046844746 -0.00041230975 0.0049549015 -0.0002300717 0.00054627226 -0.0049281535 0.0027153967 0.0014460506 0.004163951 -0.00053352123 -0.002571915 0.0026449931 -0.0008457692 0.0031940672 0.00021643765 -0.00075604126 -0.0033229997 0.003667247 0.0045019295 0.004664447 -0.0010238185 -0.0024086852 0.00062721537 -0.0017258255 0.00466405 0.0047075157 0.0008986906 0.004340199 -0.0011245805 0.001948907 0.0047995327 -0.0031255903 -0.00024144453 0.0007307944 0.003134175 -0.004712269 0.0027334264 0.0011575028 0.00070365187 -0.0045160907 -0.004018276 
ATL3	-0.0029489535 -0.0018910534 -0.0040044985 0.0015264426 -0.00032157326 -0.0016022393 -0.0030340012 0.0026353064 0.0009418708 -0.0049527837 -0.00407856 -0.002554535 -0.0031823898 -0.0045784013 0.0035283647 -0.0012919722 0.0037862365 0.0008243378 0.00041314913 -0.002762418 0.0020104963 -0.0016931593 -0.0027426395 0.003924884 0.0038190281 0.00063036516 0.0041939137 0.00070089404 0.00012031093 -0.004834471 0.0027281514 -0.0035378924 -0.0036811973 -0.0006280522 0.001520164 -0.0015961925 0.0015379703 -0.00080296217 0.0048535652 0.0020564063 -0.0012798123 0.0023715429 -0.00067775126 0.0028374768 -0.002716966 0.0039638276 0.0045337826 -0.00017172615 -0.003360072 -0.0030787617 -0.004798913 0.0023075943 -0.0010425601 0.0042434796 0.0018557425 -0.0014613908 0.0014576305 0.0031656674 -0.0036060838 -0.0011761675 -0.0046013216 0.0034243427 -0.00050584314 0.0034842228 -0.0038476083 -0.0009996233 0.0036670885 -0.0038252706 -0.0011833456 -0.00017809703 0.0007147791 -0.0046091224 0.00266171 0.0035883917 0.0045340336 -0.0042660083 0.0024548816 -0.0049048266 0.0029426322 0.0049939607 -0.0002794044 -0.0033133498 0.004039026 0.0006224988 0.00043820037 -0.0025051206 0.0049854415 8.548384e-05 -0.0047454317 0.0036824287 0.0008173268 -0.0001660823 -0.002816312 -0.0013203411 -0.0020863113 0.00056138897 0.0032410817 0.00239564 0.0002515594 -0.002317627 
CD2AP	0.0015562087 -0.0043156417 -0.0036487996 -0.004033399 -0.00080237514 -0.0019085372 0.0013827614 -0.0011338026 -0.0040286295 0.0033675781 0.002995097 0.0015469707 -0.002245178 0.0041160183 0.00071427174 0.004682137 0.0021630416 0.0035547793 -0.003604148 0.0040356014 -0.0025008244 0.0024601705 0.0033743447 0.004077872 0.0007821734 -0.0015066735 0.00064978166 -0.0030800912 0.0032212054 -0.0022756224 -0.0040957006 -0.003595793 -0.004251087 0.004272132 0.0024211989 0.0016677424 -0.0012462445 0.0039867833 0.0021522366 -0.0035455802 -0.0001349744 0.002398434 0.0028803332 -0.0047819684 0.004783006 0.0007219582 -0.0021431216 -0.0014761455 -0.003762879 -0.00092216436 0.0029972142 0.00030846454 0.003163509 0.0023985596 -0.0025335124 0.0021884996 -0.002813729 -0.0022799917 0.00053490105 0.00038535002 -0.0003553936 -0.004303822 -0.004398041 -0.0017807584 -0.003373214 8.6504115e-05 -0.00035332257 0.0029342324 -0.002751791 -0.0035811453 -0.0047772187 -0.004241931 0.004704742 0.0046573426 -0.0035511944 -0.0026952894 -0.0029681912 -0.0005256381 -0.0001912138 0.003859623 0.0041449405 0.0045837127 -0.0041612606 0.001832133 -0.00081170676 -0.001650553 -0.00015866975 0.000401434 0.00448404 0.002545429 0.0020712835 0.002808679 -0.0010879171 -0.0045061396 0.0016969204 0.0030876794 -0.0013083317 -0.0015640233 -0.0047976775 0.0012779903 
DHODH	0.0046493853 -0.0038591465 0.00034493455 -0.0018135428 -0.0030457585 0.0036429262 -0.00050448364 -0.0034388497 -0.0013685 0.0044541243 0.0038264066 -0.002828295 0.0045855404 9.16731e-05 -0.0030549103 -0.00017405777 -0.0020323237 -0.0008224375 0.0013538265 -0.002345505 0.0030573828 -0.0008127051 0.0021818362 -0.002899002 0.0039876006 -0.0012745971 0.0036964922 -0.0030336229 -0.0019974352 -0.0041126832 0.003122472 -0.0032334216 -0.0018981934 0.004465421 -0.0014538056 0.0031960006 -0.00431778 0.00222825 -0.003565518 0.0040439735 0.0042760335 0.00396724 0.00318243 -0.0040840684 0.002034718 -0.0035516832 0.0015634394 -0.0038873693 -0.00015869373 0.004948438 0.0003278112 0.004576034 0.0032894865 -0.0009361805 -0.0010575994 0.0022554246 0.004953453 -0.0021770417 -0.0024628066 -0.0042238017 -0.0019456872 -0.0011494515 0.004276794 0.004333065 -0.0006462009 0.00026520138 -0.004285729 0.004810312 -0.004109292 -0.0021858125 -0.0016308026 0.001955209 0.0036156464 0.004390138 0.0027666702 0.0014803582 0.0010421232 0.00022982265 0.0025276665 0.0026437151 -0.0005560477 -0.0018268132 -0.0020743636 0.002634587 0.0031231567 0.0024256734 0.0025167563 0.0007369013 0.0049902895 -0.0028831512 0.0028310828 -0.00078532466 0.0021655308 0.001459123 0.0042935456 0.0019179365 0.0007800266 0.0024125746 0.0022192819 -0.00068961934 
GLI1	-0.0019581951 -0.0028130426 0.003529814 0.0029424776 -0.00095727236 0.00077133597 0.0016227339 -0.0005327861 -0.00066586846 -0.0004167073 0.0044385456 -0.0011145532 0.004241105 0.0016512488 0.0025369143 0.0039235265 -0.0025239096 0.0044093505 0.0001761446 -0.004887297 -0.0022038065 0.004418902 0.0025366892 8.769598e-06 -0.004939094 0.0048218397 -0.0006826567 0.004353188 -0.0013506238 -0.00022583909 0.0049750153 -0.0049534906 -0.0028471868 0.0028153693 0.0036335115 -0.0018280355 0.0023699154 0.0021638973 0.004682846 -0.0003687091 0.00032992125 -0.0008723909 -0.0027102141 0.0010943282 -0.0043733437 -0.0029012721 0.001640956 -0.0021173588 -0.0028070712 0.0007110596 -0.0022984713 0.0032106382 0.0037530318 0.0030732548 -0.001072295 -4.7046145e-05 -0.0047938265 -0.0013061363 0.0011169958 0.0022210719 -0.0043598246 0.003638484 0.00015176466 -0.0021388077 0.0016806079 0.00033264363 0.001480733 0.0035471995 0.0005376369 -0.000306025 0.0031078036 0.0034533397 0.0013483029 0.000341217 -0.0013184295 0.0030998092 0.0049693226 0.0033329006 -0.004406783 -0.0018856651 -0.0041801315 -0.00045107448 -0.0024479136 0.0025104608 0.0013653068 0.0026393635 0.004488293 0.002856596 0.00460015 -0.0016423188 0.004852925 -0.00019359546 0.0014494905 0.0047289715 0.0039008085 -0.0026405423 -0.0015143997 0.0012208078 -0.0036745414 0.0014483897 
MAML3	0.00046610093 -0.0029502572 -0.00075973617 -0.0043463847 -0.00183888 -0.0008150645 0.0032562607 0.0032020193 0.0034798244 -0.0019302664 0.0029503917 -0.0041439296 0.002956649 -0.0023178686 -0.0048005087 0.0027168638 0.0047357827 0.001527279 0.00059657 0.0029921792 -0.004842938 -0.00094129395 0.0047890465 -0.0036066389 0.003081387 -0.0039189616 -0.0046725255 0.00319232 0.0023928198 -0.0005545731 0.0006210997 0.0026460942 0.0022810998 -0.0029419514 -0.0008441205 0.004876486 0.0016446182 0.0012781797 0.00022004703 -0.00088491244 -0.002583047 0.002157522 0.004365271 0.0006185643 0.004162537 -0.00029089965 -0.0035547584 0.0021311382 -0.0030552766 0.0003869405 0.004818632 -0.00012667151 0.000785059 0.0027953296 -0.0021942141 0.0012602403 0.00029887233 6.615237e-05 0.002782912 0.0034843346 -0.0037473864 0.0023129808 0.004893077 -0.0008644655 0.003571215 0.0043707914 -0.00021216758 -8.6609594e-05 0.0005942163 0.004666805 0.0047169873 0.004391164 0.00084950164 -0.0036710477 -0.00081416836 -0.0016587503 -0.003010409 -0.0025276642 0.000999578 0.0014208684 0.004316332 0.0012434945 -0.0044161337 0.00086561334 0.0012543114 -0.0018760042 0.0018938709 -0.0016994352 0.003621247 -0.0022845077 0.0010036121 0.0035008132 -0.0034108239 -0.004303514 -0.0043127993 0.002518315 0.004049409 -0.0024787209 -0.0006072229 0.0034145624 
DMD	-0.00051251746 -0.0037763035 -0.00038950445 0.0024970977 -0.003132395 -0.004791635 -0.0040860535 -0.0031698986 0.004439036 -0.001323788 -0.001533493 -0.0023357952 0.0001998199 0.001964558 0.0045391754 -0.0024104218 -0.0033065623 -0.0032452266 -0.004527169 0.0042034048 0.0005236738 -0.0030017374 -0.0019809925 -0.0044333315 0.00086168404 0.0031455515 0.0017220482 0.0028246874 -0.0044796844 0.0017952514 -0.003569442 0.003742858 0.0021551033 0.0037979071 0.0042780098 -0.0026482916 0.0010875594 -0.00048066 0.002275868 5.132631e-05 -0.00031408013 0.004892685 -0.0035994106 -0.0012416348 0.0012633477 1.3741678e-06 0.0023474516 -0.0018737192 -0.0035813476 -0.0018190477 0.0038891376 0.002249908 0.0039841556 -0.0048352107 -0.0014255549 -0.0044513303 -0.002364822 0.0036266993 -0.0024501025 -0.004137164 -0.00451534 0.004911502 -0.0005859487 0.002591641 0.0025485149 -0.003498216 -0.0011693067 0.000969512 0.0033507685 -0.0021804937 -0.0002598832 -2.446268e-05 -0.0018972458 0.0038097794 -0.004832472 0.0037765866 -0.0014897934 0.002973379 -0.0040097446 0.00050797797 -0.0046787546 -0.0042778924 -0.0025018582 0.003054242 -0.0049391654 0.0017725641 -0.001812043 -0.0040698494 -0.00083018845 0.00021761357 -0.0022053865 -0.002592675 0.0019179038 -0.0003733044 -0.0023989852 0.0033317315 -0.0016568018 0.003331553 1.4327428e-05 -0.00065702095 
NOL8	0.0005873965 -0.0032024186 0.001379086 0.0030793424 0.0006144499 0.003507551 -0.0028128854 0.0017294182 0.00387461 0.0032755767 -0.002218219 -0.0008890681 -0.0020743313 0.002976281 0.003330506 -0.002573767 0.0039293463 -0.0026374357 -0.0022386888 5.3327913e-05 -0.0047022523 -0.0017905887 -0.0034910457 -0.0031154496 0.0020006977 0.0023000224 0.004998519 -0.0020867973 0.0005456946 0.0019668997 0.0017196173 0.0019855413 0.0031721306 0.003263276 -0.0011962744 0.0011660915 0.00016033956 0.0015973793 -0.0033870025 -0.002202042 -0.004864469 0.002848946 0.0049787224 0.003186644 0.0021710524 -0.00091595826 -0.002393919 -0.0018615259 0.0019019751 -0.00018380934 -0.0046880976 -0.0010876516 -0.004874037 -0.0036894376 0.001431558 -0.0017113598 0.0010045229 -0.0014624516 0.0033662664 -0.00394949 0.0026546463 0.0037269741 0.0028680542 -0.0030296927 -0.0034192621 0.004040097 -0.0025375276 -0.003324531 -0.0022057728 -0.0011431671 0.0031274762 -0.0014389328 -0.0042310916 -0.0022839801 0.00347895 -0.0016783514 0.0022304517 -0.0012602304 -0.0027749662 0.0033344696 -0.00025663117 -0.0014748563 -0.0009550337 0.0022467491 -0.0003527691 0.0019845974 0.0013142664 0.001467569 -0.0007083897 -0.0008688921 -0.0005339644 -0.0040535284 0.0006637784 0.0021231375 0.0019154972 -0.0018176256 0.0034061468 0.00014563499 -0.0020843544 5.2826952e-05 
TUSC2	-0.0049089156 -0.004685389 -0.0042085703 -0.00441474 0.004475 -0.0032062817 -0.0019073138 -0.0026970548 0.001324851 -0.0026470846 0.004981942 -0.0014950996 0.0044002216 0.0045462046 -0.003911819 -0.00026434887 0.0003918573 0.0021777465 0.0029165053 -0.003199101 0.00088521576 0.0036537298 0.00015029171 0.0032069467 0.0028045068 0.0036868209 -0.0029962948 -0.0039957007 0.002332523 -0.0037829312 -0.0018452632 -0.0008020894 -0.000636872 -0.004462749 0.0034422465 0.0038425275 -0.0008914691 -0.004795556 0.004729237 0.003130676 0.0028804145 0.0017549641 0.0021805556 0.0022698257 -0.004758752 0.004064381 -0.0011825344 -0.0031714488 -0.0014074368 -0.004013029 -0.0013229274 0.0017609566 -0.0022863203 0.0040133214 -0.00042709432 0.0034689913 -0.0020838408 -2.6272044e-05 -0.00024352262 -0.0039617214 -0.0036926859 -0.0036869836 0.0039529097 -0.00087812374 -0.0037066184 0.0042365897 -0.0025752133 0.00045101964 -0.003365582 -0.00024487314 -0.0006631362 0.0024550841 -0.0023771976 0.00085970183 -0.002474076 -0.0039313408 0.0027038676 -0.0044895923 0.0008886197 -0.0010109002 0.0022894298 0.0024001042 -5.4646272e-05 -0.0012079453 -0.0008500269 -0.0030988494 0.0020393103 -0.004821127 0.0036797412 -0.0019403917 0.0038070516 -0.0037430164 0.00401911 -0.004518085 -0.004661425 -0.0029936507 0.0020715736 0.002046223 -0.00057519885 0.001391405 
ADRA2B	0.00077055744 0.0007821876 0.0018292576 0.0042124353 0.0011100706 -0.00016027788 -4.802676e-05 0.002546292 0.0047421567 -0.0036544483 -0.0037941632 0.0044181445 0.0029551527 0.002200059 0.00051296526 0.0036443681 -0.0031092186 -0.0014260588 -0.0033420178 0.0013075476 -0.0021544837 -0.00028569248 -0.004819572 -0.0020107809 0.0014886556 -0.0042635202 -0.0018087314 -0.003585071 0.0044218428 0.0017875832 0.0032578 0.0023440935 0.0034180724 -0.0012464629 -0.0031049713 -0.003827666 -0.0039728344 0.0028318558 0.0010384177 0.0010856976 -0.00032927547 -0.0043248297 0.0027797685 -0.00051860814 -0.0040895594 -0.0031319412 0.0026499499 0.0014503242 0.0037439496 0.0030111999 -0.0034354532 -0.002880057 -0.003393865 0.0031166964 0.004839426 0.0029416583 -0.0012812844 0.0028332479 -0.0010345975 -0.0036398168 -0.0043282197 -0.0006211731 0.0031414668 -0.0013284604 -0.0030893367 -0.0037884181 -0.0037238658 -0.004048129 -0.00435077 0.003602896 0.0045911507 0.0011591407 -0.0018743413 0.00034931197 0.0048122527 -0.002754529 -0.0011732372 -0.0034599402 0.0047435085 0.0019126161 -0.0010824417 0.0022966142 0.0022931963 0.0032012723 -0.0010337102 0.0025865925 -0.0019154932 -0.00043354186 8.203867e-05 0.002494671 -0.001027765 0.004131673 0.0045111813 -0.0021186555 -0.0047452385 0.0021567685 0.00063976547 0.00067780254 -0.0018381809 0.0012364725 
MAS1	0.0008508808 -0.0016254958 0.0029758767 0.0012720636 -0.0013872287 0.0036632337 0.0017290112 -0.00014102265 -0.0014564877 -0.0028662365 -0.002713965 0.00024584625 -0.0012652136 -0.0017007109 -0.0032270215 -0.00486388 0.0034853623 0.0040384787 -0.0008664186 -0.0038932145 -0.0025098287 0.0027175983 -0.002658011 -0.0048526623 -0.0043032705 -0.00031182665 0.004143513 0.0001377217 -0.00023368793 -0.0032414545 -0.0025267215 -0.0032012227 -0.002439716 -0.003946453 0.0043132114 -0.004154013 0.0027090702 -0.0038597998 0.0031544748 -0.0007089809 0.0032175593 0.004467471 -0.0014763079 0.0006297315 0.0035778107 -0.004789779 -0.0039908257 0.00053390104 -0.0036524588 -0.002301761 0.0016343744 0.0023417235 -0.003089329 -0.0036315736 0.0018189223 -0.0030853166 0.000643589 -0.0041767443 -9.602461e-05 -0.00022833922 -0.004432665 -0.003770983 -0.004510734 -0.0023469657 -0.001040863 -0.004673774 -0.003191821 0.004919782 -0.002506711 -0.0014392141 -0.0018938095 -0.0025164606 -0.002855566 0.00079768745 0.0030998953 -0.0018268779 0.0046800924 -0.000110369576 -0.00020023988 -0.0046366923 0.0013247537 -0.0034182293 0.00059217063 -0.0031515684 -0.003401355 -0.0010044327 -0.0029377812 -0.002548009 -0.0031722633 -0.00283064 -0.0046947026 -0.0030256524 4.6163146e-05 -0.0041610477 -0.0030693128 -0.002676909 0.003652502 0.0012211743 -0.0014959709 -0.00438045 
PTGFR	0.0028252034 0.003799297 -3.0119501e-05 -0.0024470256 -0.002179085 -0.0034784095 0.004221842 0.0028688065 0.004297787 -0.0015295966 -0.004276397 0.00015240745 0.0045757345 0.0028855873 -0.0015223712 -0.0013904595 -0.0025357415 0.004148447 -0.0043890867 0.004493204 -8.684518e-05 0.0047894185 -0.004869312 0.0046408167 0.0028810916 0.0035983461 0.0040777153 0.000627017 -0.0041060434 -0.004880637 -0.003972794 -0.00244605 -0.002505165 0.0024711697 0.0035557933 0.0023443121 -0.0031468074 0.0038505765 0.00015255534 0.0011472655 0.0006615041 0.0019274352 0.0016077268 -0.0031602434 0.003502965 -0.002177138 -0.0010596166 0.0024657743 0.0010943259 -0.0035038206 0.00086350867 -0.0031691284 -0.0016752171 -0.00096891256 0.0023421724 0.004381878 0.00048432668 0.0008123402 0.004666844 0.0017991734 -0.0036091472 -0.0046564857 0.0025824544 -0.003286825 -0.00014949137 -0.004550437 -0.0043087895 0.003689287 -0.0021492026 0.0031510326 0.0038550657 0.00041112906 -0.0018020523 0.0025362489 0.0033960755 0.0035126251 -0.0020649715 -0.0046667643 0.0040931497 -0.0013596808 -0.0032742098 -0.000732333 -0.004138632 0.0047490327 -0.004308949 0.0024995576 0.0026413326 0.0007837547 -0.003122817 -0.0010400728 0.0016568754 0.002060227 -0.0020244473 0.0012014435 -0.004522884 -0.0029438643 0.0027105121 0.0017113058 0.0020189392 0.00020024384 
FOXL1	-0.0005753377 0.0044780825 6.0740527e-05 0.0039334935 -0.0030793569 0.0020598175 -0.0032578157 0.0042240643 0.0021152112 0.00061034394 0.0045847967 -0.003973974 0.00010714497 0.0017085547 0.00084639015 -0.0035049038 0.004446268 -0.0047345585 -0.0018497014 -0.0038864748 0.0015385395 0.00486402 0.0013921452 -0.00422816 -0.004987318 -0.003952096 -0.00025104484 -0.0033270023 -0.0008800929 -0.0037385835 -0.0046003354 -0.0021763653 0.004239486 0.004877682 -0.002722584 0.0047317035 0.00033876466 0.0023810961 -0.00019457283 -0.004500923 -0.0019614957 0.0033455037 0.0021245352 0.0034358257 0.004920609 0.0042617014 -9.7672266e-05 -0.0002880271 0.001381405 -5.6373447e-05 -0.0047629145 0.0039008923 0.002440507 -0.00013852426 0.0044759493 -0.0011584423 0.004571188 -0.00026756513 -0.004175173 -0.0013755417 0.0013359436 -0.004206289 0.0014002954 0.00034824453 0.00044497618 -0.0032324565 -0.0026228917 -0.0023091559 -0.0029333998 0.004689366 -0.00087060506 0.0008568168 0.0025882057 -0.004380628 0.0012536875 -0.0016938662 0.0042684977 0.00264621 0.0013206693 -0.0004314505 0.0039915005 -0.0038998413 -0.002843383 -0.0025424275 -3.190628e-06 0.0020804345 0.00035547375 0.00086605886 -0.0015998125 0.0020618504 0.002548847 -0.0021171717 0.00049053796 -4.2859923e-05 -0.0018774307 0.0036830783 -0.0018162144 0.0005588881 -0.0037253883 0.00020440694 
ICOS	0.0006484056 0.0042615687 -0.0019888368 0.00420712 0.00036777178 0.0034709352 0.0004715483 0.004496425 0.002161409 -0.0035884099 0.00087124034 0.0025295685 -0.0022196325 0.0023699093 0.0016448098 -0.003420471 -0.004168747 -0.003964949 -0.004164103 0.0042567756 0.0006031472 0.004333411 -0.0030444644 -0.003981537 -0.0037611756 -0.000301984 0.000746641 -0.00052992796 0.0036218166 -0.0013895337 0.0028679802 -0.0039521987 -0.0036593243 0.0015975335 0.0046466836 0.0019350525 -0.0049785594 -0.0013982902 -0.00042594335 -0.0017815377 0.0016332674 0.0027908047 0.004847795 -0.00453197 0.0034262768 0.0041822917 -0.0019122238 -0.001959408 0.004507829 -0.0038978178 0.0019220245 -0.002065925 0.004607532 -0.0049986993 -2.6339918e-05 0.0048550065 -0.0010025885 1.3140335e-06 0.0044821627 -0.0017418971 -0.003580921 -0.003562593 0.00033462857 -0.00025277692 -0.00067876163 0.002613714 -0.0037963418 0.0015463411 0.0021611522 0.0038679175 -0.0046585244 0.0006155559 0.0032834117 -0.00025351293 -0.004093008 -0.00038145707 0.0033345895 -0.003337902 0.0008936148 -0.0040716645 0.0048787156 0.0019452386 -0.0039024511 0.002329257 0.0003524954 -0.0021351716 0.0035376628 -0.0046711736 0.0046061496 -0.0049943817 -0.0042542373 -0.0022535394 0.0012385412 -0.0012492124 0.0034560391 0.0025643469 0.0012825747 0.0012274878 -0.003352942 -0.0013467702 
MLLT1	0.0045325127 -0.0037846414 -0.0037151265 -0.0043359487 -0.0046108165 0.0036823663 0.00089901075 0.003444157 0.0012627966 0.0008552727 0.0035152016 -0.0034866473 -0.003414352 0.004307153 0.0025251133 0.002175629 -0.0049390085 -0.0015708111 0.0037632294 0.0016434317 -3.392267e-05 0.0028564364 0.0038814207 0.0029392147 -0.004402747 -0.004941063 -0.0023362846 -0.004664351 0.00052817044 -0.00433695 -0.0042943787 0.0011329093 0.0035009945 -0.003310419 -0.0004763477 -0.0017230407 -0.0024466356 0.00090604654 0.0023396846 0.0015241418 0.001150535 0.0008154843 0.0021411348 -0.0014284366 0.0029424913 -0.003658916 -0.004635518 -0.004711373 -0.0024608492 -0.00043443684 0.0030445596 0.0023802356 0.00059065194 0.0041271276 0.00049884187 -0.0019806304 -0.0035854839 0.0027227723 0.0015232445 0.0031687813 0.004821283 0.0030981016 -0.0006697396 -6.281808e-05 0.004252586 0.0028995837 -0.00062424404 -0.0034758993 -0.0006995243 3.0745312e-05 -0.0006949445 0.000707682 -0.0029367465 -0.00080608967 0.0048401854 0.002045921 -0.0032038847 0.0014503718 -0.0013510566 0.0029073858 -0.003937623 -0.001995919 0.0042512766 0.0028665543 -0.00051294354 0.0016521058 0.0024350528 0.0010068368 -0.00074425666 -0.001492281 0.0025976112 0.0011634004 -0.0041162916 0.0036152292 0.0029162888 -0.003873901 -0.001889462 0.001401248 0.0049499874 0.00014504408 
ETV7	-0.004759531 0.002266757 0.0026198325 0.003412937 -0.00044406732 0.003363216 0.0019749478 0.001309067 0.0039221183 0.0033463072 0.003071056 -0.00016210061 0.0011823158 -0.00071938836 -0.0037336892 -0.003471674 -0.002372645 0.004277766 0.0038307938 0.0037706902 -0.0018579464 0.0034541062 -0.0023046902 0.004554131 -0.002150399 0.0029723186 0.0036580176 -0.0036137383 -0.0049451203 0.0036598006 0.0031526396 0.0037208234 0.004539328 0.0023902464 -0.0026000969 -0.0019403864 -0.004623749 0.00017423721 0.0006651225 -0.0011910553 -0.0038599933 -0.004267037 0.003809164 0.0042892112 0.0025568833 0.003997 -0.0012098465 -0.003632309 -0.00075567944 0.0012386165 0.0003997942 0.0032209984 -0.0022955048 0.0016276224 0.00035099656 -0.0012451333 -0.0015337713 0.0032242886 -0.0001258505 0.004804454 0.0037478434 0.002346915 0.0008229043 -0.0034562536 -0.0046657836 -0.00019099019 -0.002297546 -0.0005985328 -0.0024738961 -0.00074653514 -0.002494265 -0.003062607 0.0031847071 0.0045723864 0.001906067 0.00275362 -0.0027965496 0.004991061 -0.002130534 0.0036864046 0.0031798917 -0.0035326593 -7.820714e-05 -0.004871939 -0.0039479886 -0.003039159 -0.004749551 0.0018245805 -0.0017415109 -0.0015329102 -0.0011633879 -0.00062760204 -0.001879804 0.00402321 0.0046378826 -0.0024154389 0.0018803828 -0.0035119485 -0.004003022 -0.004234015 
OR4S1	0.001195515 0.0010132262 0.0026893003 -0.0039566355 -0.0024690148 7.378383e-05 -0.0025584302 -0.002175566 0.0044432473 0.0044411165 -0.0010245213 -0.0005651539 0.003998703 0.0043416563 0.003906021 -0.0035083273 0.0028233759 -0.0004389593 -0.004853885 0.004066557 -0.0016801954 -0.0019779871 0.0007115415 0.002267105 -0.0029518437 -0.003983706 0.0020460582 -0.0035012125 -0.0019223114 -0.0019156149 0.00013941359 -0.0011045727 0.0032688915 -0.004554739 -0.004038456 -0.0035960088 -0.004908308 -0.004480086 0.0036683138 -0.0039465805 0.0039011363 0.004772106 0.0012506318 0.0033082194 0.0047844336 0.00023473895 -0.0038625181 -0.0041620047 -0.002970036 0.0044189487 0.002251222 -0.0014665609 -0.0013249079 0.0044054766 0.0010709816 0.004798168 -0.0010373566 -0.0015865504 0.0018476517 -0.0021126624 -0.00428621 -0.00031576146 0.0008368285 -0.002759918 -0.0032283121 0.0048829154 -0.0033978987 0.0040274994 -0.0030741012 -0.0017032351 0.0028074167 0.00020506431 0.00067638414 0.0049586208 0.0012460335 -0.0039241966 0.0024123087 -0.004517678 0.0033427142 -0.00060704484 0.004869997 -0.0010971028 -0.002493968 0.00032552957 -0.0047619804 0.0019876321 -0.004233267 0.00087681215 0.0036353325 0.0018051636 -0.002656237 0.0014088252 -0.0017373178 -0.0008110158 0.0022715225 0.0037995775 -0.0039127567 -0.0044018566 -0.0015587689 -0.0016331403 
HSPG2	0.004815823 0.0005312741 -0.004837851 0.00069337897 -0.0028646814 0.0046033836 -0.0007311722 -5.2742773e-05 9.675153e-06 -0.0035395434 -0.0027898054 0.0018800084 0.0036443945 -0.0013509652 -0.0046122093 -0.0031001335 -0.0018883378 0.0016868723 -0.0023052166 0.002280718 -0.0044394303 -0.00025381206 -0.0025443383 0.0035502024 -0.00036361846 -0.002186374 0.0017767344 -0.00044412748 0.0013454464 -0.0014708231 -0.0012082531 0.0026145473 0.00019806066 0.0035055534 0.002382831 -0.0048461854 -0.00051189127 0.0033200202 -0.004718145 -0.0030696078 -0.0012224492 -0.0030947358 0.001240217 -0.0023878948 -0.004417725 -0.0012238564 -0.002839157 0.0017451713 0.0049230317 0.0017063454 -0.0035887952 -0.004677347 -0.00092491735 0.00012401184 0.002293859 0.0009534149 0.0035947354 6.1379644e-05 0.0044343686 -0.0045776633 -0.001646702 -0.00018265538 -0.002625086 0.00403712 -0.0006207635 -0.0033677442 -0.00038913338 0.0016655236 -0.0024032039 5.0694856e-05 0.0047109625 -0.0046649696 -0.0049717627 0.0021780294 0.003118994 -7.2314224e-06 0.0031952856 -0.0022493594 0.0014915582 -0.0035687697 -0.00068590307 0.00027940617 0.0015756827 -0.004930089 -0.002651424 -0.0034188228 0.0021212383 -0.0009174645 -0.0025972167 0.0010213795 0.0038413475 0.0008906856 0.0038081112 0.0023045535 -0.0033992373 0.0032518574 0.004851486 0.0027321072 -0.0020053086 0.0014162112 
PEMT	0.00086002215 0.0031514515 0.00040897695 -0.0040365458 -0.0017238065 -0.0023238156 0.0019440401 -0.0041886335 0.0015141951 0.0028517796 -0.00069363805 -0.0033057448 -0.0023824368 0.0026348855 -0.004818954 0.0020513549 -0.001190284 -0.004391724 0.002665992 0.001889167 -0.0019494686 -0.0043754093 0.0010600664 0.0017577736 -0.00191597 -0.003249207 0.00307047 0.0027145108 -0.00030921996 -0.0022250635 -0.0037808295 0.00071423536 0.00024200561 0.0030744846 0.0021762815 -0.00052008335 -0.0028766606 -0.0030013113 -0.0037650897 0.0011372252 0.00047732267 -0.0019718795 -0.0019707407 0.0022925443 -0.0021861366 0.00054692046 0.00016646087 -0.003290451 -0.0042641624 -0.0017683918 0.0049555935 -0.003988512 0.0032492545 0.0017737038 -0.0016485939 -0.003120722 -0.003590885 -0.0005220238 0.0039481516 0.00038729585 0.0043121367 -0.0019502767 -0.0009330306 -0.0007060501 -0.003751897 0.0011842465 0.004739522 -0.000505455 -0.0027099738 -0.0022904545 -0.0041389354 0.0021256544 -0.0020784119 -0.0011456189 -0.0018487944 -0.00020798905 0.0033080005 -0.0043556527 -0.0016316877 0.0013480749 0.0043612393 -0.0028627256 0.0036905752 0.002732718 -0.0032653103 0.0009323371 -0.00064402027 -0.001350227 -0.00013309155 0.0028555833 4.631734e-05 0.0031483867 0.00086209417 -0.0026111547 0.0037791438 -0.0019165837 -0.00036392335 0.0017385058 0.0044002673 0.0015572316 
BST2	0.0049411827 0.0025169596 0.0048638266 -0.0015934496 0.0045581805 0.003643966 0.0010467353 0.00056359265 0.0049078963 2.8688066e-05 -0.0018983516 -0.0008152375 -0.00256396 -0.0032368253 0.00011414403 0.00074172876 0.0019538945 0.0002372811 -0.0025696526 -0.00034772634 0.0037894258 0.00039229591 -0.0014288103 -0.00022287897 -0.00034434494 -0.0012166507 0.0036492932 -0.0049744733 -0.0007470588 -0.0030213445 0.0036070696 -4.605646e-05 -0.00041665745 0.0017206164 -0.0024691133 -0.0021073131 -0.0036358638 -0.0038469422 0.001201722 -0.0035954826 0.0025828627 -0.0012109332 -0.0030589981 0.003685404 0.0010496167 -0.0030249874 0.0037949942 -0.004309277 0.0016428799 -0.001666495 0.004283085 0.0011362034 -0.0006822822 0.004674265 0.0043924004 2.1060193e-06 0.0011690925 -0.0018561998 -0.0025150592 -0.0014169653 -0.00081009674 -0.0048077265 0.0033762204 -0.0029819654 -0.0030746274 0.004494342 0.0032554443 -0.0041896915 -0.0026988003 -0.0011763244 0.003475674 0.002560868 -0.0033628307 -0.0023664634 -0.0037574035 0.0035871011 0.002808955 0.003873537 0.003596612 0.0042216266 0.0007372971 0.0030541678 -0.004550538 0.0019224293 0.0047167265 0.0030251998 0.00015624538 0.0013379459 0.001451884 -0.0024423283 0.0016114392 0.004104794 -0.0033908503 -0.0031631277 0.0040485132 -0.00019956185 0.004041882 0.0020210603 -0.004318453 -0.00031335952 
PRKACG	-0.0011895641 -0.0019650697 -0.0007818604 0.002518318 -0.0043119756 0.0009508165 -0.002988769 0.0016273123 -0.0018158616 -0.00045654437 -0.0019181125 0.00097621867 0.0024405906 0.004241011 0.0023533213 -0.0035733622 -0.0004202886 -0.0028372984 0.0003371818 -0.0030932596 -0.0014190589 -0.0049428684 -0.004508232 -0.0040441537 -0.0018346884 -0.0005300895 0.0032730212 -0.0037259809 -0.0022803955 0.0021295021 -0.0031552275 -0.0010214456 0.0048021795 0.0025603096 -0.001610031 0.004432734 -0.0026283981 0.0049443715 0.00033573608 0.0009670462 0.0045425063 -0.0018083944 0.0014410275 -0.0021470783 -0.002104132 0.004807867 0.0026067756 0.000733631 -0.0035478324 0.0010524312 -0.0031478282 0.0010988434 -0.0031348 -0.0011211281 -0.0016434903 -0.0004002162 0.0013312711 -0.0015991742 -0.0046847025 0.0023271954 0.0006424166 0.004193711 -0.004905279 0.0020852108 -0.00134325 0.0021408352 0.00032291477 0.00013405649 -0.004286579 0.0021499167 -0.0016177368 -0.004992845 0.00038271752 0.0010718852 -0.001949859 0.0047723115 -0.00083705946 0.0038865115 0.0047273985 -0.0026343882 -0.001253245 0.0026895711 -0.0038931388 0.003876564 -0.0049761347 0.0043422 -0.0022855487 0.0026751275 -0.004654057 -0.0027228594 0.0009203711 0.0029566656 -0.0028146578 -0.001324106 0.00026701967 0.0010405442 0.00051507703 0.000611948 -0.0014762474 4.671199e-06 
PRM1	0.00084979 0.0024658968 0.0029399847 -0.0010198215 0.0026854435 -0.0031094172 0.0040571266 0.0030946196 -0.004109051 0.00028072228 -6.590054e-05 0.0007009905 0.0021886006 -1.3477215e-05 0.00035277178 0.0045452793 -7.774731e-05 -0.0047949483 0.0040301606 -0.0035582783 -0.0022175035 0.0049241 -0.0022048063 -0.0015513758 0.002069562 -4.8718717e-05 0.0022213901 0.0032152222 0.0019871288 0.0047650365 0.0033541687 -0.0018579725 0.0039454023 0.0022774844 -0.001421722 0.0034763075 -0.0007293905 0.0030693584 0.0034268098 -0.0012353212 0.0046555325 0.00068971433 -0.0023641188 -9.1070426e-05 -0.0039087934 0.0013506096 -0.0030422353 -0.004785874 -0.004012964 -0.0007506103 -0.004378981 -0.00158748 0.00040726166 0.00379863 -0.0026114245 0.00099229 -0.0005381579 0.0019122021 -0.0048477137 -0.00467708 -0.0040196897 -0.0045108944 0.0030429764 -0.0040881643 0.0015013649 -0.003027426 0.00037126473 0.0034984646 -0.00405628 -0.004514144 0.0001506368 0.004884436 -9.526609e-05 -0.00013285788 -0.0005493219 0.0049892534 -0.00089925324 0.0025384866 -0.00426273 0.00064197375 0.0010994043 0.0026479915 0.004877192 -0.003511623 -0.0036819691 -0.0027060735 0.0013201139 -0.0028670125 -0.00072932895 -0.004570875 0.0045101517 -0.0020781148 0.002058128 0.0040728115 0.0003813203 -0.0014952574 0.0046410235 -0.00096640177 0.0011822672 6.60876e-05 
MDH1	0.00024035132 -0.0023754458 0.0029354314 -0.0017712931 -0.004027712 -0.00084491755 0.0017817477 -0.002833072 0.0025269454 0.00114374 -0.003294931 0.0029769158 -0.003745786 0.004397799 0.0037015209 -0.00066644995 -0.002315578 0.0036740277 0.0003308674 -0.0027869304 -0.0023173306 -0.0034320303 0.002480169 0.00091034285 0.0020104095 -0.0018618293 0.004619969 -0.0044127707 0.0009514013 -0.0022096802 -0.0019320662 0.0013706468 0.00035930146 -0.0009686774 -0.0010747581 0.001409643 0.0027188724 -0.00488735 -0.00073974713 0.003906101 0.003991661 0.0026096413 0.000319588 0.0020927365 0.0027343722 0.0003105294 0.0038369768 -0.001815613 -0.0027491038 0.0041062045 0.004659232 -0.00034086863 0.00048742953 -0.0034734495 -0.0041095736 0.0046781437 0.0018405569 0.00052422506 0.0006443022 -0.0030269683 0.0016043838 -0.0015428485 0.0048010047 -0.0044554714 0.0026168518 -0.0016396103 -0.0032443223 0.00048414647 0.0016959612 0.0006376505 -0.0046868646 -0.0010140806 0.0017508377 0.0017731035 -0.004329065 0.00090405345 0.0013258536 -0.003816018 0.0029161894 0.0031777776 -0.004908827 0.0010416621 0.0016058253 -0.0013081442 -0.0020988362 0.0014675609 -7.175198e-05 -0.004796782 -1.0920581e-05 -0.0008714221 -0.0040445225 -0.004944752 0.0032748647 -8.1398925e-05 0.00074626977 0.0034702097 -0.0022709994 -0.0032156294 0.0032640453 -0.0047825756 
CD24	-0.0031595337 0.004233357 -0.0012959251 0.0041107563 -0.004354745 0.00096089236 0.0040529305 -0.0028163719 -0.0007668331 -0.001471075 -0.0029924877 0.0033745167 -0.0034234803 -0.00085182546 0.0028636174 0.0038623302 -0.00019127561 0.0035473483 0.00422579 0.00010087222 0.0020057156 -0.0011495192 -0.002881171 0.003559251 0.003612087 -0.0039480687 0.00045902134 0.0017958181 0.0029011676 -0.00388075 -0.00053943635 -0.00017960518 0.003636002 0.0035599577 -0.00057692605 -0.0029872404 -0.0025301776 0.00068380474 -0.0037416553 -0.002662071 0.002979355 0.003522861 0.003644976 -0.004871483 -0.00050633866 0.00011876546 0.0033436436 -0.0041401144 -0.0012270974 0.0010263203 -0.0024504727 -0.0016772638 0.0018312974 -0.004860644 -0.0032382768 -0.0028383308 -0.0047389283 0.0008653246 -0.0016486868 -0.00013403519 -0.004811162 0.0021044714 -0.000106659274 -0.003832196 -0.0047308304 0.0043767816 -0.00029057983 0.001962436 -0.004067997 0.0016007656 0.0034744875 -0.002558895 -0.00030544438 0.004797005 -0.0009024512 0.0009289335 -0.0026825226 0.0022708417 0.0040831277 -0.0037402774 -0.0049683494 0.0013126138 0.0048330696 0.0022444145 -0.0022357223 0.00074192195 0.0020806233 -1.2753886e-05 -0.0010264192 -0.0019458826 0.0047691236 -0.0026365547 -0.004585563 -0.004459137 -0.0036415597 -0.0008649137 0.0026088785 0.0022230565 -0.00464221 0.00049551774 
SH2B1	-0.0019971158 -0.0046807113 0.0005326676 0.0030938694 0.0048800358 -0.0046112444 0.004989005 -0.0013177465 0.0034689582 0.002416625 -0.0039951275 0.002064 -0.0011921808 -5.4023294e-05 0.0036499493 0.0010609038 0.0048372415 -0.00087409565 0.0016421736 -0.0013442112 -0.0010014167 0.0035905212 -0.0044197044 0.0005030033 -0.0016757923 0.003435631 0.002790866 0.0048183505 -0.00245519 -0.0029146594 -0.0043023876 -0.0048743384 0.0040511754 -0.0029837908 0.0031697017 0.00044227557 -0.003060434 0.0047534527 -0.0045865155 0.0010043897 0.0006124378 -0.0026386527 -0.002226664 0.0007435489 -0.004446605 -0.0005393677 -0.0028691667 0.004298914 -0.00061233144 -0.0016325752 -0.004708604 -0.00018641716 -0.00012589246 -0.0026186048 0.00016679522 0.0035970123 -0.00085156655 0.0007041022 0.0047999215 0.0019887106 -0.0034964145 0.0040868074 -0.004759081 -0.0038374558 -0.0039924965 0.001465694 -0.0022842917 0.0027505588 -0.0039848466 0.0033325914 0.0029085476 0.0020569544 -0.003188675 -0.0005662569 -0.0025458925 0.0029511962 0.0010709881 -0.0017177289 0.0034725275 0.0004204615 -0.00019794308 0.0011186695 0.0025938675 0.0024564627 -0.004092699 0.0043896567 -0.0029068522 -0.0021024134 -0.00040259346 0.0046303347 -0.00034467175 -0.00073343795 0.0045434376 0.004271982 0.00077841425 -0.0021418738 -0.0018994155 -0.00026665436 0.0031551064 0.0017553759 
IGFBP7	-0.0035577056 -0.0015342586 0.003522705 -0.0007361671 0.0038135624 -0.002493164 0.0046758032 0.004081955 -0.0019055518 0.00058864197 0.002979558 0.0025213242 0.004638996 -0.004439748 -0.003162392 0.0034395235 0.0033768055 -0.0016357405 -0.004915333 -0.0038030795 0.0022104364 -0.0038173113 0.0010001989 0.0013752475 -0.0023520542 0.0019158891 0.00070959906 -0.0043017776 0.0022398073 0.00083043706 0.00027130876 -0.0010669993 -0.003921284 0.0010727347 -0.0034632115 0.00051184645 0.0040780823 -0.000525736 -0.0046003116 -0.0004601404 -0.0015609559 -0.00068619166 -0.004381118 0.004470749 0.0015395434 0.00038430825 -0.0020934418 -0.0037443126 -0.0005387254 -0.0014478308 0.0028603629 0.0009187274 -0.00017150996 -0.00070811214 0.00056405383 0.0027419445 0.003369403 -0.0043508895 1.0785137e-05 0.0041528414 -0.002092893 0.0034655812 -0.0024873337 0.0039348304 0.0048935725 -0.0042327964 -0.0032788268 0.00038812472 -8.8264416e-05 -0.0021619014 -0.0033848197 -0.0023311314 -0.004162695 0.0045160465 0.0027585072 0.003184102 0.0026005458 -0.0025002407 -0.0014195502 0.0011700274 0.003035904 0.0029199903 -0.00016547207 -0.004903511 0.0029547876 0.0032164247 -0.0017992476 4.362384e-05 0.0038070271 0.003661704 -0.00016521213 2.3026792e-05 0.003915117 -0.00058201735 0.004292471 -0.0042388886 0.0040319716 -0.0022017623 -0.002307496 0.004636044 
TBX22	0.0016819694 -0.0027711887 0.004120274 0.0029583499 -0.0006792911 -0.0044391416 0.0021413616 0.0032404421 0.0048098755 0.0040383744 -0.000119581375 0.0033401717 -0.002720764 -0.0021583487 -0.00016376164 0.0048378026 -0.0010907481 -0.0013786753 0.003972619 0.00056154584 -0.0034041724 -0.0017418549 -0.0036973474 -0.0027685033 0.0039687976 0.0006241149 0.0049526202 0.00027956028 0.0009029817 0.0013807258 -0.0047969767 -0.004125318 0.0034776377 -0.00090389117 0.0010091527 0.00078057963 0.00022541673 0.004044629 0.0023685447 -0.0027443413 0.0022807054 -0.0012419152 -0.0031484945 0.0020859474 0.0033219429 0.0041479985 -0.0011597816 -0.003186327 0.0009347529 0.0038480968 -0.0019262745 -0.0019655137 -0.0014146233 -0.00174229 -0.0026993197 -0.004175203 -0.0033966212 0.00023338111 0.004842463 0.0019172766 -0.0027560943 -0.0013106742 -0.0041930135 -0.0004655407 -0.0010536817 -0.001726635 -0.0021758627 -0.0045219497 -0.0035479197 0.0030052403 0.00013888362 0.004355356 0.0031253805 -0.0043578474 0.001229616 0.00024795675 -0.00447872 0.0032715756 0.0012284691 -0.0017832643 0.004536972 -0.0049973866 -0.000772129 -0.003436078 0.0038093168 -0.0019678478 -0.0025322866 -0.0021690035 0.0033648037 0.0032815435 -0.0011134121 -0.00071041647 0.0016180087 0.001320143 -0.0031509898 -0.0022857285 0.00068125397 -0.004111699 -0.001861782 0.0014505252 
TLE1	0.0016972612 -0.0030230535 0.00054298935 -0.0016373405 9.690079e-05 0.001498487 0.0023894173 -0.00022952662 -0.0048712916 0.0004974488 0.0027456183 0.00329262 -0.0041203857 0.0032835633 -0.0015040819 -0.0005502107 -0.0035694074 0.00094735523 0.0035488715 -0.0025107348 0.00184511 0.0017473581 0.0036941913 -0.0026538041 -0.0036238898 -0.0041686213 -0.00044975564 0.0046777143 0.0011946039 -0.0027877954 0.0020454703 0.0021076135 0.004967394 0.0011619512 -0.0013465547 -0.0016065263 0.0047620726 -0.0014355379 0.0035587617 0.0015735696 -0.0032249705 0.0015936347 -0.002810388 -0.0016687537 0.0008314543 -0.0047003343 1.8231005e-05 0.0011594647 -0.0028255985 0.0033588472 0.0024068402 -0.00035213432 -0.00016348998 -0.0041218493 -0.00026055102 0.004164594 -0.0017836888 -0.0020951107 -0.0014111405 0.0032053345 -0.0007781572 -0.0042805234 -0.00029116654 0.0016903642 -0.0007847332 0.0011024582 0.0030111393 0.004372893 0.0012482707 -0.0016426564 0.004864977 0.00015753823 0.0041953805 0.0010260154 0.0033716233 -0.004910618 0.0027542622 0.003606401 0.0021150813 -0.00074682734 0.0011254686 -0.0012290693 0.0034213562 -0.0026480157 -0.0024686172 -0.002071018 0.0003400019 0.0030715754 0.0022176136 -0.0047805505 0.003569034 0.003392832 -0.003202708 -0.004055805 -0.0024059075 0.0028806357 0.0011634312 -0.00058479933 0.001617357 0.0012571792 
CLC	-0.0021754187 -2.9798462e-05 0.003632723 -0.0026604428 -0.0005169742 0.0025298998 -0.001340369 0.000645906 0.0018129189 -0.0012923331 -0.0024982828 0.0042312015 0.0001689747 0.0030111729 0.0027776961 0.0038328352 0.0016555307 -0.001656017 0.0025675718 -0.004832557 -0.004927791 0.0026395866 0.004112497 0.0040264954 -0.004683803 -0.0034012664 -0.0014631941 0.0025343413 -0.0020170922 0.0016482973 0.0049007423 0.0017037846 0.0011654898 -0.0006813668 0.001101168 -0.00016455348 -0.00049818854 -0.00021792004 -0.00449347 -8.4727384e-05 -0.0004181626 -0.0021896032 -0.0017025871 0.000597973 0.00010500482 0.0006708135 5.6525514e-05 -0.0034164866 -0.004737264 0.0013320623 0.002574032 -0.00024826132 -0.0044375444 -0.00031117303 -4.3098393e-05 0.002649837 0.001534424 -0.0042809257 0.0010827789 -0.0024246143 0.002844432 -0.0043853046 0.0013523919 0.0012522142 -0.0037252759 0.00023452313 -0.0032483411 0.0030217443 -0.0026819794 -0.004315102 0.004070782 -0.0028724766 0.0013031043 0.0013528137 -0.0016945818 -0.0037477699 -0.0029464783 0.0039897924 -0.0034536547 -0.0027137091 0.0027785045 -0.0028052668 -0.0008687889 -0.00211456 -0.003079482 -0.0027129122 0.0029151672 0.0035227262 -0.0015740898 0.0017130334 0.0031271644 -0.0016130911 -0.0020744028 -0.00016770234 0.0016840458 0.0019296558 0.001747657 0.0016115274 0.0017772556 0.0029636694 
NMS	0.0030228042 0.0006928828 -0.0032490897 -0.0023069924 -0.00094997406 0.0005810056 0.003584751 -0.0039088516 0.0035460168 -0.0047008577 0.0040608817 -0.001366588 -0.0034174281 -7.865221e-06 0.0017189714 -0.00043172637 0.002072886 -0.0024266823 -0.0038869733 0.003393163 0.0014799421 -0.0026555597 0.00475392 0.0028768643 0.0017810191 0.0027350783 0.0026300529 -0.0018567484 0.000343156 -0.002878527 0.0049016587 -0.001989271 0.00043011614 -0.00036057818 -0.001825237 -0.004011703 0.0048909797 0.0039660768 0.0035156428 -0.004078287 -0.004251832 -0.003530872 3.4006007e-05 0.0039568073 -0.004484025 0.0008538 0.004328928 0.0015463311 0.000539304 -0.0002356671 0.0015876086 0.0026809857 -0.00381223 0.0010456037 -0.0048493827 0.001343112 0.0048940107 0.0021897894 0.0015704099 0.0023384753 0.0033690315 -0.0039920546 0.004647422 0.0011665061 0.0036200446 -0.0033911255 0.0040759714 -0.0046244203 0.0037871036 -0.00028128468 -0.0007126622 0.004795083 0.0036184255 0.0031977552 0.0006335466 -0.0031107566 -0.0012034847 -0.0027672872 -0.0013772465 -0.0012140257 0.0001974134 -0.00029269367 0.0026887772 0.0014515392 -0.00494769 0.00019899345 -0.002559836 -0.003210296 0.0015379832 -0.0039576236 0.0006440351 0.001188801 0.0037106033 0.0028432086 -0.001162936 -0.0015556876 -0.0034610983 0.0013558592 -0.00034227793 0.0018958913 
ZDHHC22	0.0030094471 0.003077038 0.002485471 0.0030466388 -0.001170558 -0.004724346 0.0040333224 -0.00040633182 0.0031652758 0.0035094232 -0.00089131907 0.00055531826 0.0024984723 -0.0038436395 0.003012186 -0.0022201072 0.0003433417 -0.0003943597 -0.0018945974 -0.00046955503 0.0031475944 0.0015478355 0.0012793894 0.0020672656 -0.002838579 -0.00035651744 0.003642228 -0.0049833655 -0.0021503023 0.0048588766 -0.0039966176 -0.0026277408 -0.0011976261 0.003130711 -0.0042271162 -0.0018003415 -0.0012978073 0.0044961898 0.003470969 -0.0046177334 -0.0023030262 0.002991747 -0.0038087468 0.0021895766 -0.000967287 0.0029429463 -0.0036645518 0.00077091285 -0.00070946506 -0.0044113523 -0.0041187387 0.00065449666 -0.0002138774 0.0048991777 0.0015150794 0.0017968084 0.0040199403 0.0025535873 0.0015251176 -0.00027199625 -0.0007624575 -0.0001343283 0.0014316799 -0.0035079059 -0.00049347786 -0.0016102733 -0.004738964 1.8637904e-05 0.0014373845 -0.0025990903 -0.003785729 -0.002997414 0.0016581842 0.004806273 -0.001275651 -0.0036241862 0.0005330204 0.0002704657 -0.0025439907 -0.003876571 -0.0011353953 0.00089032843 -0.0012607387 0.0027796 -0.00034060955 -0.002929338 -0.0028721571 0.0023864 -0.004576032 0.0035716346 0.0030955975 0.0042036227 0.0010434184 -0.0040463246 0.003349934 0.000973865 -0.0010084088 -0.0030342198 -0.0018078142 -0.004524755 
MYL9	-0.00254458 0.00059326115 -0.0048027243 -0.0027116728 0.0044202725 -0.0027054406 -0.0017495395 -0.0019476708 0.00073251827 -0.004707303 0.0021212155 -0.0037217443 -0.0006066155 -0.001594967 -0.0047569885 0.0012281412 -0.0036043422 0.00062665914 0.0046082386 0.0030692397 -0.0033420466 0.00050303986 -0.0011401012 0.0013382412 0.00411359 -0.0029416373 0.0013410557 -0.0035232883 -0.0022535294 -0.0019998122 0.0013921256 0.0013795695 0.0011302984 0.0047759423 0.0046057478 -0.0034974487 -0.0014607783 0.0005506258 0.0044390173 0.0008458972 -0.004998594 -0.004032522 0.00083257066 -0.0017197997 -0.0017998373 -0.0038293963 0.003595733 -0.0036962414 0.0046079 0.0016100426 0.0035177558 0.0016565096 -0.00232089 0.0036585424 1.09499415e-05 0.00095941994 -0.002283874 -0.00079855864 -0.004322944 0.0034479066 0.00053158106 -0.003318922 -0.0012604379 -0.003870338 -0.0021502567 -0.00026012445 -0.0034466696 0.00014832041 0.00049654633 0.0030113978 0.00060150184 -0.0033384275 0.0047682705 0.0011298135 -0.0048431065 -0.0038470707 0.0009363705 0.0026905115 0.0002542214 -0.003979625 -0.0024347773 -0.0027931454 -0.002323965 0.0019401057 -0.002563583 0.0008645281 0.001163495 0.0034865502 0.0041641556 -0.001508775 0.0010657144 -0.0014280862 0.00047130158 0.002227584 -0.000509295 0.0017240008 -0.002268793 -0.0047770482 -0.0018316176 0.0047828997 
ADCY9	-0.0030156882 0.001847761 0.004880203 -0.002577451 -0.00485383 0.001647612 0.0038515092 0.0025729202 0.003962755 -0.0034683037 -0.00030202276 -0.0031167609 -0.0014752996 0.0035313135 0.0016073755 0.003960076 0.0013259441 -0.0013632796 -0.0027732651 0.0022335714 -0.0048884624 -0.0009347609 -0.0022462802 -0.0014900456 -0.0028056102 0.00092447427 0.00135677 0.00027863483 0.002219687 -0.004218539 0.0007945327 0.004843127 0.003263845 0.0039360346 0.000742045 0.0037920035 0.0036026281 -0.00078888336 -0.0022127994 -0.00023050535 0.0018717535 -0.0036479873 0.0027045275 -0.00027584858 0.0013880386 0.003185378 0.0025188085 0.0042559095 -0.0008284098 -0.0017528895 0.0035094721 -0.00020720779 0.0017862585 -0.0019094736 0.0029634754 0.004783686 -0.0038177483 -0.0013205567 -0.00043865736 0.0038620473 -0.0037962392 -0.0005320689 0.003606001 -0.00024474206 -0.0029955308 -0.0014200002 -0.0032881354 0.001999352 -0.0029786152 -0.003604969 -0.0028277196 0.0014423273 -0.0037931954 -0.0035397664 0.0021531023 0.004290248 -0.00073166424 0.0029262882 0.003068096 0.0016849968 0.004659285 0.0035705767 -0.0025110706 -0.004617598 0.0019822037 0.0007487802 -0.0025316612 -0.004650715 -0.0014724409 -0.0029977902 -0.0013551123 -0.002538453 -0.0040727635 0.0035779749 0.0028534657 0.0027795373 -0.0030306447 -0.0027855707 5.5609802e-05 -0.00084431394 
NCR3	0.0029605352 -0.0030897213 -0.00403649 0.004186169 -0.0009012064 0.003688852 0.002516808 -0.00027867674 -0.0028338244 0.0039554443 -0.0044556656 0.0010911198 0.0022304072 0.001529435 -0.0003967156 -0.0006139085 -0.0015165621 0.0016073504 0.003076515 0.00011024409 -0.0031893256 -0.0044093807 6.367886e-05 0.0026428725 -0.0008518234 -0.0026627716 0.0020279842 0.0028338518 0.0010647828 -0.0012014532 0.0007427946 0.0028636612 -0.0007987 -0.004705107 -0.0043341727 -0.0031278932 -0.004887025 0.0004131829 -0.0010270226 0.0032178469 -0.004318116 -0.0021552772 0.0004974473 0.002997857 -0.0030315144 -0.0042651757 -0.004456979 -0.0046388903 0.003474455 0.0023429536 -0.0032499866 0.00050992076 -0.0044672624 0.00040762575 -0.0010243744 0.0021642651 0.002181784 0.004955177 -0.00271177 -8.0348495e-05 -0.0016781584 -0.0005570948 -0.004321613 0.002320729 -0.0004114439 -0.0034814314 -0.0049328627 -0.0007725315 -0.0020233726 0.0029471628 0.0031857004 0.0012229403 0.003251214 0.0007250787 -0.002656505 8.182864e-05 -0.0018717118 0.0006746136 1.0911444e-05 0.0044787773 0.00085332297 0.0015078437 -0.0003627532 0.0026635109 0.0017034595 -0.0034981896 0.0003677895 -0.0024412514 -0.0018034726 0.004135341 -0.0020071499 -0.0010447472 0.0014881347 0.0042637577 -0.00086232304 -0.0011672092 0.00028629228 0.0033735905 -0.0002537396 0.0024227486 
