DTWD2	0.004675796 0.0008667068 0.0032764566 0.004796075 -0.0046592522 0.0033137174 0.004849487 -0.0022828248 -0.0017644344 -0.0006613561 -0.0030925614 0.0029277098 -0.0043860707 0.0013760214 -0.0005876437 0.00058595045 0.0034854363 0.003825504 -0.0031197667 -0.003468236 -0.0025158413 -0.00025285725 -0.00033248038 -0.00016596062 -0.0038176894 0.0022767645 -0.00257108 -0.00039285677 -0.00036393997 -0.0034230438 0.0026246202 -0.00039841875 -0.004347616 0.00436005 -0.0037637465 0.0005875336 0.00012074236 -0.0033737107 0.002260068 0.0026195357 -0.0030171482 -0.001782745 0.0014142446 0.0018528051 0.00079924124 0.0019963242 0.0049015903 7.939675e-05 -0.0024733932 0.0012535588 0.0032411516 -0.00023593659 0.0009409971 -0.0017628608 0.001933107 -0.0046633724 -0.004139172 -0.00021941261 -0.0015299164 -0.0043753698 0.0038120602 -0.0011455539 0.001145651 -0.00011152556 -0.0036848965 -0.0012318094 0.0044536865 -0.0027959219 0.0030425638 0.0036350163 0.002925277 0.004603215 -0.0031170729 0.0017244836 -0.0036305918 -0.0012929521 -0.002855617 0.0010352713 -0.0017978008 -0.00058551045 -0.003099753 0.0018354114 -0.0015397867 0.0011014472 0.0028389627 -0.0038671277 0.0024875326 -0.0027100581 0.00046227453 0.0019678818 -0.0037953758 0.00081593735 0.004950081 0.0013297613 0.001556252 0.000912648 0.004428474 0.004742837 -0.0025693628 0.001805108 
PSMA6	0.0032314542 0.0008973968 -0.00010171355 0.0045466507 0.0014229132 0.00079355284 0.0019291076 -0.004953608 0.0012558135 0.002873029 -0.0012156919 0.0013347582 0.0019179971 -0.00076788315 0.0020404009 0.0017869816 -0.004637607 0.003232337 0.0020364362 0.002443196 -0.00021407081 -0.0039153197 -0.0021871899 -0.0032486452 0.0010137865 0.0029868428 -0.0037679789 -0.0009923162 0.0037273674 0.0040506343 -0.003360753 0.0003666843 -0.0013415271 -0.0017580802 -0.0024903035 -0.0047348547 0.0020246473 -0.002569592 6.2046136e-05 -0.003884385 -0.0045768362 -0.002734151 -0.0045619025 0.0031978646 0.0022159272 -0.001733003 0.0019342477 0.0026992145 0.0042576636 0.0039481004 0.00030402912 -0.0009963318 -0.0008382915 0.0029246665 -0.00074496143 0.0011250193 -0.0018153256 -0.0034297477 -0.0012962641 -0.0008927156 0.004967789 0.0038966304 0.004592834 0.0033390166 -0.0041433596 -0.0011891535 -0.004116793 -0.0031162223 -0.0009577048 0.004127428 0.00028007838 -0.001485581 -0.0027845583 0.0040569976 0.00296403 -0.0014503464 0.0009929993 -0.0033396482 0.0004428613 -0.002316794 0.0008714013 -0.0019192571 -0.0026368583 0.001694947 -0.00221366 -0.0032309818 0.0021749532 -0.0019723447 -0.000656953 -0.002695473 0.0019636115 -0.0024185316 -0.0029639865 -0.002329392 0.003150131 0.0029358547 0.0037398927 0.000908608 0.0020919428 -0.0044999593 
GUCY2D	0.002288629 0.0041075735 0.004080556 -0.0041994127 0.0016017788 0.0042485697 -0.0038236007 0.0026387668 0.0009135853 0.0010701222 -0.00046981656 -0.0035675957 -0.0022695572 0.0005083684 0.004233408 0.0030417514 0.00076754123 0.0046077264 0.0013028089 0.002802206 -0.004530649 -0.0026116117 -0.0049791774 0.0030159985 -0.0021593978 0.0033219508 0.0038263053 -0.0014872258 0.002548605 -0.0030692338 0.0036135647 0.0007902188 -0.0043680742 -0.004238542 0.0030325588 -0.0036221812 0.00094345136 0.0013930915 0.004114262 0.0043302905 0.00047406592 0.0031836045 0.0022975998 -0.0014360218 -0.00016620773 0.0024723678 0.0025245126 -0.0023606836 -0.0035006925 0.0034179708 -0.0047184317 -0.000807288 0.0004389733 0.0042884317 0.0020814235 0.00056415494 -0.002013992 -0.0003849425 0.0018582864 -0.0021442708 -0.00071347394 0.00023450587 -0.0008304076 5.7022156e-05 0.00036465033 -0.00025712035 -0.0042621302 0.0022295865 0.0036765325 -0.0016624624 -0.0043204664 -0.0043730163 0.0011931779 -0.0007484435 -0.0042565744 -0.0017543907 0.0034459569 0.004710735 0.0034468223 0.0020158787 0.00024858135 9.9740035e-05 -0.0021701024 -2.024642e-05 -0.0030958722 0.003997121 0.0027647025 -0.0015723036 -0.0025682005 -0.0005834107 -0.0049161934 -0.0028216778 -0.0016864015 -0.0026021982 -0.0017581469 0.0027371352 0.0043713492 0.002252751 0.00010581011 -0.0033722827 
GPR143	-0.00455619 -0.0011971726 -0.0033407041 0.00031042064 -0.0022979556 0.0034673307 0.004445051 0.0008407605 -0.0032766683 0.0039013817 0.0042570718 -0.0044108066 -0.0016090461 0.0011083286 -0.0042275637 0.0015554687 -0.002000411 0.0028698295 -0.00087111734 -0.00024022392 0.00016011839 -0.0018544185 -0.002101928 -0.0023421738 -0.0031589048 -0.0010780981 0.0029671155 -0.0037006894 0.0049343733 -0.004237739 0.0043770773 0.004288457 -0.003827742 0.0029762501 -0.0011960334 -0.002266747 -0.004950624 0.0024134475 0.0021828355 -0.0028000146 -0.0020186277 -0.0047219936 -0.003953159 0.0012446506 0.0038801485 0.0047159805 0.002127193 -0.0024210792 -0.002392518 0.000595085 -0.0010756375 0.0012620715 0.0026979956 0.001981576 -0.004304276 -0.001999439 9.981684e-05 -0.0015618445 0.0034311425 -0.004359478 0.001846639 -0.00069073396 -0.0039180783 -0.0007774214 0.0029776993 -0.004307344 0.00094760204 -0.00078941946 0.004464522 -0.0033029846 -0.00062113383 -0.0025733667 0.001526495 -0.004178053 -0.0028862134 -0.0032960693 0.00068796164 0.004934661 0.0006800406 -0.0005268371 0.00075534976 0.00033681263 -0.0028666537 -0.0006972171 -0.0005868491 0.0046494985 -0.0017916202 -0.0005411931 -0.0021808983 -0.002519993 -0.0013403987 -0.0010096777 0.0010966443 -0.001445342 0.0007296178 -0.0007288379 -0.0009909546 0.0010177481 0.00271619 0.0007337596 
CCAR2	0.00300312 -0.0035730007 0.003332495 -0.00023628333 0.0016185513 -0.0016758493 -0.0031105105 2.5068084e-05 -0.004800642 -0.0017591574 -0.0037580738 -0.0026632622 -3.86093e-05 -0.0009819904 4.526772e-06 -0.003348381 -0.0034995237 0.0048060617 -0.00049005536 -0.004409541 -0.0014516147 0.0020976146 -0.004680369 -0.0006786534 0.0013394987 -0.0030948312 0.0020338204 0.0006405073 -0.003463803 -0.00378396 0.0044296244 -0.0017653124 -0.00086482463 -0.0024030036 0.0038642813 -0.003064433 0.0011755273 -0.003812319 -0.00050442305 -0.0012960336 0.0032191174 0.002046321 0.0012191251 0.0015843428 0.00011049706 -2.5833035e-05 0.0018918316 0.001778477 0.0031246976 -0.0009803323 0.0015183274 0.0033809475 -0.001257868 -0.004884437 -0.0030433948 0.0034083985 0.0019429397 0.004198946 0.0045911036 -0.00095100317 0.004718656 0.00014879243 0.0029714566 0.0017259181 -0.0019369492 -0.0037589672 0.0020852913 -0.0039913813 0.0016875442 -0.0013773314 -0.0036966181 -0.0012224764 0.004291323 -0.0037290177 0.004709002 0.0012821035 0.0019199423 0.004987688 -0.0037469552 0.0019236822 -0.0012862461 -0.003145257 -0.002450181 0.0012214502 -0.0030427526 -0.0005056506 -0.0023970176 -0.0031421883 -0.0023317933 0.0028943704 0.002651861 -0.00464111 -0.0002308236 0.0027755743 -0.0046657817 0.0013336093 0.0017916707 0.00063208636 -0.00058158656 -0.0011493795 
GPR65	-0.00025509548 -0.0031996048 0.004317597 0.003328458 0.0044416133 -0.0047157197 0.0019217567 0.0029486797 0.0019739415 0.0038332304 -0.0018035041 0.0033635255 -0.0011108234 0.0027645836 0.0034700094 -0.0013735681 -0.000675828 -0.0005812692 -0.003917984 -0.003431032 0.00222043 -0.0010785632 0.0031769865 -0.0037839613 0.0010622748 -0.004858132 -0.00052932196 -0.0048667756 0.0016877551 0.0020821716 0.0036295631 0.0032136475 -0.0036435896 0.0033118173 -0.004040305 0.0005220997 -0.0025936188 -0.0038187655 -0.0044913027 -0.00061807455 -0.004064055 0.0033091432 -0.004864432 0.003746563 -0.0014556048 0.0034512994 0.0025357422 0.0048982254 0.002459064 0.0016407303 -0.004428407 -0.0023242098 -0.0021658032 0.004573203 -0.00041465653 -0.0010422161 0.0015459796 0.0015348067 -0.0025575457 0.0021189905 0.0009842055 -0.0023352979 -0.00445027 0.00042161442 -0.000660316 -0.00037521363 -0.0033617406 0.0009138798 -0.0031074034 0.0009634816 0.0034383214 -0.001616513 -0.004376139 0.003322497 0.0048382957 0.004400778 0.003696764 0.0043891203 0.0009544499 0.0033330133 0.0013990167 -0.0004933714 0.002818188 -0.0043958 0.0023772167 0.002602718 -0.00045640365 -0.0019135965 0.00016252678 0.0034851378 0.0025522236 0.0029472637 0.0027185923 -0.0021389432 0.0028702717 -0.0012259696 -0.00252014 0.00068375445 -0.0035843223 0.0030527588 
PDSS1	-0.0009483286 -0.003971424 0.002539075 0.0005272859 -0.0048770136 0.0011394949 -0.0043747732 0.0016810856 -0.004266423 -0.0016446828 -0.00071062526 0.00082089636 -0.00253758 -0.0026817555 0.003256693 0.0010226382 0.0034341472 0.0014155395 -0.0040452606 0.0025187402 0.0028761413 0.0026618752 0.0008398289 -0.0028032165 0.004263251 0.0042038155 0.004639706 0.00012952164 -0.0029192255 0.004408399 -0.0024979815 0.0014131758 0.004182087 -0.00092149066 -0.002037373 -0.0008555099 0.0047591035 0.00077735935 -0.004433443 -0.0010631512 -0.00047454497 2.883851e-05 -0.00019336419 -0.003004411 0.00089212524 0.0035951326 -0.0049500726 0.0026468763 -0.0042518103 0.0048696357 -0.0013367239 0.0015539316 0.0039969604 0.0005403656 -0.0020308332 0.0010100076 0.0015904016 0.0048101507 -0.0021554718 0.0027792756 -0.0015080154 -0.00037206666 -0.003616953 0.0017902306 0.0015523247 0.002745601 0.0046892897 -0.004552251 0.0038645333 -0.004513677 -0.004987391 -0.0021402217 0.00072508346 0.0021308938 -0.0014724341 0.0048725936 0.004344067 0.0026131398 -0.0027589381 -0.0001676388 0.0015515644 0.0047898735 0.0045190295 -0.0004086067 -0.0014878336 0.0012014307 0.0035144528 -0.001154151 -0.0023554948 0.00409103 -0.0033799678 0.002081384 -0.0033997698 0.0015812846 0.0047413246 2.9822855e-05 0.00060243695 -0.00091691833 0.0027338734 0.004807081 
CSNK1G1	-0.0008291637 -0.0017947877 -0.0023521895 0.0049347645 0.003023615 0.0010450424 -0.0026391754 -0.0001614086 -0.0043160073 -0.00035102913 0.00026703248 -0.003278837 -0.0018274784 0.0049312254 -0.003714184 0.0031278161 0.002142094 -0.0037617872 -0.0031990665 0.0021222006 -0.004659363 -0.0028423734 0.00046107412 0.0036980964 -0.0035384512 -0.0031345799 -0.00028925558 0.0018606012 0.0034392911 -0.0030523788 -0.00079861504 0.0008894325 0.0019390634 0.0006931173 0.004306343 0.0030890869 -0.002212969 0.002663403 -7.626979e-05 -0.0038101405 -0.00025303575 0.001523173 -0.0019438337 -0.002122702 -0.0013481512 -0.002649523 0.0030843841 -0.003530112 -0.0013260961 -0.0033841569 -0.003648674 -0.004734202 -0.0029461381 -0.0009100208 0.0011795749 0.0026345586 0.0048969314 -0.0016428293 0.002517053 0.0025755865 0.001837465 0.0025798273 0.0032308346 -0.004578354 0.0047586104 0.001882759 -0.002590375 0.0025291413 0.0013780609 -0.0030788095 -0.0042204275 -0.00086586864 -0.0028179542 0.0037622254 0.0049371747 0.003524604 0.00028678347 -0.00081787904 -0.004938306 -0.0014457386 -0.0045571197 0.004899085 0.0043632914 -0.00079601066 -0.0049513094 0.00097035145 0.0020231453 -0.00337925 0.0038957165 -0.0035964597 -0.0030334422 0.0020382497 0.0030103917 -0.0024478582 -0.0010806014 -0.0007828679 0.0042124903 0.00451999 -0.00027171662 0.0012880669 
FGF6	-0.0027725934 -0.00020757949 -0.0007346937 -0.0041131284 0.00031560267 0.0025209335 0.0025326577 -0.0011918495 0.0012605821 -0.0036838853 -0.0038181427 -0.0021014868 0.0031653158 -0.00072372035 -0.0036350845 0.004826 -0.0007945678 0.0019486895 -0.0018545899 0.00020546606 0.0014109111 0.003882185 0.0014902998 -0.0018031349 0.004977605 0.0028852464 -0.00045639885 -0.0044683595 -0.00029573427 0.0035378144 -0.002659964 0.0031309158 0.0013774035 -0.003629256 -0.0044816495 -0.0015354073 0.0028904658 -0.003325982 0.0016383518 0.0034298894 0.004544285 -0.0013654961 -0.00022018042 -0.0006368318 0.0024450915 -0.0023874873 0.001483618 -0.00045408966 -0.001989271 0.0041616154 -0.0024977995 -0.001247427 -0.00091298216 0.0015256611 -0.0020106176 -0.0049545723 -0.0039102496 -0.0045353053 -0.0018569579 0.00016603722 -0.004626126 -0.0011570923 0.0011034444 0.0030260454 -0.00026710372 0.0020774782 -0.0015876822 -0.0015579038 -0.0021630547 0.0031629875 -0.0035764955 -0.00022451543 -0.0020968684 0.004444054 -0.0016333994 -0.00019732454 1.3125546e-05 -0.00052120286 -0.0018159493 -0.0029241743 -0.0013674324 0.0014203019 -0.0014978668 0.0036923485 -0.0013927768 0.0009231848 0.0015084769 -0.0008919205 -0.0005957066 0.0034223571 0.0010332891 0.0015496904 0.0044626985 0.00254327 0.001466635 -0.00030081897 -0.0020164852 -0.0012599928 0.0024331831 -0.00049785076 
GFI1B	-0.0011910861 0.0027654767 -0.00046773246 0.0032632048 -0.004966928 0.0022276926 -0.0026714765 0.0029467128 -0.0021185698 0.0020212852 -0.0014928771 -0.004807218 0.0046186866 -0.0049968404 -0.004228837 -5.5148907e-05 0.0025333904 -0.0008935681 0.002877946 -0.0028717848 0.0023931295 -0.0016107515 -0.0036865745 -0.00074463023 -0.0040557785 0.004023305 -0.0044081975 -0.0027247788 0.004587493 0.0048799114 0.004889234 -0.00049485837 -0.0024155509 -0.0047403616 0.0011461133 -0.004663081 0.0047183624 -0.004681175 -0.0036695218 0.0044095977 0.00081445026 0.0036443826 0.0033398205 0.0007652852 -0.0025405686 0.00027197553 0.004184035 -0.003899226 0.0044475077 0.0046952683 0.0035134181 0.0035193283 -0.0030590848 -0.0010583901 -0.00453635 0.0009640309 -0.003764003 -0.003807629 -0.0021058 0.0010277182 -0.0044214893 -0.0032017424 0.004550138 0.0038993186 0.0022898999 -0.00037444299 0.0009171548 0.0005021287 -0.0021924246 -0.00084958156 -0.0008196005 -0.0047411597 -0.0041266675 0.0039986908 -0.0040102066 0.0046741855 0.0029348622 0.002205511 -0.0035249304 0.0033934463 -0.00025240527 -0.0037754031 -0.0031974758 -0.0028818594 -0.0014834855 -0.0048195147 -0.0036134785 0.0013053609 -0.00094309135 -0.0025843524 0.0047445176 -0.00037323977 0.0011464852 0.0006804904 -0.0019055129 0.004222711 0.0028548122 -0.003791829 -0.002109901 -0.0005069019 
OR2H1	0.00087390613 0.0028247181 -0.0026773533 -0.0021078787 -0.0033969355 -0.0019090684 0.0047178753 0.003535807 -0.0038407897 -0.0008511627 0.0017870193 -0.0049199285 0.004570335 -0.0028568055 -0.0037492416 0.004371345 0.0008633892 0.0043703024 -0.0035307582 0.0047411295 0.0021647145 -0.00044028653 -0.00048862986 -0.0034673342 -0.0037965423 0.0039554834 0.0008558323 -0.0005909085 0.00073686923 0.0022022645 0.0036048 -0.0005996204 -0.00038180308 0.0032839652 -0.0028524022 -0.00094492186 0.0036313797 0.00060152856 -0.002244499 -0.0033590018 -0.0048792413 0.00046715204 0.0030304547 0.0026948994 0.0007196894 -0.0041281385 -0.0036845836 0.0014038162 0.002383382 -0.0021485894 -0.0047615278 0.0041290345 0.0032046887 0.0014758453 -0.0026284887 0.0024834494 -0.0018396958 0.0037599262 -0.00096267427 0.0033805575 -0.0026456984 0.0048590847 -0.00337533 0.00092247844 1.9217334e-05 -0.00059899746 -0.0028666107 -0.0032933592 -0.003573598 0.0028547817 -0.0032547787 -0.0015302591 -0.0033065905 -0.001838441 0.00022674775 -0.0048167324 0.0018780428 0.0018618488 0.0048467964 0.0041087694 0.001072074 -0.004667919 0.004475161 -0.0034338427 0.0022567785 0.0031799732 0.0006564315 0.0043722424 -0.0037327951 -0.0040340973 0.0016483516 0.0038591542 -0.004688461 0.0036840355 0.004852227 -0.0042479974 -0.004865642 -0.004966159 0.004599322 -0.0016593228 
ITPK1	0.0017374896 0.004263988 0.00042772555 0.001233421 -0.0031476868 -0.0042240955 -0.0048374776 -0.0032437623 -0.0029525831 -0.004912834 -0.004087401 -0.004593855 0.000118134856 0.00257417 -0.0015424589 0.004346996 0.0040170653 0.0008354962 -0.002445919 -0.003091748 -0.0006604565 0.004345756 0.0034032057 0.0014949801 0.00022215286 0.00061625196 0.0031731557 0.004258694 0.0029569694 -0.0045574796 -0.004335744 0.0013529954 -0.00013150055 -0.003255272 -0.00052951585 -0.0014771079 0.0037251334 -0.0036225424 -0.00078967644 -0.0002201778 -0.0013295255 -0.0029039292 0.001676972 0.0041616242 0.0020375352 -0.00020696464 0.0013181415 -0.0026872067 0.0032398086 -0.0048420522 0.0039605037 -0.0029863592 0.0049105086 -0.0005992816 -0.0015677614 -0.00093638024 0.0018659402 0.001622813 0.002329175 -0.0032327361 -0.0031513425 -0.0031095135 0.0033912037 -0.00013555205 0.0006236556 0.004587335 -0.003014568 0.0008553888 -0.0010192868 0.00059707655 0.0004089926 0.0041881516 -0.0035551128 0.0044284477 0.0019173109 0.0024773262 0.0031602662 -0.0026209573 -0.0020951182 -0.0016552518 -0.0014643724 -0.0048100622 0.0032922272 -0.0025658791 0.0017821394 -0.0018737264 -0.00041090508 -0.003921089 0.00039475405 -0.002255426 -0.0048934 -0.0044897906 0.0023234219 0.001657361 0.003882861 -0.0016654652 -0.0023488624 -0.00071379717 -0.0041667665 -0.00092129223 
ALDOB	0.00038920497 -0.0030282815 0.0023722155 -0.0015097396 -0.0029958796 0.0026764693 -0.0020348534 0.00035780034 -0.0043371916 -0.0045219264 -1.9304234e-05 0.0013382481 -0.003535568 0.0008714955 -0.0033420122 0.001997369 0.0033204942 0.0030279392 0.004202073 0.0006016555 -0.0042566257 -0.0018726272 -0.00475103 0.004640874 -0.00401152 -0.0004527399 -3.4380378e-06 0.003518381 -0.0048798253 0.0030769347 -0.001796404 2.0876603e-05 0.0016170488 0.0012774522 -0.0015090836 -0.002720856 -0.0003073338 -0.004651055 -0.0021244443 0.0021452522 -0.001439262 0.0037063411 -0.0018170897 -0.00093926245 0.0017725887 0.00034365192 -7.055636e-05 0.0005120614 0.0033302815 -0.004847968 0.0040325834 -0.000545484 0.0025742836 -0.0036516928 0.003188971 -3.9712773e-05 -0.001502031 -0.0048065796 0.0027145194 -0.0012261536 0.004779134 -0.0008171947 -0.0047015916 -0.00046374145 -0.00095113466 0.004214065 0.002641604 0.0005189004 -0.002796546 0.0019167549 -0.00045646468 0.0003079574 -0.004030946 0.0006214002 0.0021472224 -0.00466595 -0.0005804484 -0.0012345972 -0.0023055184 7.150319e-06 0.00065551983 -0.0013457732 0.00077834795 -0.001777934 -0.0013588746 0.0046154554 -0.0020804428 -0.0032324244 -0.0027787187 -0.0032616516 -0.0024701129 0.002178278 -0.0010638918 -0.003768719 -0.004451143 -0.0013093855 0.00083283335 -0.000775145 0.00223562 -0.0042703147 
SIGMAR1	4.892545e-05 0.0020274715 -0.0042484635 0.0034814107 0.001200146 0.0036238302 0.0008233046 0.0045112018 -0.0024519793 0.004156585 0.0029642847 -0.00021143428 0.0048607322 -0.0044698967 -0.0033519205 -0.0036798099 -0.0047722356 0.000801163 -0.0035449667 0.003735259 0.0005261006 -0.0011794533 -0.0039532497 -0.004171208 -0.00017939718 0.0033891266 -0.0041339113 0.0008921556 -0.0036026733 0.0005608077 0.0026848528 -0.0015087468 -0.002918922 -0.0013749119 0.002685119 -0.0008266731 0.00094153365 0.0032028283 0.004877948 0.0022217236 0.0045882203 -0.0049297535 0.00010935558 0.0012812378 -0.0008119159 -0.0026792753 0.0047120275 -0.00405524 -0.0014243552 0.0004084108 -0.00029863432 -0.0012058092 -0.00086449034 -0.00022183768 0.0017008095 -0.0042060623 0.0003692045 0.0047201053 -0.004779878 -0.0034710066 0.0024691229 0.00041455668 -4.1283252e-05 0.004033086 0.0045539835 -0.004975054 0.0006459916 -0.0002052335 0.0029185512 -0.0043405197 -0.003348922 -0.0014888938 -0.0043710046 -0.003923608 0.0022917097 -0.0010784903 -0.0043130037 -0.0008166273 -0.003944708 0.0034279241 -0.0015764764 -0.0018352544 0.003971156 -0.0019936566 -0.0045492877 0.00049662834 -0.0021124766 0.0032031022 0.0032651443 -0.0032766834 -0.0022354987 0.00053529226 0.0018285823 -0.0028631259 -0.0048749438 0.0008581085 0.0045072604 5.3063686e-05 0.002043468 -0.0018658837 
NRBP2	0.0040521137 -0.00011977598 0.00050758 -0.0031525793 0.002192725 0.0034498363 -0.0007438867 -0.0030907237 0.0021943434 -0.00033881317 -0.0012121333 0.0019476003 0.001546588 9.144124e-06 0.0027868887 -0.0031787064 -0.002413706 0.0048748273 -0.0012455733 -0.004502131 -0.0032205374 -0.0031839546 0.0027221565 -0.004706071 -0.00166815 -0.0024353424 0.0016753508 0.0036895243 0.0041467566 -0.0049142186 0.004561615 0.0027222626 -0.0014041389 0.004875071 -0.0013271525 -0.00320049 -0.004721848 -0.0016754227 0.0036301774 0.0029208146 0.001192873 0.0013884435 -0.0038719391 -0.00039334325 -0.0025813144 0.0029091386 0.0013265276 -0.0009076597 0.0007781702 0.0022171256 0.0014525315 0.0007051181 -0.0022653113 -0.00027286715 0.004728389 -5.1410076e-05 0.0025657306 -0.0026195701 -0.0018080549 0.004493771 0.00047721475 -0.0048068687 0.0020064944 -0.0037066587 0.0042099585 -0.0022225135 -0.0048571704 0.004061697 0.0038867793 -0.0028280003 -0.002357885 0.0031307298 0.00224642 0.004610411 -0.00040093926 0.0019439848 0.002914649 -0.0016461724 0.0038914566 -0.001286982 -0.0022577299 -0.0013220116 0.0018247424 -0.002431308 -0.0008646346 0.0009845124 0.003921777 0.0028202294 0.0028323024 0.002260336 -0.0013541232 0.0007273157 -0.0037844973 0.0029298367 0.00056002993 0.0012480844 0.0028184378 0.0042147012 -0.00064102944 0.0013194755 
INTS1	0.0037636594 -0.0024882802 -0.001905412 -0.0010501028 0.001231232 -0.004276273 -0.0012325204 -0.0033301285 0.0049330303 0.003892591 -0.00011857816 0.0025242101 0.0009795919 0.0045128325 0.0018343488 0.004325878 -0.0034560082 0.0022043234 -0.0030558305 0.0015613658 -0.00048851036 0.0028389776 0.0031063487 0.00211212 -0.004306746 0.0031166144 -0.0020879048 -0.0008046349 -0.004199017 -0.0026903206 -0.003281885 8.723395e-05 0.0017299722 0.0007075922 -0.002754337 0.0031087522 -0.0020165003 -0.00476904 -0.0010056336 -0.0039707343 0.0024261472 0.0023812167 -0.003504091 -0.0010398794 -0.0021152184 -0.0019154247 0.0019555422 0.004467233 0.0023325211 0.002054677 -0.004824519 0.0049731024 0.0027034518 0.0026485072 0.0022256302 0.0046857595 0.002286431 -0.001385587 0.0037176253 -0.0021815214 0.0033315627 0.000896336 -0.0043700333 -0.0029520225 0.0038021891 -0.0049768426 0.0037004491 -0.0027684823 -0.00070563005 -0.004349048 0.00033464908 0.0027779476 0.0039071403 0.0031463683 0.0043009357 0.0013082472 0.000137988 0.0026057428 0.0020485423 -0.0019555471 0.004750289 0.004694965 -0.0018062667 -0.003833272 -0.0014103211 -0.0039907666 -0.0013183728 -0.0034175795 0.0027236862 0.0048845927 0.004637534 0.0004702522 -0.003169124 0.0035236205 -0.0018698892 -0.0028321825 0.0045648194 -0.0025893266 0.0017756646 -0.001999117 
PHLDA2	-0.0028718556 0.00026488313 0.0023542645 -0.0038534275 0.004667698 0.004619521 0.000342378 -0.004706747 -0.00013075679 0.0023338383 -0.0017852928 -0.0019946354 0.003891054 0.0048512244 -0.0029330414 0.0034155727 0.0044902684 0.002835947 -8.235503e-05 0.00034421775 0.0024017629 -0.0008359212 0.002444409 -0.0022285802 0.0004572239 0.0033553608 0.0016206565 -0.0044765277 0.0015069478 -0.0020599398 0.004727315 0.0011318743 -0.0014889636 -0.0021127772 -0.0029531037 -0.0010879698 -0.00019941406 -0.0016094808 -0.0018252607 -0.0033919548 -0.00039469052 0.0032452405 0.0007097857 0.0034707345 -0.0033731204 -0.004158615 0.0035706095 0.00431299 0.0047462652 -0.0030480174 0.0049805595 0.0043794666 0.0036880348 0.00049954024 -0.00075349456 0.0018297513 0.0004987116 -0.0044852695 -0.0001597724 0.00024194225 0.002311332 -0.0047917604 -0.00043529092 -0.0020790165 -0.0034756323 0.004550103 -0.0030698692 0.0001514745 -0.000101563215 -0.0014334235 0.00098646 0.003939535 0.0038449098 0.0047290544 -0.0021070084 0.0010987443 -0.0017800368 0.0027285893 0.0018733358 -0.000839579 0.0029806017 -0.0037355248 -0.0042597284 -0.00055272575 -0.003904909 0.0019030519 0.0019489836 0.0023999235 -0.003471542 -0.003469358 0.000960623 0.004319648 0.0007213892 0.0049792365 -0.0041267453 -0.001995066 0.0016622287 -0.0012001963 0.0020708528 0.0004087153 
YARS	0.0013093557 -0.0017230035 -0.0027412293 0.0038293898 0.00059406436 -0.0010991358 0.0029423996 -0.0028824017 -0.0008265653 0.0030899262 0.004060887 -0.002321283 0.0026310273 -0.0042081424 -0.0046684765 -0.0020707247 0.00014327417 -0.0033936198 -0.0044116853 0.0003320131 0.0026850577 -0.0034596531 0.0026119063 -0.00037676992 0.0018154428 0.0044003725 -0.0023000173 0.0046530645 -0.0026903008 -0.0042382753 0.002388732 0.0019445498 5.4598706e-05 0.002480147 -0.0030036278 -0.0016680749 -0.0019143573 -0.0027088313 -0.002051973 0.0036161686 -0.0043077962 -0.0043873317 -0.0011585063 0.0016016297 0.0008421842 -0.0007543384 -0.003157757 0.0035470168 -0.00073497515 -0.004549292 5.2548898e-05 -0.0039859368 -0.0028359715 -0.0030643188 0.00304419 0.0049654073 0.001173261 0.001073434 -0.0003360112 0.00041298632 0.00094741146 -0.0024511912 0.0009337521 0.0014419757 0.0049423208 -0.00034256047 -0.002315614 -0.0036206862 -0.0028159423 0.0011412812 0.0025393947 0.0035512997 0.0016106155 -0.00087273004 -0.0023985305 0.002626117 0.003869509 -0.0021428983 0.00042437884 -0.003903739 0.0015469443 0.0037019146 -0.0014012845 -0.0008579296 0.0014562062 0.0029899504 -0.0023484437 -0.0033497147 0.0034115366 -0.0043128226 -0.0006295759 -0.0010583081 0.004194754 0.0027254736 0.004675587 -0.0024515209 0.0036961245 -0.0024784652 -0.0028381958 -0.00044488846 
CEBPD	-0.00280044 -0.00014495087 -0.0044774623 0.0012813737 -0.0027395803 0.004900607 -0.0044052247 0.0028927347 0.0022276083 0.0008697312 0.00029987656 -0.0017519565 -0.0028552837 0.00011822307 -0.0042421217 0.0032525475 -0.0018752274 -0.00026906107 -0.0048772106 0.001000733 -0.00034515996 0.0013095196 -0.0018626682 -0.0037553236 0.00034277196 -0.0015612867 0.00221381 0.0030665474 0.000848601 -0.0005427458 -0.004814311 0.0047151977 -0.00083757873 0.0039623897 0.0036521538 0.00196639 0.0014010108 0.0011508078 -0.00014805695 0.004227557 -0.002354021 -0.0010818514 0.0016090902 -0.0001287577 -0.0040870253 -0.00034510478 -0.0047062784 0.0044995733 -0.0037677886 -0.0011747481 0.0028358465 -0.0030862265 4.136126e-06 -0.0018368341 0.0027333614 -0.0007394145 -0.004104252 0.0040638926 0.0041255164 0.0020287891 0.0015620586 -0.0035555593 0.0011655277 -0.0011965161 -9.057251e-06 -0.001449036 0.0018898855 -0.0048204605 0.0049091363 0.0030215145 0.0043532774 -0.00055230845 -0.0017918169 -0.0037304228 -0.0035338625 -0.0007750161 0.0011789728 0.0025626828 -0.0017596926 -0.0022207533 0.0028131453 0.004046063 0.0013749029 -0.0033861776 0.0015099705 -0.002829414 -0.0042197155 0.0037551236 0.0044132094 -0.0008247114 -0.0049711512 -0.0025101756 -0.0048281588 -0.004041163 -0.0010849534 -0.0011068983 -0.0017029322 0.003889374 0.00056006276 -0.004658675 
HCFC1	0.0038539276 0.002971449 0.0036342815 -0.0020286865 -0.0037354587 0.0010717455 0.0019555625 -0.004511561 -0.0024452305 0.0020053291 0.0008428806 -0.00012550087 -0.0023284038 -0.0010195721 0.0006771574 -0.0023590117 -0.001867889 -0.0010964294 0.0043446724 -0.0029506013 -0.003882776 0.0041787145 0.0025317653 0.0017402674 0.0013891925 -0.004828633 0.003176946 -0.0042073354 0.004131756 -0.00026093365 0.004647243 -0.0014349668 0.0045077763 0.0010248532 0.002781227 -0.0026138218 0.0007228168 0.0005525355 0.003392127 0.0020630711 0.0041400813 0.0012678511 0.0022591264 -0.0035304062 -0.001136348 0.002284761 -0.002346603 0.0011619735 0.002885673 -0.0010814662 -0.0029365872 -0.0026571548 0.0013480545 -0.0018680975 0.0047454345 -0.004916855 -0.00069704576 0.0035063874 0.0031356933 -0.0036636807 -0.0001291785 0.0032171102 0.0037138197 0.0012755203 0.002441678 -0.0031288627 0.0023254948 0.0020450747 -0.0032833747 -0.00020754438 -0.002929765 0.0033586381 0.0008979731 -0.0044672806 0.0009170036 0.00026726443 0.0010269671 0.0048177494 -0.0012037911 0.0006587688 -0.000112520065 -0.003113386 -0.0027729177 -0.0016139299 0.0022140883 0.0027963184 -0.0019657 -0.00437399 -0.0023981815 -0.003428383 0.0033833173 0.0024224415 0.002884145 -0.004881146 0.004296055 -0.003526502 0.0038819374 -0.0035488256 -0.0013676364 -0.0042703818 
NAA35	0.0008515191 0.0047397558 -0.0010501656 0.0036690815 0.00076342997 0.0014777508 -0.004618377 -0.0038411494 8.1307015e-05 1.1315171e-05 0.0005516359 -0.002725872 0.0014192899 -0.004161767 -0.00025719852 0.0027985896 0.0013191965 -0.003002256 -0.0015313869 0.0039313077 0.0030754209 -0.004885649 0.0020481546 0.004293377 -0.003829413 0.0027375065 0.0047708475 -0.0046057845 0.0034090788 0.004241696 -0.00095933455 0.002147785 -0.003856038 0.003778491 -0.00052399415 -0.0022697444 0.0006754162 -0.00070999307 0.0012034681 -0.003147111 -0.00034849797 -0.0015276768 -0.0031295975 -0.003866875 0.0005930997 -0.0014879416 0.00092736393 0.002466303 0.0029077819 0.0027362453 -0.001060017 -0.0023688779 0.0002536528 0.0015786123 0.00054188736 0.003567161 0.0019226932 -0.004674599 -0.00068338297 0.004974596 -0.004719548 0.0018460251 -0.0014302977 0.002371254 0.0038690632 0.0033444185 -0.0029641017 0.0014611987 0.00134114 0.0022041202 -0.0033415882 -0.0008879 -0.0017450328 -0.0009942201 -0.0038513315 -0.0047596553 0.003638289 0.0033936794 -0.0012668183 0.000575743 0.0006496692 0.003826865 -0.00066719647 0.0038146318 0.0027567605 -0.002993608 0.0030787028 -0.0034947176 0.0028157393 -0.003735077 -0.004954257 -0.0021293766 -0.0026949216 -0.002339576 -0.001099814 -0.0019255828 -0.003846074 -0.0024402922 0.0029576588 0.00093654485 
HEY1	0.0011340191 0.0012366164 -0.0043009785 0.0008972125 -0.0038956543 -0.003170186 0.0010093177 0.0034744944 -0.001854795 0.0005248899 -0.003331799 -0.0024687282 -0.0025749102 0.0030257192 0.000108918604 0.0014349619 0.00189666 0.0033517745 -0.0048007253 -0.0039550774 0.0013378218 -0.00030119804 0.0047786906 0.002136256 -0.0031897174 0.0044257315 0.0021329187 0.0012772891 -0.0008650343 -0.0030178032 -0.003496661 0.0014140741 0.0004213626 0.0013150449 -0.0037235357 -0.0041616946 0.0038166617 0.0049876464 0.0028102286 0.001056 0.00037490568 -0.00411307 0.0036450096 -0.0016714508 0.0040552667 -0.00088456407 0.0004716288 -0.0032314253 0.0026109023 0.0003220068 -0.004939148 -0.0035592183 0.0027356325 -0.0040913597 -0.0035089904 -0.0025729188 0.0005956223 0.0034137468 0.0034180605 -0.003979081 0.002553595 0.0010896779 -0.0036644381 -0.004749717 -0.0016215747 0.002118568 0.0035892422 -0.0025267997 -0.0039528264 -0.0034921733 -0.0041412255 0.0017467338 0.00032803457 0.0013964963 -0.00042602862 0.0011499637 0.00011362907 0.002167564 0.0026384713 0.00027729713 -0.0043901075 0.0011886044 -0.0029132753 0.0038909547 0.0043003173 0.0025414156 0.0011628411 -0.0006711995 0.0025305373 0.003231989 6.0100287e-05 0.0004583163 -0.0047853105 0.0023919777 0.0010890464 -0.00495721 0.0035279081 -0.0030577066 0.0021697073 -0.0045366823 
ZNF367	0.0010829264 0.0018544528 -0.004244679 -0.002869471 -0.0049549057 0.004926648 0.0042523113 0.004950825 -0.0020825765 -0.0027823173 -0.0040897224 0.0026580142 -0.0016172776 0.00036635165 -0.002903949 0.0033406166 0.0028812026 0.003964237 -0.0009359296 -0.0022400063 -0.0015071107 -6.665587e-05 0.0032473248 -0.0013723829 -0.001484359 -0.0038908797 -0.0045266235 0.00076342205 -0.00035034728 -0.0038816785 0.0036261673 0.000914994 -0.003234747 -0.0038767138 -0.0020380206 0.0018520764 -0.00020178346 -0.0012640989 -0.0033510546 -0.004377889 -0.0014476845 -0.00088352227 -0.004385417 4.5914538e-05 -0.0016830359 0.0035845342 -0.004653189 -0.0043302216 0.00010971543 0.0036903145 -0.0023673389 -0.0030770942 0.002688229 0.0034109864 -0.0036616465 -0.0007170619 0.004199927 0.003189708 -0.00066861225 -0.0015063335 -0.004558149 -0.00041875045 0.004954862 0.001290837 0.0029975895 -0.0018957874 -0.00451884 -0.0038317032 0.0022633567 0.0029759847 -0.00186158 -0.0008361494 0.004070732 0.00019312136 -0.0029847478 -0.002017786 0.0045805466 -0.0010343088 0.0023783918 0.00045289696 0.0006754405 -0.004092026 -0.0037140208 -0.0014626449 0.0024374719 -0.0032833365 0.0022956093 0.0035200003 -0.002484462 0.0004791038 -0.0036161398 -0.0021995772 -0.0021155397 -0.0015360346 -0.00086024625 0.0008879104 -0.00042488833 0.0015977041 -0.0025497167 0.00060545193 
TEAD3	-0.0024487856 -0.00288745 0.002387622 0.0013998415 0.004873641 0.0038539558 -0.0032515437 -0.001621612 0.0010656922 -0.0045567644 -0.0024588958 -0.0034824242 0.0020724915 0.0032786143 0.0039751767 0.0016881975 -0.00055771053 4.6356785e-05 -0.0036090019 -0.0039490643 0.001957348 0.0034538892 -0.003977477 -0.0032221572 -0.0038023684 -0.004448365 0.004513083 -0.00482299 0.0047431076 0.0037646578 -0.0010282147 -0.0039883624 -0.003361074 0.0027963147 -0.00077691587 -0.0019103982 -0.0012097834 0.0031678164 0.0036544749 -8.1505765e-05 -0.0014364796 -0.0026483885 0.0023767585 -0.002141188 -0.0041497233 0.001643012 -0.003671308 0.0019171415 0.0014316634 0.00096175645 0.0025388002 0.0036677725 0.0018851756 0.00034109908 -0.0015845302 0.0009596226 -0.0022246742 -0.0043358384 -0.0015535724 -0.0013791249 -0.000104960905 -0.0021324412 -0.0038589071 0.0047766874 -0.0016779598 -0.0031136177 0.000747493 -0.001617439 0.0034394884 -0.0015708611 -0.004996531 0.0043022344 -0.0028022546 0.0018997955 -0.0045749913 -0.001548466 0.00022490865 -0.0034504784 -0.0024073934 -0.0035154538 0.0034811902 -0.00040783864 -0.0049435184 0.0046444237 -0.0010191008 -0.0043518506 0.0011780909 -0.0022031344 -0.00418393 -0.00027176974 5.4530385e-05 -0.0013409097 0.0030502882 0.0011771015 0.0032265834 0.0018193685 0.0003022603 0.0041855467 -0.002683489 0.0004901415 
CRABP1	-0.0011689978 -0.004843196 0.00044267884 -0.004191674 -0.001502712 -0.0023161971 -0.0023470358 -0.0030606834 -0.0035526694 -0.0012433543 -0.0012063539 -0.0010341367 -0.0027770272 0.00012949076 -0.00046079035 0.001973533 0.003964274 -0.000685197 0.002101515 -0.0019284169 -0.0031741124 -0.0046831546 -0.0005592914 -0.0039653764 -0.0032031662 0.004581645 -0.00026904122 0.0045964676 0.0010672436 0.0025266719 -0.0027982232 -0.0031000453 0.0014471806 0.0026110632 -0.0034031325 0.0036778215 -0.001988991 -0.0023394737 0.004231199 0.002340558 -0.0017789508 -0.0024707164 0.0040567336 -0.004147472 -0.0028437313 -0.0036795258 -0.00033514615 0.0010685938 0.004269176 -0.0013554785 -0.0011309496 0.0014498679 -0.0010172362 -0.0010912813 -0.0017756799 0.0013361776 -0.0012806907 -0.00023697087 -0.002540865 0.00023812057 0.0015989745 0.0049674916 -0.004919937 0.0035291768 0.0031494312 -5.116151e-05 0.00025226138 0.00038608254 -0.00015880684 -0.0036926575 0.0021546052 0.0038297528 0.004902292 0.0033055977 0.00095314434 -0.004266417 -0.0049480977 -0.0015706568 0.0035003277 0.0010009126 -0.000564934 0.0027314057 0.0032876038 0.0024129231 -0.0015022778 -0.004385253 -0.0012486216 0.0034928524 0.00095378765 0.004327263 -0.0034362124 -0.0022415165 0.0037457207 0.0011980158 0.0041362485 0.0016207104 -0.0014184096 0.0014540817 -0.0040284116 0.0021142357 
RRAS	0.002712498 -0.004463595 0.0041895304 -0.00046272698 0.0017547281 0.0004675797 -0.00063282205 -0.004780624 -0.002140252 -0.0045114644 0.00022063305 -0.0025898933 -0.004102987 0.001212814 -0.0014519522 -0.003321435 0.00067159266 0.0034160516 0.00070352224 0.0026392017 0.004684626 -0.0033739202 0.0020716207 -0.00266889 -0.00092616776 -0.002616889 -0.003773825 -0.002914389 -0.002255185 0.0016111095 0.0032210555 0.0030630333 -0.0014642884 -0.0048873443 0.002954257 9.383286e-05 -0.0015667172 0.0014245752 0.0049130847 0.0013283835 -0.004531313 -0.00012638237 -0.004515334 0.00018232045 0.001690235 0.0034683403 0.0044788844 0.0015725236 -0.00046947438 -0.00030601225 -0.004604954 -0.0021588956 -0.0033613585 -0.0033489764 0.0019859446 0.0013992264 -0.00376339 -0.0044775615 0.004546763 0.001480062 0.0016176007 0.0007162725 0.00039788347 -0.0025738745 7.079143e-05 0.0021820161 -0.0036631057 -0.004189955 0.003905423 0.00053241116 -0.0016711721 0.0047769807 0.0033498267 0.004675785 -0.0020090197 -0.0023850042 0.0047420757 -0.0035957254 0.0010581093 0.0028590108 -0.002705868 0.002447082 -0.00083976926 0.0003809397 -0.0038956155 -0.0039524985 -0.003150838 -0.0012220171 -0.0012330598 -0.0026410783 0.00053948554 -0.0033303923 -0.0011379642 -0.0018241117 -0.0049680127 -0.0044257008 -0.0013337247 -0.0045943772 -0.001417333 0.0037778995 
DPH1	0.0011437616 -0.0017840044 -0.0037427123 0.0033366508 0.00072797434 -0.004239376 -0.004226821 0.0014226303 0.0031685152 -0.0008606517 0.004393007 -0.0044812053 5.1380805e-05 -0.003654759 0.003227399 0.003271891 -4.5668166e-06 0.00025342996 -0.0004709866 -0.004409379 -0.0034662622 -0.0009794912 0.0041474574 0.0035294923 -0.0012938941 -0.0022639036 -0.0021907212 0.00060362695 -0.002530508 -0.00052022154 0.00152791 0.0020917247 0.0042772843 0.0027818705 0.0024847293 -0.0031339063 0.0003719853 -0.0011681105 0.0047284854 -0.0014868715 0.002296675 -0.0014844075 0.0046246457 0.0008833898 0.0006196441 -0.00021696475 -0.0036892786 0.0034937274 -0.0032988566 0.003617767 -0.0016199953 -0.00234675 0.00096438447 -0.0028811798 0.004869754 0.0023812936 0.00046653824 0.0017613255 -0.00068742345 0.00232216 -0.0027071137 0.004849736 -0.0025238048 0.0027193823 0.0005172707 0.0011737164 0.0031993086 -0.004178223 0.0028754962 0.0005896208 -0.00072627753 -0.0030862093 0.00052067934 -0.0026891301 -0.00493094 -0.0020491013 0.003623579 -0.003697807 0.00472693 -0.0010081945 0.0006818676 -0.0016099684 -0.0009442468 -0.0014063956 0.001358965 0.0028143614 0.00037202003 -0.0039399927 -0.00041408138 0.0012921037 0.0017633559 -0.0026873527 0.0030408578 -0.0017760701 -0.0047433586 0.0047152187 0.00048327228 -0.0046976698 -0.0012453592 -0.003615986 
TTC28	0.003603962 0.0039922465 -0.0033892244 0.0034830545 -0.0049535013 0.001974559 -0.002114966 -0.0038804256 -0.0040160036 -0.0027231774 -0.0037393018 -0.0015268466 0.0017377333 0.0034586492 0.0032772026 0.0015128015 -0.00420783 0.004780827 -0.003271801 -0.0017055321 -0.0007297741 -0.0031509155 -0.00088288495 0.0023187627 0.0043896455 0.0031875211 0.0033297646 -0.0032551908 0.0027514733 0.0007790382 -0.0020542976 0.003716375 0.002341587 0.0038737694 -0.0010770973 0.0044928584 0.00020614399 -0.002453909 -0.004012936 -0.0046189707 0.0021858793 0.00485224 0.00028485034 -0.00349504 -0.0046829362 0.001274487 0.0048071966 0.0020090828 -0.0046927473 0.0012784956 0.004009863 -0.0035487069 -0.0032664097 -0.0033990024 -0.0025117628 -0.004272605 0.0041671707 0.004073477 -0.003056908 -0.0014938981 -0.0003652564 0.0010660577 0.0042642034 0.0031105774 -0.0030945793 0.001864549 -0.0029211692 -0.0025018498 -0.0007812754 -0.0013384159 0.0040457593 -0.0016918784 9.9017925e-06 0.002770242 -0.0011116554 -0.0030919472 -0.0010239395 -0.002796008 -0.0013016679 0.0007446627 -0.0014327125 0.0011189326 -0.00452453 0.00015584847 -0.002654348 0.0042116432 -0.0023276443 0.001983718 0.0044426876 -0.0007199499 -0.0027466414 0.0010810798 -0.00044394 -0.0010583262 -0.00048909825 0.001589099 -0.0006981997 0.0033695365 -0.0009096528 0.0012139993 
SLC29A2	0.00095960416 0.0017990489 0.002006108 -0.001775909 -0.0007589055 -0.0003670942 0.0038864303 -0.0013402308 -0.0043639303 -0.00019893679 0.00345153 1.3642343e-05 -0.0036025126 0.00086854683 0.001580162 -0.00010241131 -0.00088544475 0.0040578353 -0.0015184899 0.003906824 0.0011315704 0.0048247934 0.0015366247 0.0034269 0.0029463475 0.004356515 -0.0031689175 0.0032554488 0.00016885198 -0.0021193116 -0.0023895325 0.002862686 0.004916631 -0.004515479 -0.0036802723 -0.002339408 0.003679203 -0.0027813767 -0.00025231764 0.004503259 0.0020589307 -0.004645797 0.0041817217 0.0023625449 0.00072267605 -0.0015709535 0.0038291311 0.0038027102 0.0043422645 -0.00092091784 0.0017313639 0.0021799167 0.00084021746 0.002116914 0.0040779593 0.004833225 0.00057663966 0.0020705867 -0.00026191154 0.0042422027 -0.004515258 -0.0038767147 0.0046447157 -0.0048492495 0.002760127 0.0040786033 -0.004589247 0.0005629639 -0.0011327291 0.0026273269 0.0036509954 0.0010689099 -0.0020549365 -0.0010619549 -0.0022756555 -0.0019515019 -0.003267627 0.0042572943 -0.0009353302 0.004157131 -5.74174e-05 0.003649569 0.0020119231 7.663802e-05 0.0018045389 -0.0030140937 0.0011561321 -0.004388439 -0.0029695753 0.0028518592 0.00087957917 0.00367597 0.002771152 -0.004326073 0.0007942323 0.0013921662 -0.0019417226 -3.3698954e-05 -0.0042168777 -0.004296457 
NQO2	-0.0019509619 0.0022146797 0.0044418215 -0.001131647 -0.004044065 -0.0005790357 0.0030355016 0.0033518285 0.0023214065 0.0015562802 -0.0009882953 0.002988852 0.000980767 0.00400524 -0.002689932 -0.0017023615 -0.004044118 0.001293324 -0.0037555739 0.0016733943 -0.0011323385 0.0041878913 -0.002996552 0.0018409566 0.0011770754 0.00044675302 -0.00209959 -0.0035319396 0.0012940924 0.0020268532 0.003723774 0.002423575 -0.0011489391 -0.0020896008 0.002050319 -0.003577268 -0.0025958135 0.0012207258 0.0023282776 0.0042008343 0.00082601013 -0.00030365863 -0.00032858519 0.004189188 0.0030712686 -0.0014975996 0.0018705634 -0.0029842686 -0.0005228586 0.0016283154 -0.0011485314 -0.0014217248 -0.003606059 0.0008101731 0.002695545 0.00085401855 -0.0028944495 -0.0019277442 0.0043031415 0.004616645 -0.004171121 -0.004843793 0.0026013476 0.0006592968 0.0034640739 0.002438485 -0.0033825836 -0.002692359 0.003213272 0.0026972985 0.004123365 -0.00060930685 0.0016000046 -0.00039059768 -0.002647798 0.0037067966 0.0011715454 -0.0004637721 0.001718746 -0.003885667 0.0045973184 -0.00389079 0.0009263864 0.0016678096 -0.00306053 -0.001652434 -0.0019882706 -0.0041730637 -0.0037986059 -0.0039728666 0.0012158487 -0.001721191 -0.0039496156 0.0041587767 9.894186e-05 0.0025750871 -0.0035644537 -0.00393007 0.003659979 0.0048690694 
EID2	-0.0019050962 -0.0015923285 0.0044862246 0.002416416 0.003628437 0.003655315 -0.0010893533 0.0031233942 -0.0035138119 0.0038264927 -0.0030820088 0.0002206131 0.0015477099 -0.0020443588 -0.00080507394 -0.00020659472 -0.003565207 0.00033879097 0.0012178454 -0.0029708191 -0.0027031368 -0.0031242436 0.000748623 0.0048800022 -0.0029633795 -0.0037795792 0.0029767754 0.0005527187 0.0023922408 0.0023039663 0.0020231633 0.0047086617 0.0034692667 0.003534922 -0.00023504328 -0.004473987 0.00089699705 -0.003292813 0.0045154747 0.0030358841 -0.002885123 -0.0007666794 0.00017272982 -0.0049679508 -0.0044785626 0.0008981039 -0.0028866776 0.00073425384 -0.0035052325 0.004386325 0.0012610939 0.0015175492 -0.00043790837 0.0030527133 -0.00071531883 -0.0010210943 -0.0045852014 -0.003823796 -0.0035373042 -0.0006946096 -0.00071292394 0.0009832113 -0.0048796628 0.003965927 -0.003742906 0.0045427126 -0.0041649393 -0.0017359377 -0.0022910242 -0.0024010513 0.0038303714 -0.0017945854 -0.0012445813 -0.004521558 0.0013728628 -0.0013796611 -0.0008186299 -0.0019312886 0.0018631405 -0.0014015747 -0.0029001934 -0.004189584 -0.0049662036 0.0011404238 0.004898519 0.002644581 0.0008964953 -0.0028687948 0.0017915947 0.0019805164 -0.0011412685 -0.0032252027 0.0031345966 0.0017051669 0.0021120496 0.00095534645 0.000895458 0.0019552475 0.0031767434 0.0014625448 
GCLC	0.0047093434 -0.003501828 0.002196342 -0.0004832387 0.004538882 0.0010873484 -0.004097266 -0.004955584 -0.004398502 -0.0032946113 -0.004863315 -0.0017465258 0.0032216902 0.0013513984 0.0034659752 -0.0016019545 0.0040987874 -0.0035375305 -0.0038810924 0.0046440824 -4.0246967e-05 -0.0033168423 -0.004220759 -0.0034652622 0.00361991 -0.0014912098 -0.004646293 -0.0006350746 -0.003389451 -0.0049840626 -0.004822519 0.0012924877 0.0030418774 -0.0034983896 -0.0035656432 0.003211092 0.0029237212 -0.0013056938 -0.002771581 0.0005696051 0.0041867206 -3.83414e-05 0.0019353373 -0.0029831629 -0.0031088823 -0.0041832067 0.00035246962 0.0031489336 -0.0025518872 0.0022447812 0.0016780593 -0.00070439855 0.0039658346 -0.0029459065 -0.0013417014 0.0014408897 0.0026849997 0.004189723 0.0009984015 -0.0038252848 -0.0010450584 -0.0026776788 -0.0042730602 -0.004095293 0.0016633552 -0.00035751372 0.002205805 0.004490928 -0.00017052826 0.004618617 0.0014333373 -0.0038925223 -0.0037571955 -9.970616e-05 -0.004194687 0.0016192875 0.00018209936 0.004277305 0.002972697 0.0033969872 -0.0020924907 0.0034081142 0.0023672502 -0.004857449 -0.002486442 -0.0036890896 0.0021999332 0.0038120474 0.004026264 -0.0010565999 -0.0023120733 -0.0027685657 -0.0048915152 0.0049117585 -0.0013494306 0.0044069937 -0.0033024542 0.0040069157 -0.0040934137 -0.002535956 
FGF14	-0.0032023874 0.00046436107 -0.0036998456 -0.004871992 0.0016127174 0.0004865068 0.0011522928 0.0035015054 -0.00033785813 -0.0012798568 -0.004883252 0.00021241674 0.0033908181 0.0014762391 -0.003228967 0.00438413 0.0033632275 -0.0030846596 0.0046711494 -0.0035403857 -0.0015844394 0.0018321835 -0.004033704 0.0009899408 0.00013283575 -0.0044102855 0.0008025274 0.0032317478 -0.0007314737 -0.004910576 -0.0022480628 0.0014947116 0.00293312 0.0023169545 -0.0037224405 0.004696305 -0.0046200077 0.002072952 0.0038461578 -0.0042610173 -0.0036706626 -0.0009857509 -0.0015173757 -0.0017518369 0.0034356415 0.0031858762 0.0043120855 0.0006152788 0.002534971 -0.00356638 -0.0014637089 -0.004945146 0.004469563 0.0034419778 0.0026266952 0.00051807036 -0.003567241 -0.001513902 0.0033906712 -0.0026405186 -0.002245489 0.0020587228 -0.00014494281 -0.001566485 0.0020284383 0.004854092 -0.0009766835 0.0018290238 0.003480819 -0.0041867043 -0.0016306936 -0.0025485447 0.0030505958 -0.0001233059 0.0033599392 0.00065563 0.0014180269 -0.004458797 -0.0004586777 0.00058129267 -0.001771084 -0.0046724523 0.0025973164 0.0049346625 -0.004320496 -0.0009716338 0.003336202 0.0010507446 0.0035525085 -0.004098994 0.00084456307 -0.0043021557 -0.0026661397 0.00040143088 -0.003500378 0.0028331762 -0.00061452645 0.00078101916 -0.003503363 -0.003760769 
SIM2	-0.0036804553 -0.0008807837 0.003915463 -0.0031977457 0.0008944683 0.0019465955 0.0034385566 -0.00363089 0.0019653079 0.0046055675 -0.0028278683 0.000913747 -0.0045144632 0.0010119186 0.0013289725 -0.0037515252 -0.00031639624 -0.0029282388 0.0019140956 -0.0036742168 0.0006526685 -0.001109369 0.0025469451 -0.0022874686 -0.0015832379 -0.0020631913 0.0020566804 0.0031453047 0.0025007678 0.00040276788 -0.00093863846 -0.002651441 0.0020588094 -0.0007395117 -0.0011710074 0.00054973614 -0.0010677304 -0.0013562645 -0.0013441778 -0.0037743852 -0.0013747173 -0.00036422926 0.0011772458 -0.003984319 0.004758538 0.0049889823 -0.001116532 -0.00034161613 0.0027002876 0.0022306447 -0.0006417463 0.0004976492 -0.0033263294 0.0023798412 0.00084451836 0.00018405993 -0.0049594217 0.0033675963 0.0032515193 0.00014462149 -0.0014559088 0.0007076453 -0.0040893736 -0.00225304 0.0019982974 -0.004913227 0.0017180918 -0.0031755448 0.0011501183 -0.004803625 -0.001979408 0.004114758 0.004112821 0.0033438741 0.0025406976 -0.0020037536 0.002683368 0.0024497856 -0.0013990044 0.00058911846 0.00471904 0.0007305886 0.00066403905 0.0044461954 0.0038690083 -0.0027782193 0.0049537984 0.0007253911 0.00071553304 -0.000566551 0.0037330757 -0.004218445 -0.0037932105 0.0025754727 0.00094968645 0.0032521968 -0.00296438 -0.0016025917 0.0033782816 0.0004974881 
FAM13A	0.0045768335 0.0017246357 -0.003646659 0.003184713 0.004303935 0.0031426586 0.003699148 -0.00094661274 -0.0043158694 -0.0042419764 -0.004148304 -0.001511366 0.0012848874 0.0036825975 -0.0012128118 0.004127677 -0.0036090566 -0.0035885752 0.0004915793 0.0033532344 0.0015165148 -0.00013726292 -5.5654065e-05 -0.0020102756 0.0014328624 -0.0024284038 0.0026053472 0.0024774324 -0.0025710848 0.0040803757 -0.0003250419 -0.0033393868 0.0007825079 -0.0031126463 -0.00264781 -0.00079768157 0.0031186822 -0.00061619276 0.004979616 0.004867958 0.0017305335 -0.0029642764 -0.0012610182 0.0046686055 -0.0042006164 0.00355859 0.0027697508 0.0016575801 0.003836108 0.00084084214 -0.000417487 -0.0020129657 0.0032684335 0.0016455969 0.0028685096 -0.0023419359 -0.002272396 -0.001940216 0.0044364873 0.0025905292 0.0023870883 0.004887653 0.00063772773 -0.0020306131 -0.0006629212 -0.0018121323 -0.0028688167 0.0043401043 0.0005542823 -4.6810164e-05 0.0049926518 -0.0011419433 -0.002967218 0.0013319141 -0.0014381974 -0.0010198336 0.00023918535 0.0010841825 0.002378554 0.0019567457 -0.001591086 0.0036436722 0.0030030513 -0.0032357892 0.0036590616 0.001114863 -0.0017121627 -0.002294376 -0.0031424381 0.0012195859 -0.0031229432 -0.002165888 -0.0028108251 0.0028524552 -0.0046471045 0.004003943 0.0022359095 -0.001478672 0.0016153178 -0.0025412326 
POLM	-0.004657109 -0.0038349028 -0.0018047494 0.004895283 -0.0029426867 0.0009156609 0.0017315759 0.0034700779 -0.0027555225 -0.004371522 -0.0027659 0.0006602489 0.0035747536 -0.004444588 0.00046224066 0.0047250725 -0.0029698403 0.002855448 0.0002670627 -0.003978495 0.001311716 0.0034504656 0.00091238983 0.0034841711 0.0045643193 -0.00027927564 -0.0039650355 0.001169281 -0.0034187671 0.0025709255 0.0008885512 -0.0034198877 0.004910457 0.0032446384 0.0016173398 0.0038207583 -0.00055348146 0.0018556252 -0.0023931386 0.0037757223 0.002298087 0.00089332747 0.004205255 -0.0032320973 0.0018203859 -0.0039006541 0.0041910447 0.0013005118 -0.0014036632 0.0016066154 0.0017801282 0.0017470075 0.00027568196 -0.0039859395 -0.0005828839 -0.0048780967 -0.0010022155 0.0026850083 0.0032793658 -0.0038935514 0.0049306704 0.0038494598 -0.0011974672 1.9771192e-05 0.0027750146 -0.0044260947 0.0017769919 -0.0007275883 -0.00424375 0.0020573135 -5.2085325e-05 0.001868075 0.00040494974 0.0020750363 0.00038730333 0.00012179146 0.00089320174 -0.00029547984 0.004531821 -0.0023209844 0.0027566021 0.0005690772 -0.0006947438 -0.0041079344 -0.004555947 -0.0015726996 -0.0033723724 -0.003335218 0.0010153212 -0.0014953105 -0.0047934554 0.0012388681 0.0039185113 -0.0027333135 -0.0026562582 0.004071971 0.0032684286 0.00048121234 -0.00097164954 0.004014221 
KRTAP8-1	-0.004094348 0.0040780366 -0.0016871816 9.777949e-05 0.0036936235 -0.0006114344 -0.0049566575 0.0046580913 -0.0032963078 -0.004689068 0.0013715847 0.0009554374 0.0016889117 0.00013099579 -0.004624072 -0.0014028151 -0.004605199 -0.004303102 -0.0015556543 6.1390136e-05 0.0042154077 -0.004668705 -0.00058540795 0.00033600765 0.0035821756 0.0026429617 -0.003842507 -0.004966204 -0.0021059166 -0.0003493421 -0.004875199 -0.0026283541 0.0015085127 0.0012843276 0.0039630355 -0.0025512043 -0.0033804157 0.0043991897 0.004137572 0.00073233055 -0.0035529498 -0.0032157744 -0.0005440456 -0.0002795912 -0.002196361 -0.0009833699 0.00032215886 0.00395448 -0.004641948 0.00042210316 -0.0017304944 0.0039026688 0.00029267895 -0.001683761 -0.0008813651 0.00011344307 0.0012769103 0.00011701664 0.0018534614 0.004364386 -0.003133888 -0.0034282103 -0.00017921656 0.004101694 0.0047255913 0.0011371422 0.00021535906 0.003270608 0.0014243675 0.0034504011 -5.0875078e-05 -0.0019081613 0.0015800851 -0.004923563 0.00054519885 -0.0023074425 -0.00041691563 0.00056205987 0.0031413839 -0.0041277586 -0.0040061804 0.0043401932 0.00321374 -0.0048134476 0.0026104157 -0.0031857092 0.0022591033 0.0006486838 0.0016667403 -0.0017579072 -0.0005987392 -0.0011499891 -0.0017778672 0.0023089007 0.00019277158 -0.0042793183 -0.0027842293 -0.0014674937 -0.0002992627 0.0003832939 
OR51M1	-0.0035537323 -0.004897504 0.00078123994 0.00044967438 0.0046398723 -0.00056319486 -0.0008176269 0.0007828105 0.0017668572 -0.0042043533 -0.003217288 -0.0018145078 0.0018674406 0.0006859575 0.0019489487 0.0019132128 0.0044675064 -0.0027837236 0.0023413328 0.00056938815 -0.0018589458 -0.001780727 -0.0028975005 -0.0032242963 -0.0033247974 0.0011399997 -0.00095309713 -0.001539335 0.0048331087 -0.001205538 0.0018073268 0.0012974291 0.0021488874 0.0028274546 -0.0024051806 -0.0021770746 -0.002969822 0.0043599466 0.0012384163 -0.0025522406 0.00017406823 -0.003868308 -0.0012310734 -0.0049165552 0.003273477 -0.004176399 0.0011013842 -0.0008623182 0.0030061398 -0.00069372525 -0.004741022 0.0020554888 0.0047739395 -0.002494788 -0.004846047 -0.0023897265 -0.00045663 0.00059008464 0.0030111712 0.0017013602 -0.0031824731 -0.0047575 0.0010300978 -0.0010696409 -0.00023793362 -0.002547047 0.0022651937 -0.0041585313 -0.0013698955 -0.0021118177 0.00349688 -0.0036241333 -0.0010605287 0.0012048973 0.0021940873 0.0031454866 0.0044676317 -0.0027993186 0.00040226095 -0.0032078493 -0.0024662127 0.0001655693 -0.00023729065 0.0028430226 0.0021616684 -0.0034335693 -0.002634751 0.0043608365 0.003507106 -0.00045393137 -0.0021508834 -0.004465323 0.0047457363 0.004001614 0.00083526876 0.0026800868 -0.0041731666 0.002811226 -0.0020497448 -0.004615909 
TRPM7	0.0010706858 -0.002372255 -0.00045156264 0.002948928 -0.0015603405 0.0016859521 0.004306645 0.0008450002 -0.0006037858 -0.0007091147 3.546039e-05 0.0045888214 -0.00038665644 -0.00024254424 0.0029616817 0.0019744232 -0.003947528 0.0032830148 0.0014729319 -0.002626861 0.0032393974 -0.0021044507 -0.0043821926 -0.0025497763 -0.00034508444 -0.0044525606 0.0015471209 -0.00061591464 -0.0005900114 -0.004820876 -0.0029602912 0.0018848075 -0.0023370255 -0.0045270277 -0.0049059954 -0.00041994985 -0.0043382407 0.0035056104 -0.0007230137 -0.00069841236 0.0036289014 0.0036648503 -0.0018438733 -0.0022684264 0.0012398863 -0.001966123 0.0011903875 0.004707993 -0.0040593436 -0.001661327 -0.0047091544 0.003993706 0.004382762 -0.003563083 0.000911706 0.0028455658 -0.0011863002 -0.0019217888 -0.0021869317 -0.00036562938 0.004720455 0.0032596078 0.004920253 0.002853607 0.0016896619 -0.0017169893 -0.0046895803 -0.0030542526 0.00082854996 0.0033286703 -0.0015220694 0.0049376357 0.0036127751 -0.0038411596 0.0025945439 -0.0009950289 -0.0027030567 -0.0015862425 -0.00028643364 0.0033103323 -0.0020422058 -0.0014448954 0.0012655043 0.0033798867 0.0034673857 0.0022770583 -0.0045397743 0.0035865034 -0.0014521251 -0.0011469494 0.0012472951 0.0023184286 0.0049884194 -0.0014484547 -0.0024216762 0.0019391414 -0.0030697028 0.0032704647 -0.004361027 0.0008753188 
DTX3L	0.00473912 0.0012093518 -0.004871351 0.00011139432 -0.00078940584 -0.0018715337 -0.0032230979 -0.0007025055 -0.004510293 -0.0005976915 0.0028439118 -0.0031267856 0.0012505545 0.000592128 0.0039917645 0.0011895872 0.0044927737 -0.002712587 0.00446018 -0.0032780294 -0.00095426815 0.004066224 0.0031404863 -0.00052946206 0.004165795 -0.0036484902 0.0036471905 0.00043600771 -0.00056674343 -0.000168326 -0.00033997174 -0.0016533907 0.0009686219 -0.00044307704 -0.0012320261 -0.00088299747 0.00012380342 0.0026121761 -0.0011084628 0.0033400424 0.0043708305 0.004821677 -0.00083563157 0.00157868 -0.0033912945 0.001857092 0.0034908669 -0.00314244 0.00333977 -0.0035911035 -0.003637481 -0.0020193115 0.0025306807 -0.00026155522 -0.0047120093 0.003070927 0.0031335102 0.0035565256 0.0004962996 -0.0047023925 -0.0013099952 -0.0016257454 -0.0042734016 0.00086776825 8.537786e-05 -0.00031215473 -0.00080914126 0.0028754256 0.0031261877 0.0049324553 0.0029199512 -0.0040171584 0.0024539183 0.004260064 -0.0027154074 -0.0041047866 -0.0014395338 -0.00068132795 -0.0019444393 0.00027622876 -0.0031139932 -0.0004826702 -0.0030106832 0.0040403777 0.002004995 5.904735e-05 0.0038829728 0.0032321883 0.004592932 0.0002607743 -0.00045685464 4.8694717e-05 -2.814573e-05 -0.004655052 0.001070797 0.003985017 0.003031548 -0.004923419 -0.0005414721 0.0032868127 
POTEKP	-0.0039601293 -7.1540846e-05 0.002665337 0.0047007836 0.0020471266 -0.00447541 0.0031821877 -0.0049871802 -0.0016889039 -0.003053402 0.004444021 0.0035324243 -0.0018568116 -0.0030728392 0.00074720645 -0.0013601319 -0.0026748239 0.004553388 0.00027719582 0.0021600649 0.004926624 -0.0022348561 -0.0044713886 0.0005589236 0.0011297994 0.0005596205 0.0031006997 -0.003174553 -0.00096066657 -0.00039696056 0.001996674 -0.003559238 0.004451517 -0.0034367456 0.0026288799 -0.003491015 0.0019151935 -0.0012223816 -0.003291285 0.0023873225 0.00034930656 -0.0021423427 -0.0022622712 0.0014646988 -0.0030060096 -0.0024534995 0.0014480554 -0.00038912293 0.0033662128 0.00055928173 0.0027976474 -0.00446094 -0.003229433 0.0031615372 -0.00016514029 -0.0031709108 -0.0040254 0.0006794682 -0.004799885 0.0004630656 -0.00041377346 0.004952461 -0.00023198301 0.00054553314 -0.0049288576 0.00271646 0.0014462089 0.0041632554 -0.0005329729 -0.0025761577 0.0026422504 -0.0008448792 0.0031922997 0.00021839108 -0.0007553514 -0.003321809 0.0036680617 0.004501801 0.004661698 -0.0010235287 -0.002405695 0.00062622025 -0.0017287248 0.0046638064 0.0047022477 0.000901283 0.0043362705 -0.0011269369 0.0019517303 0.004798907 -0.0031278825 -0.0002417332 0.00073220377 0.0031344672 -0.0047102547 0.0027359433 0.001156571 0.00070281693 -0.0045182537 -0.004017368 
ATL3	-0.0029457537 -0.0018894309 -0.0040054973 0.001526458 -0.00031979897 -0.0016004929 -0.0030316391 0.0026342182 0.0009413232 -0.0049524466 -0.0040798583 -0.0025565163 -0.0031800368 -0.0045763473 0.003525987 -0.0012882662 0.0037849175 0.0008250386 0.00041196216 -0.0027616762 0.0020092144 -0.0016937396 -0.0027416828 0.0039251423 0.003815097 0.0006255441 0.0041966243 0.0006994076 0.000120763245 -0.0048360224 0.002729152 -0.003539855 -0.0036831186 -0.00062596105 0.0015184385 -0.0015957494 0.0015342482 -0.0008019746 0.004856326 0.0020547926 -0.0012797195 0.0023736167 -0.0006803834 0.0028381406 -0.0027168319 0.0039628246 0.0045337873 -0.0001761681 -0.0033599844 -0.0030800987 -0.0047992384 0.0023064278 -0.001041943 0.004248282 0.0018579442 -0.001459277 0.001459538 0.0031625738 -0.0036045087 -0.0011761511 -0.004602411 0.003424574 -0.00050278055 0.003479651 -0.0038491476 -0.0009992296 0.0036581012 -0.0038206717 -0.0011846438 -0.00018053167 0.00071394054 -0.0046124132 0.0026612927 0.003592589 0.004532139 -0.0042694653 0.0024571195 -0.0049034394 0.0029449167 0.0049945936 -0.00028041328 -0.0033131156 0.004037241 0.0006219623 0.00043943312 -0.0025045767 0.0049853553 8.809507e-05 -0.004744424 0.0036829088 0.0008172465 -0.00016453747 -0.002818104 -0.0013220294 -0.0020843125 0.0005637497 0.0032431874 0.002395434 0.0002499482 -0.0023189813 
CD2AP	0.0015608736 -0.004321607 -0.003644249 -0.0040331846 -0.0008036223 -0.0019046842 0.0013830566 -0.0011355517 -0.004027025 0.0033701106 0.002993004 0.0015500425 -0.0022461691 0.004120993 0.0007176863 0.004684576 0.002168366 0.0035565502 -0.003608032 0.0040335977 -0.002506088 0.002459189 0.0033744695 0.0040791347 0.0007782851 -0.0015069152 0.0006517519 -0.0030784295 0.0032241237 -0.002278878 -0.0040964596 -0.0035958488 -0.004249028 0.004274404 0.0024174468 0.0016715538 -0.0012490309 0.0039858855 0.002147452 -0.0035491125 -0.00013483074 0.0024059254 0.0028820795 -0.0047866907 0.0047861943 0.000719115 -0.0021464685 -0.0014767156 -0.0037653167 -0.0009206347 0.0029973877 0.0003091664 0.0031652665 0.0023964574 -0.0025331455 0.0021920272 -0.0028107238 -0.0022820788 0.0005366619 0.00038157264 -0.000357587 -0.0043053105 -0.004396217 -0.0017839088 -0.0033767363 8.9128334e-05 -0.00035524878 0.0029355101 -0.0027550873 -0.0035845533 -0.004778162 -0.0042406186 0.004701659 0.004660492 -0.0035470503 -0.002692969 -0.002966349 -0.0005271696 -0.0001900353 0.0038651591 0.0041473494 0.004583567 -0.0041651153 0.0018328951 -0.0008115897 -0.001650354 -0.00016074046 0.00039955304 0.004487847 0.002545491 0.0020697094 0.0028079438 -0.0010899666 -0.0045060646 0.0016992927 0.0030893697 -0.0013037922 -0.0015611638 -0.004800194 0.0012762473 
DHODH	0.0046570767 -0.0038611672 0.00034557827 -0.0018122148 -0.0030503597 0.0036483125 -0.000506992 -0.0034422288 -0.0013720391 0.0044517065 0.0038238452 -0.0028289354 0.004581651 9.655139e-05 -0.003054079 -0.00017265309 -0.0020319207 -0.00082274724 0.001354791 -0.0023467129 0.00305461 -0.00081258744 0.0021801742 -0.0029012403 0.0039872 -0.0012788253 0.0037051255 -0.003029009 -0.0019988588 -0.0041151755 0.0031205618 -0.0032316493 -0.0018963203 0.00446492 -0.001456208 0.0031933736 -0.004317955 0.0022272517 -0.0035651266 0.004048617 0.0042783185 0.003973568 0.0031783544 -0.004084689 0.0020337114 -0.003549915 0.0015630207 -0.0038888971 -0.00015735468 0.0049444693 0.0003287103 0.004572466 0.0032947382 -0.0009405637 -0.0010545305 0.0022548733 0.0049554855 -0.0021768827 -0.0024590117 -0.004228319 -0.0019462632 -0.0011497826 0.0042795297 0.0043336162 -0.0006446778 0.0002658552 -0.0042888704 0.0048135063 -0.0041068783 -0.0021857661 -0.0016284009 0.0019567052 0.003612892 0.004392832 0.0027663205 0.0014802663 0.0010443986 0.00023155345 0.0025247592 0.0026470374 -0.0005598346 -0.0018277706 -0.0020756067 0.002636079 0.003125538 0.0024297987 0.0025164916 0.000733589 0.0049894205 -0.002885055 0.002827198 -0.0007856303 0.0021648312 0.0014545494 0.004292122 0.0019186194 0.00078579865 0.0024159513 0.0022184947 -0.00069260865 
GLI1	-0.0019581951 -0.0028130426 0.003529814 0.0029424776 -0.00095727236 0.00077133597 0.0016227339 -0.0005327861 -0.00066586846 -0.0004167073 0.0044385456 -0.0011145532 0.004241105 0.0016512488 0.0025369143 0.0039235265 -0.0025239096 0.0044093505 0.0001761446 -0.004887297 -0.0022038065 0.004418902 0.0025366892 8.769598e-06 -0.004939094 0.0048218397 -0.0006826567 0.004353188 -0.0013506238 -0.00022583909 0.0049750153 -0.0049534906 -0.0028471868 0.0028153693 0.0036335115 -0.0018280355 0.0023699154 0.0021638973 0.004682846 -0.0003687091 0.00032992125 -0.0008723909 -0.0027102141 0.0010943282 -0.0043733437 -0.0029012721 0.001640956 -0.0021173588 -0.0028070712 0.0007110596 -0.0022984713 0.0032106382 0.0037530318 0.0030732548 -0.001072295 -4.7046145e-05 -0.0047938265 -0.0013061363 0.0011169958 0.0022210719 -0.0043598246 0.003638484 0.00015176466 -0.0021388077 0.0016806079 0.00033264363 0.001480733 0.0035471995 0.0005376369 -0.000306025 0.0031078036 0.0034533397 0.0013483029 0.000341217 -0.0013184295 0.0030998092 0.0049693226 0.0033329006 -0.004406783 -0.0018856651 -0.0041801315 -0.00045107448 -0.0024479136 0.0025104608 0.0013653068 0.0026393635 0.004488293 0.002856596 0.00460015 -0.0016423188 0.004852925 -0.00019359546 0.0014494905 0.0047289715 0.0039008085 -0.0026405423 -0.0015143997 0.0012208078 -0.0036745414 0.0014483897 
MAML3	0.00046610093 -0.0029502572 -0.00075973617 -0.0043463847 -0.00183888 -0.0008150645 0.0032562607 0.0032020193 0.0034798244 -0.0019302664 0.0029503917 -0.0041439296 0.002956649 -0.0023178686 -0.0048005087 0.0027168638 0.0047357827 0.001527279 0.00059657 0.0029921792 -0.004842938 -0.00094129395 0.0047890465 -0.0036066389 0.003081387 -0.0039189616 -0.0046725255 0.00319232 0.0023928198 -0.0005545731 0.0006210997 0.0026460942 0.0022810998 -0.0029419514 -0.0008441205 0.004876486 0.0016446182 0.0012781797 0.00022004703 -0.00088491244 -0.002583047 0.002157522 0.004365271 0.0006185643 0.004162537 -0.00029089965 -0.0035547584 0.0021311382 -0.0030552766 0.0003869405 0.004818632 -0.00012667151 0.000785059 0.0027953296 -0.0021942141 0.0012602403 0.00029887233 6.615237e-05 0.002782912 0.0034843346 -0.0037473864 0.0023129808 0.004893077 -0.0008644655 0.003571215 0.0043707914 -0.00021216758 -8.6609594e-05 0.0005942163 0.004666805 0.0047169873 0.004391164 0.00084950164 -0.0036710477 -0.00081416836 -0.0016587503 -0.003010409 -0.0025276642 0.000999578 0.0014208684 0.004316332 0.0012434945 -0.0044161337 0.00086561334 0.0012543114 -0.0018760042 0.0018938709 -0.0016994352 0.003621247 -0.0022845077 0.0010036121 0.0035008132 -0.0034108239 -0.004303514 -0.0043127993 0.002518315 0.004049409 -0.0024787209 -0.0006072229 0.0034145624 
DMD	-0.0005114073 -0.0037773252 -0.00038854292 0.0025009431 -0.0031351894 -0.0047900164 -0.0040864144 -0.0031688705 0.004436353 -0.0013221831 -0.001531899 -0.00234112 0.00019810311 0.0019648308 0.0045393026 -0.0024020206 -0.0033103882 -0.0032444545 -0.0045245904 0.0042000934 0.00052527396 -0.00299827 -0.0019832256 -0.004440005 0.00086042425 0.0031449934 0.0017312277 0.0028284562 -0.004478671 0.0017940638 -0.0035714642 0.0037455107 0.0021532695 0.0038009966 0.004278866 -0.002645921 0.0010893098 -0.00047719394 0.0022763181 6.0223956e-05 -0.0003131489 0.00489967 -0.0036035255 -0.0012452246 0.0012620396 1.7097872e-07 0.0023475797 -0.0018738202 -0.0035881668 -0.0018223386 0.0038893332 0.0022531522 0.003990696 -0.0048360913 -0.0014276226 -0.0044500106 -0.0023659088 0.0036293545 -0.0024497192 -0.004140704 -0.0045176614 0.004909 -0.00058430544 0.0025910682 0.0025493493 -0.0035041685 -0.0011769197 0.0009715513 0.0033569774 -0.0021827733 -0.00026020492 -2.7603453e-05 -0.0018969595 0.0038102646 -0.004838576 0.0037761168 -0.001488185 0.0029815205 -0.004013709 0.00050995004 -0.0046805386 -0.0042768447 -0.0025043688 0.003056057 -0.004935571 0.0017726122 -0.0018127735 -0.00406952 -0.0008275205 0.00021728042 -0.0022077605 -0.0025966994 0.0019162596 -0.0003770615 -0.002397955 0.0033324405 -0.0016508206 0.0033336577 1.7125602e-05 -0.000659148 
NOL8	0.0005935691 -0.0032074342 0.0013828987 0.003079747 0.0006205955 0.0035087666 -0.0028191912 0.0017290653 0.0038717825 0.0032733795 -0.002226417 -0.0008862401 -0.0020747941 0.0029826395 0.0033319064 -0.0025752261 0.0039322916 -0.0026439463 -0.0022451242 5.8898142e-05 -0.0047103968 -0.0017922063 -0.0034888494 -0.0031013524 0.002006245 0.0022944636 0.0049996125 -0.002093298 0.00054191763 0.001964311 0.0017136115 0.001983618 0.0031848683 0.0032676482 -0.0011903278 0.0011626065 0.00015746495 0.0015977318 -0.0033849585 -0.002208358 -0.0048661064 0.0028502287 0.0049855243 0.0031795546 0.0021706023 -0.0009224701 -0.002395709 -0.0018647746 0.0018989178 -0.0001776729 -0.004685019 -0.0010901785 -0.004877917 -0.0036892456 0.0014361006 -0.0017084993 0.0010066674 -0.0014649457 0.0033681188 -0.0039485516 0.002654434 0.0037239809 0.0028691164 -0.003033743 -0.0034222356 0.0040497063 -0.0025370081 -0.0033202595 -0.0022163054 -0.0011465222 0.003128764 -0.0014397273 -0.004233667 -0.0022779054 0.0034863437 -0.0016730819 0.002231594 -0.0012650421 -0.002775911 0.0033334896 -0.0002597847 -0.0014712315 -0.00095481763 0.0022467 -0.00036126215 0.0019831678 0.0013178985 0.0014622144 -0.0007019 -0.00087047165 -0.00053375814 -0.0040518753 0.0006659314 0.002125308 0.0019167695 -0.0018130819 0.0034103757 0.00014655778 -0.0020913342 5.729445e-05 
TUSC2	-0.0049089156 -0.004685389 -0.0042085703 -0.00441474 0.004475 -0.0032062817 -0.0019073138 -0.0026970548 0.001324851 -0.0026470846 0.004981942 -0.0014950996 0.0044002216 0.0045462046 -0.003911819 -0.00026434887 0.0003918573 0.0021777465 0.0029165053 -0.003199101 0.00088521576 0.0036537298 0.00015029171 0.0032069467 0.0028045068 0.0036868209 -0.0029962948 -0.0039957007 0.002332523 -0.0037829312 -0.0018452632 -0.0008020894 -0.000636872 -0.004462749 0.0034422465 0.0038425275 -0.0008914691 -0.004795556 0.004729237 0.003130676 0.0028804145 0.0017549641 0.0021805556 0.0022698257 -0.004758752 0.004064381 -0.0011825344 -0.0031714488 -0.0014074368 -0.004013029 -0.0013229274 0.0017609566 -0.0022863203 0.0040133214 -0.00042709432 0.0034689913 -0.0020838408 -2.6272044e-05 -0.00024352262 -0.0039617214 -0.0036926859 -0.0036869836 0.0039529097 -0.00087812374 -0.0037066184 0.0042365897 -0.0025752133 0.00045101964 -0.003365582 -0.00024487314 -0.0006631362 0.0024550841 -0.0023771976 0.00085970183 -0.002474076 -0.0039313408 0.0027038676 -0.0044895923 0.0008886197 -0.0010109002 0.0022894298 0.0024001042 -5.4646272e-05 -0.0012079453 -0.0008500269 -0.0030988494 0.0020393103 -0.004821127 0.0036797412 -0.0019403917 0.0038070516 -0.0037430164 0.00401911 -0.004518085 -0.004661425 -0.0029936507 0.0020715736 0.002046223 -0.00057519885 0.001391405 
ADRA2B	0.00077055744 0.0007821876 0.0018292576 0.0042124353 0.0011100706 -0.00016027788 -4.802676e-05 0.002546292 0.0047421567 -0.0036544483 -0.0037941632 0.0044181445 0.0029551527 0.002200059 0.00051296526 0.0036443681 -0.0031092186 -0.0014260588 -0.0033420178 0.0013075476 -0.0021544837 -0.00028569248 -0.004819572 -0.0020107809 0.0014886556 -0.0042635202 -0.0018087314 -0.003585071 0.0044218428 0.0017875832 0.0032578 0.0023440935 0.0034180724 -0.0012464629 -0.0031049713 -0.003827666 -0.0039728344 0.0028318558 0.0010384177 0.0010856976 -0.00032927547 -0.0043248297 0.0027797685 -0.00051860814 -0.0040895594 -0.0031319412 0.0026499499 0.0014503242 0.0037439496 0.0030111999 -0.0034354532 -0.002880057 -0.003393865 0.0031166964 0.004839426 0.0029416583 -0.0012812844 0.0028332479 -0.0010345975 -0.0036398168 -0.0043282197 -0.0006211731 0.0031414668 -0.0013284604 -0.0030893367 -0.0037884181 -0.0037238658 -0.004048129 -0.00435077 0.003602896 0.0045911507 0.0011591407 -0.0018743413 0.00034931197 0.0048122527 -0.002754529 -0.0011732372 -0.0034599402 0.0047435085 0.0019126161 -0.0010824417 0.0022966142 0.0022931963 0.0032012723 -0.0010337102 0.0025865925 -0.0019154932 -0.00043354186 8.203867e-05 0.002494671 -0.001027765 0.004131673 0.0045111813 -0.0021186555 -0.0047452385 0.0021567685 0.00063976547 0.00067780254 -0.0018381809 0.0012364725 
MAS1	0.0008471499 -0.0016277451 0.0029766823 0.0012720176 -0.0013874506 0.0036620714 0.0017282268 -0.00013947711 -0.0014537587 -0.0028684638 -0.00271178 0.00024306156 -0.0012660008 -0.0017024295 -0.003225024 -0.004861027 0.0034861914 0.0040381704 -0.00086773006 -0.0038911009 -0.0025068028 0.0027180684 -0.0026589944 -0.0048545063 -0.004305116 -0.00030960765 0.004144111 0.0001355702 -0.00023614433 -0.003240089 -0.002528686 -0.0032027538 -0.0024384107 -0.0039452473 0.0043104733 -0.0041540405 0.0027095296 -0.0038573812 0.0031583481 -0.00070977607 0.0032166555 0.0044680894 -0.0014776041 0.0006288472 0.0035811726 -0.0047914498 -0.003990045 0.000533343 -0.0036562148 -0.0023036646 0.0016370803 0.0023451378 -0.0030868591 -0.003629596 0.0018161995 -0.0030863986 0.0006421448 -0.004175244 -9.5179974e-05 -0.00022611527 -0.0044306987 -0.0037734825 -0.004509451 -0.0023502398 -0.0010400439 -0.0046729553 -0.0031915044 0.004915439 -0.0025035453 -0.0014415615 -0.0018961286 -0.0025182678 -0.002855682 0.0007996218 0.0030990525 -0.0018293388 0.0046815937 -0.00011093947 -0.00020148129 -0.004638824 0.0013246196 -0.0034180258 0.0005931891 -0.0031490887 -0.0034035302 -0.0010039387 -0.0029422857 -0.002544666 -0.003169307 -0.0028311943 -0.004698644 -0.0030256067 4.5689943e-05 -0.00416218 -0.0030677498 -0.0026764115 0.0036485754 0.0012201649 -0.00149506 -0.004382499 
PTGFR	0.0028284325 0.003798063 -2.9297522e-05 -0.002447813 -0.0021795153 -0.0034766374 0.004220688 0.002868119 0.004296485 -0.0015305784 -0.0042772535 0.00015254063 0.004573397 0.002888406 -0.0015189645 -0.0013892894 -0.0025366864 0.00414681 -0.0043893983 0.0044925795 -8.9749265e-05 0.0047894004 -0.0048698527 0.0046403087 0.002881899 0.0035949775 0.0040810406 0.0006271263 -0.0041040843 -0.0048827594 -0.0039735995 -0.002445008 -0.0025037332 0.0024729203 0.003557959 0.0023428646 -0.0031444314 0.003852008 0.00015496784 0.0011489599 0.0006641009 0.001930584 0.0016075463 -0.0031638548 0.0035019729 -0.0021754866 -0.0010578048 0.0024675836 0.0010927179 -0.0035036218 0.0008630379 -0.0031712542 -0.0016723952 -0.0009708265 0.0023438828 0.004381991 0.0004823559 0.0008097749 0.0046687233 0.001795691 -0.0036097132 -0.004655916 0.0025831945 -0.0032851894 -0.00015002434 -0.0045506656 -0.0043102102 0.0036924076 -0.0021484299 0.0031489667 0.0038566845 0.00040981226 -0.0018028609 0.0025353732 0.0033961905 0.0035113404 -0.002064107 -0.004666084 0.0040933415 -0.0013597406 -0.0032758198 -0.00073191756 -0.004141416 0.0047497004 -0.0043083406 0.002501685 0.002641696 0.00078176317 -0.0031220056 -0.0010408732 0.0016571722 0.0020590238 -0.0020229497 0.0011980175 -0.0045247134 -0.002938953 0.0027132405 0.0017119172 0.0020175474 0.00020046538 
FOXL1	-0.0005717542 0.0044734115 6.027698e-05 0.0039358744 -0.0030763268 0.002060827 -0.0032609615 0.004220317 0.0021143735 0.0006106404 0.0045863534 -0.0039764727 0.000107175874 0.001708825 0.000847002 -0.0035045026 0.0044505554 -0.0047375634 -0.0018497007 -0.0038868487 0.0015392583 0.004862781 0.0013909325 -0.004227053 -0.0049864193 -0.0039515425 -0.00024873688 -0.0033324654 -0.00088234374 -0.0037366021 -0.0046015275 -0.0021789076 0.004239112 0.004881258 -0.0027248163 0.004729839 0.0003355655 0.002382753 -0.00019687427 -0.004502534 -0.0019623353 0.0033469026 0.0021253559 0.0034355521 0.0049196742 0.004260673 -9.475978e-05 -0.0002880857 0.001385782 -5.7635367e-05 -0.004764841 0.0039057652 0.0024437266 -0.0001401853 0.004474684 -0.0011587067 0.0045756106 -0.0002688513 -0.0041727545 -0.0013799523 0.0013402617 -0.00420644 0.0013966098 0.00034848304 0.00044461686 -0.0032315883 -0.0026183904 -0.0023116146 -0.002933422 0.0046902667 -0.0008713246 0.0008564434 0.0025869804 -0.004378466 0.0012540934 -0.0016953156 0.0042672693 0.002646615 0.001317007 -0.00043103672 0.003989744 -0.0038993643 -0.0028454403 -0.0025386873 -1.7420186e-06 0.0020818973 0.00035449213 0.00086571526 -0.0015983405 0.002060065 0.0025496418 -0.0021176012 0.0004925838 -4.334831e-05 -0.0018761085 0.0036836877 -0.001815849 0.0005591615 -0.0037258521 0.00020075217 
ICOS	0.0006455182 0.0042569083 -0.0019882584 0.00420851 0.00036597226 0.003470506 0.00046912898 0.0044983425 0.002158876 -0.0035907177 0.00086999504 0.0025295694 -0.002218535 0.0023719764 0.0016468493 -0.0034181392 -0.0041682427 -0.0039667143 -0.0041663814 0.004255068 0.0005997659 0.0043327925 -0.0030481431 -0.0039807037 -0.003760106 -0.0003020235 0.0007499387 -0.0005324067 0.0036228986 -0.0013883533 0.002864712 -0.0039516664 -0.0036538388 0.0016019031 0.0046485085 0.0019355481 -0.0049802163 -0.0013931305 -0.0004285992 -0.00178359 0.0016321772 0.0027933763 0.0048502744 -0.004537106 0.0034246861 0.0041806097 -0.0019160826 -0.0019603067 0.0044998564 -0.0038967212 0.0019182212 -0.0020645338 0.0046073887 -0.0049994984 -3.0227047e-05 0.0048545776 -0.0010033103 2.405156e-06 0.00447953 -0.001745383 -0.003582759 -0.0035610723 0.00033230925 -0.00025081792 -0.0006797706 0.0026146893 -0.0037967146 0.0015461884 0.0021577454 0.0038660648 -0.004662617 0.00061385083 0.0032813877 -0.00025225064 -0.004091146 -0.00038069178 0.0033346938 -0.0033376636 0.00089072407 -0.004071617 0.0048770728 0.0019435205 -0.0039003226 0.0023311393 0.00034667572 -0.0021360053 0.0035411138 -0.00467176 0.004604964 -0.004995063 -0.0042527663 -0.0022541808 0.0012404866 -0.0012457332 0.0034585397 0.0025639562 0.0012842823 0.0012301862 -0.0033529564 -0.0013448023 
MLLT1	0.0045325127 -0.0037846414 -0.0037151265 -0.0043359487 -0.0046108165 0.0036823663 0.00089901075 0.003444157 0.0012627966 0.0008552727 0.0035152016 -0.0034866473 -0.003414352 0.004307153 0.0025251133 0.002175629 -0.0049390085 -0.0015708111 0.0037632294 0.0016434317 -3.392267e-05 0.0028564364 0.0038814207 0.0029392147 -0.004402747 -0.004941063 -0.0023362846 -0.004664351 0.00052817044 -0.00433695 -0.0042943787 0.0011329093 0.0035009945 -0.003310419 -0.0004763477 -0.0017230407 -0.0024466356 0.00090604654 0.0023396846 0.0015241418 0.001150535 0.0008154843 0.0021411348 -0.0014284366 0.0029424913 -0.003658916 -0.004635518 -0.004711373 -0.0024608492 -0.00043443684 0.0030445596 0.0023802356 0.00059065194 0.0041271276 0.00049884187 -0.0019806304 -0.0035854839 0.0027227723 0.0015232445 0.0031687813 0.004821283 0.0030981016 -0.0006697396 -6.281808e-05 0.004252586 0.0028995837 -0.00062424404 -0.0034758993 -0.0006995243 3.0745312e-05 -0.0006949445 0.000707682 -0.0029367465 -0.00080608967 0.0048401854 0.002045921 -0.0032038847 0.0014503718 -0.0013510566 0.0029073858 -0.003937623 -0.001995919 0.0042512766 0.0028665543 -0.00051294354 0.0016521058 0.0024350528 0.0010068368 -0.00074425666 -0.001492281 0.0025976112 0.0011634004 -0.0041162916 0.0036152292 0.0029162888 -0.003873901 -0.001889462 0.001401248 0.0049499874 0.00014504408 
ETV7	-0.004759531 0.002266757 0.0026198325 0.003412937 -0.00044406732 0.003363216 0.0019749478 0.001309067 0.0039221183 0.0033463072 0.003071056 -0.00016210061 0.0011823158 -0.00071938836 -0.0037336892 -0.003471674 -0.002372645 0.004277766 0.0038307938 0.0037706902 -0.0018579464 0.0034541062 -0.0023046902 0.004554131 -0.002150399 0.0029723186 0.0036580176 -0.0036137383 -0.0049451203 0.0036598006 0.0031526396 0.0037208234 0.004539328 0.0023902464 -0.0026000969 -0.0019403864 -0.004623749 0.00017423721 0.0006651225 -0.0011910553 -0.0038599933 -0.004267037 0.003809164 0.0042892112 0.0025568833 0.003997 -0.0012098465 -0.003632309 -0.00075567944 0.0012386165 0.0003997942 0.0032209984 -0.0022955048 0.0016276224 0.00035099656 -0.0012451333 -0.0015337713 0.0032242886 -0.0001258505 0.004804454 0.0037478434 0.002346915 0.0008229043 -0.0034562536 -0.0046657836 -0.00019099019 -0.002297546 -0.0005985328 -0.0024738961 -0.00074653514 -0.002494265 -0.003062607 0.0031847071 0.0045723864 0.001906067 0.00275362 -0.0027965496 0.004991061 -0.002130534 0.0036864046 0.0031798917 -0.0035326593 -7.820714e-05 -0.004871939 -0.0039479886 -0.003039159 -0.004749551 0.0018245805 -0.0017415109 -0.0015329102 -0.0011633879 -0.00062760204 -0.001879804 0.00402321 0.0046378826 -0.0024154389 0.0018803828 -0.0035119485 -0.004003022 -0.004234015 
OR4S1	0.0011998399 0.0010123422 0.002684772 -0.0039551207 -0.0024689222 8.229171e-05 -0.0025575073 -0.0021771416 0.0044402163 0.0044336696 -0.0010290584 -0.0005686434 0.0040005054 0.0043387376 0.0039048905 -0.0035039827 0.0028247535 -0.00043242928 -0.00486482 0.004073306 -0.001681106 -0.00197988 0.000708621 0.0022653928 -0.0029566507 -0.003990118 0.0020501579 -0.00350357 -0.0019220929 -0.0019197175 0.0001358784 -0.0011051563 0.003265447 -0.004557884 -0.0040473193 -0.0036010449 -0.004906604 -0.0044762557 0.003674886 -0.0039515994 0.0038991699 0.004771398 0.0012461779 0.0033060724 0.004781589 0.00023391505 -0.0038670672 -0.0041588936 -0.0029709737 0.004416602 0.0022452488 -0.0014725061 -0.0013186627 0.0044150343 0.0010743737 0.0047937236 -0.0010339465 -0.0015836201 0.0018530329 -0.0021166306 -0.004286663 -0.00031278012 0.0008330734 -0.0027596338 -0.0032281925 0.004882436 -0.003405782 0.0040239096 -0.0030689097 -0.001703775 0.0028029284 0.0001982503 0.0006697818 0.004962272 0.0012463173 -0.0039373008 0.0024210217 -0.004520427 0.003346128 -0.0006093097 0.004871396 -0.0010974441 -0.002493077 0.0003244167 -0.004762088 0.00198904 -0.0042374753 0.00087989116 0.00363501 0.0018106152 -0.0026654594 0.0014139013 -0.0017355558 -0.0008166873 0.002271584 0.0038029847 -0.0039127567 -0.004397661 -0.0015642508 -0.0016358929 
HSPG2	0.004823432 0.0005292709 -0.0048430176 0.0006978338 -0.0028684076 0.004608756 -0.0007322893 -5.3113894e-05 4.4273406e-06 -0.003535479 -0.002789284 0.0018755974 0.0036513212 -0.0013540699 -0.0046172156 -0.0031064688 -0.0018921932 0.0016869116 -0.0023138397 0.0022900784 -0.004440292 -0.00025999252 -0.0025530024 0.0035439178 -0.0003657946 -0.0021820944 0.0017845415 -0.00044626763 0.0013450001 -0.001471798 -0.0012138211 0.0026141845 0.00019128656 0.0035005105 0.0023772963 -0.0048485105 -0.0005077986 0.003325938 -0.0047159083 -0.0030689307 -0.0012202816 -0.0030976762 0.0012377589 -0.0023867057 -0.0044233697 -0.0012254262 -0.0028411793 0.0017427347 0.004920667 0.0017068571 -0.0035922858 -0.004682076 -0.00092244736 0.00013184591 0.0022907248 0.00095526077 0.003600557 6.9173744e-05 0.0044310824 -0.0045852773 -0.001650905 -0.000185272 -0.002631425 0.004043365 -0.00061806035 -0.00337491 -0.00039295063 0.0016675752 -0.0023987181 4.173063e-05 0.0047021476 -0.0046761543 -0.004981395 0.0021785789 0.0031172272 -7.1454633e-06 0.0031999266 -0.0022501172 0.0014888752 -0.0035571728 -0.0006862759 0.00028224572 0.0015800627 -0.0049332026 -0.0026553264 -0.0034214973 0.0021192518 -0.00091923395 -0.0025983125 0.0010267345 0.0038380646 0.0008942497 0.003813084 0.0023066804 -0.0033979488 0.00325516 0.0048579304 0.0027338082 -0.0020043931 0.0014175908 
PEMT	0.0008655353 0.0031502927 0.00040344638 -0.004035952 -0.0017225136 -0.002321729 0.0019425071 -0.004188228 0.0015084676 0.0028515137 -0.0006928766 -0.0033063316 -0.0023788959 0.002636744 -0.0048201717 0.002047345 -0.0011891319 -0.0043921755 0.0026598233 0.0018956816 -0.0019524897 -0.0043769698 0.0010583021 0.0017563833 -0.0019164648 -0.003251392 0.0030719773 0.0027108542 -0.00030812703 -0.002227604 -0.0037838044 0.0007124935 0.00024238868 0.0030768702 0.0021792583 -0.00052563386 -0.0028766422 -0.0029942235 -0.003760656 0.0011337129 0.00047884733 -0.0019741799 -0.001970237 0.0022899222 -0.0021883347 0.0005453349 0.000164307 -0.0032908563 -0.0042650783 -0.0017668724 0.0049520987 -0.003990026 0.0032513088 0.0017738843 -0.001649402 -0.0031187544 -0.0035868792 -0.00051840546 0.0039487616 0.00038664287 0.004309482 -0.001954206 -0.0009374604 -0.00070394337 -0.0037490528 0.0011794734 0.0047401283 -0.00050169555 -0.0027080893 -0.0022930016 -0.004141382 0.0021198976 -0.0020803604 -0.0011408821 -0.0018461668 -0.00021027852 0.0033088296 -0.0043596397 -0.0016349044 0.0013457793 0.004360139 -0.0028596716 0.0036951979 0.0027309589 -0.003272489 0.000928618 -0.0006433083 -0.0013476744 -0.00012901981 0.0028537505 4.659633e-05 0.0031498983 0.00086418487 -0.0026119305 0.0037756907 -0.0019123629 -0.00036213183 0.0017380276 0.004397252 0.0015545363 
BST2	0.004938288 0.0025143 0.004864048 -0.0015946035 0.004556765 0.003645874 0.0010493707 0.00056421134 0.00490748 2.69703e-05 -0.0018984067 -0.00081430934 -0.0025660656 -0.0032357161 0.00011089443 0.00074419 0.0019532223 0.00024162767 -0.0025665837 -0.00034877777 0.0037870689 0.00039157548 -0.0014298029 -0.00022140793 -0.00034902882 -0.0012184925 0.0036492418 -0.004973339 -0.0007467498 -0.003022826 0.0036082368 -4.7229547e-05 -0.00041730914 0.0017205391 -0.002469659 -0.0021087357 -0.0036378466 -0.0038488924 0.0012046582 -0.003595241 0.0025802325 -0.0012092349 -0.0030601167 0.0036841494 0.0010541469 -0.0030286969 0.003793844 -0.004311902 0.0016424349 -0.0016673275 0.004286748 0.0011377187 -0.00068263797 0.0046739276 0.0043920823 1.1362204e-06 0.0011663745 -0.0018599236 -0.002514599 -0.0014163082 -0.0008101019 -0.004809846 0.0033759845 -0.0029833429 -0.003076651 0.004494103 0.003252655 -0.0041893357 -0.002701475 -0.0011767468 0.003475561 0.0025609913 -0.0033611357 -0.0023657044 -0.0037571865 0.0035821511 0.0028110065 0.0038725983 0.0035984507 0.004221012 0.00074000395 0.003051295 -0.0045531015 0.0019226992 0.0047157756 0.0030256913 0.00015175238 0.0013369787 0.0014521735 -0.002443901 0.0016086724 0.004104623 -0.003389679 -0.0031659724 0.00404657 -0.0002001798 0.0040412406 0.0020208526 -0.0043193 -0.0003147441 
PRKACG	-0.0011834851 -0.0019670962 -0.0007811977 0.0025218015 -0.0043216115 0.000953478 -0.0029824632 0.0016217073 -0.0018184172 -0.0004674122 -0.0019163432 0.0009802975 0.002441726 0.0042415406 0.0023533606 -0.0035719858 -0.00042116712 -0.0028350719 0.0003361408 -0.0030918065 -0.0014191384 -0.0049444083 -0.0045146174 -0.004042895 -0.0018333285 -0.00052968203 0.0032823004 -0.00373026 -0.0022889492 0.002130818 -0.003158983 -0.0010301904 0.004811815 0.0025609536 -0.0016134364 0.0044322168 -0.0026250815 0.0049508507 0.00033259537 0.00096597534 0.0045498465 -0.0018043298 0.0014416173 -0.0021502099 -0.0021086137 0.0048056864 0.002612117 0.0007380164 -0.0035482547 0.001051622 -0.0031460214 0.0011010178 -0.0031373654 -0.0011230592 -0.0016433281 -0.000397995 0.001334904 -0.0016021034 -0.0046871086 0.002327914 0.00064504554 0.00419658 -0.004904085 0.0020846329 -0.0013445942 0.0021377194 0.00032245464 0.00013974044 -0.004293532 0.0021481242 -0.0016211437 -0.0049932403 0.00037959655 0.0010799137 -0.0019472132 0.0047735246 -0.0008367413 0.003890805 0.0047313347 -0.0026357716 -0.0012543024 0.0026936578 -0.003893489 0.0038772232 -0.0049850554 0.004347866 -0.002293324 0.0026697486 -0.0046583773 -0.0027280762 0.0009226436 0.0029641958 -0.0028143367 -0.0013248866 0.00026047806 0.0010432316 0.00052287057 0.00060892507 -0.0014810015 5.790379e-06 
PRM1	0.00084656134 0.0024604073 0.0029338866 -0.001004395 0.0026747242 -0.00311525 0.004060967 0.0030996061 -0.004121943 0.00027331614 -6.889114e-05 0.00069580926 0.0021944633 -1.1060683e-05 0.00034129247 0.0045563173 -8.0835096e-05 -0.0048034824 0.0040308773 -0.0035632304 -0.0022132506 0.004927274 -0.0022157372 -0.0015534878 0.0020691073 -4.658868e-05 0.0022219403 0.003217488 0.0019847853 0.004771606 0.003343567 -0.0018636461 0.0039524604 0.0022859636 -0.0014175466 0.0034861232 -0.00072676735 0.0030754565 0.0034150619 -0.001232118 0.004655944 0.0006967778 -0.0023648185 -9.8984216e-05 -0.0039119734 0.0013444549 -0.0030393275 -0.004783299 -0.0040131244 -0.0007550427 -0.004379368 -0.0015821161 0.00041586993 0.0037891767 -0.0026195212 0.00099398 -0.0005368153 0.0019138368 -0.0048485785 -0.0046857214 -0.0040244334 -0.0045099235 0.003044135 -0.0040846067 0.0015068271 -0.0030391868 0.00037470515 0.0035010318 -0.004064742 -0.004511864 0.00015053966 0.004884238 -0.00010542477 -0.0001311136 -0.00054846605 0.004998416 -0.00089877564 0.0025431635 -0.004270327 0.0006436948 0.0010955426 0.0026495203 0.0048782006 -0.0035138917 -0.0036875196 -0.0027099038 0.0013150955 -0.0028769777 -0.00073502614 -0.0045788875 0.004517802 -0.0020792328 0.0020646292 0.004075959 0.00037129637 -0.0014935343 0.004649078 -0.0009663983 0.001186534 6.576898e-05 
MDH1	0.00024376129 -0.0023809029 0.002939546 -0.0017746903 -0.0040337234 -0.00084041775 0.0017766875 -0.0028426952 0.002528113 0.0011459175 -0.003297047 0.0029734692 -0.0037471342 0.0044028084 0.0037027134 -0.00067342375 -0.0023148856 0.0036778462 0.00032071513 -0.002777694 -0.0023261304 -0.003437379 0.0024753422 0.0009137289 0.0020078246 -0.001859956 0.004638283 -0.00441786 0.0009575177 -0.0022172546 -0.0019306499 0.0013706984 0.00036410752 -0.0009579622 -0.0010729424 0.0013990643 0.002717505 -0.0048853527 -0.00073154474 0.0039051338 0.003988736 0.0026128136 0.00032555254 0.0020874713 0.0027374178 0.00030878483 0.0038365931 -0.0018185291 -0.0027475376 0.004108241 0.0046590916 -0.00034341853 0.0004882929 -0.0034772127 -0.004110677 0.0046851453 0.0018409629 0.0005231738 0.00065775483 -0.0030377882 0.0016002259 -0.0015488185 0.00479794 -0.0044612354 0.0026176723 -0.0016418981 -0.0032470005 0.00049211754 0.0016962144 0.00062511454 -0.0046857824 -0.0010194813 0.0017504576 0.0017817828 -0.004326719 0.0008969751 0.0013335353 -0.0038196004 0.0029231482 0.0031765979 -0.0049123177 0.0010439665 0.0016069125 -0.0013114836 -0.0021089609 0.0014675548 -7.1599294e-05 -0.0048039593 -6.686764e-06 -0.00087344757 -0.0040502413 -0.0049504745 0.0032784236 -8.026687e-05 0.0007507658 0.0034739603 -0.0022664112 -0.003215765 0.003263787 -0.0047884337 
CD24	-0.0031582073 0.0042317044 -0.00128878 0.0041066296 -0.0043709497 0.00096829864 0.0040494143 -0.0028221235 -0.0007619729 -0.0014721475 -0.0029826504 0.0033712662 -0.0034282762 -0.00084608747 0.0028685166 0.00386173 -0.00018855662 0.0035511686 0.004231775 9.890658e-05 0.0020037245 -0.0011451222 -0.0028833337 0.003556123 0.0036129155 -0.00395478 0.00047158325 0.0017860576 0.0028972263 -0.0038930373 -0.0005388989 -0.00017762317 0.003648989 0.0035702582 -0.0005816345 -0.0029849398 -0.002537905 0.0006885605 -0.0037546447 -0.0026599818 0.002980592 0.0035275405 0.0036587152 -0.0048774127 -0.0004945997 0.000117674615 0.0033418094 -0.0041433894 -0.0012258735 0.001032027 -0.002445454 -0.0016683349 0.0018404985 -0.0048687984 -0.0032401595 -0.0028372852 -0.004737996 0.00086962146 -0.0016461 -0.00014472158 -0.0048100664 0.0020977792 -0.000110825495 -0.003834806 -0.0047383956 0.00437776 -0.0002923803 0.0019632634 -0.0040754075 0.0016057849 0.0034794544 -0.00255719 -0.00029984105 0.004791964 -0.0009091791 0.0009265492 -0.0026765193 0.0022844393 0.004093943 -0.003738122 -0.0049608992 0.0013087059 0.004823624 0.0022450972 -0.0022347616 0.0007519559 0.0020750635 -1.2894605e-05 -0.0010222498 -0.0019496956 0.004769443 -0.0026443885 -0.004589057 -0.0044558607 -0.0036368393 -0.0008639178 0.0026055272 0.002217927 -0.004649595 0.00049852434 
SH2B1	-0.0019971158 -0.0046807113 0.0005326676 0.0030938694 0.0048800358 -0.0046112444 0.004989005 -0.0013177465 0.0034689582 0.002416625 -0.0039951275 0.002064 -0.0011921808 -5.4023294e-05 0.0036499493 0.0010609038 0.0048372415 -0.00087409565 0.0016421736 -0.0013442112 -0.0010014167 0.0035905212 -0.0044197044 0.0005030033 -0.0016757923 0.003435631 0.002790866 0.0048183505 -0.00245519 -0.0029146594 -0.0043023876 -0.0048743384 0.0040511754 -0.0029837908 0.0031697017 0.00044227557 -0.003060434 0.0047534527 -0.0045865155 0.0010043897 0.0006124378 -0.0026386527 -0.002226664 0.0007435489 -0.004446605 -0.0005393677 -0.0028691667 0.004298914 -0.00061233144 -0.0016325752 -0.004708604 -0.00018641716 -0.00012589246 -0.0026186048 0.00016679522 0.0035970123 -0.00085156655 0.0007041022 0.0047999215 0.0019887106 -0.0034964145 0.0040868074 -0.004759081 -0.0038374558 -0.0039924965 0.001465694 -0.0022842917 0.0027505588 -0.0039848466 0.0033325914 0.0029085476 0.0020569544 -0.003188675 -0.0005662569 -0.0025458925 0.0029511962 0.0010709881 -0.0017177289 0.0034725275 0.0004204615 -0.00019794308 0.0011186695 0.0025938675 0.0024564627 -0.004092699 0.0043896567 -0.0029068522 -0.0021024134 -0.00040259346 0.0046303347 -0.00034467175 -0.00073343795 0.0045434376 0.004271982 0.00077841425 -0.0021418738 -0.0018994155 -0.00026665436 0.0031551064 0.0017553759 
IGFBP7	-0.0035577056 -0.0015342586 0.003522705 -0.0007361671 0.0038135624 -0.002493164 0.0046758032 0.004081955 -0.0019055518 0.00058864197 0.002979558 0.0025213242 0.004638996 -0.004439748 -0.003162392 0.0034395235 0.0033768055 -0.0016357405 -0.004915333 -0.0038030795 0.0022104364 -0.0038173113 0.0010001989 0.0013752475 -0.0023520542 0.0019158891 0.00070959906 -0.0043017776 0.0022398073 0.00083043706 0.00027130876 -0.0010669993 -0.003921284 0.0010727347 -0.0034632115 0.00051184645 0.0040780823 -0.000525736 -0.0046003116 -0.0004601404 -0.0015609559 -0.00068619166 -0.004381118 0.004470749 0.0015395434 0.00038430825 -0.0020934418 -0.0037443126 -0.0005387254 -0.0014478308 0.0028603629 0.0009187274 -0.00017150996 -0.00070811214 0.00056405383 0.0027419445 0.003369403 -0.0043508895 1.0785137e-05 0.0041528414 -0.002092893 0.0034655812 -0.0024873337 0.0039348304 0.0048935725 -0.0042327964 -0.0032788268 0.00038812472 -8.8264416e-05 -0.0021619014 -0.0033848197 -0.0023311314 -0.004162695 0.0045160465 0.0027585072 0.003184102 0.0026005458 -0.0025002407 -0.0014195502 0.0011700274 0.003035904 0.0029199903 -0.00016547207 -0.004903511 0.0029547876 0.0032164247 -0.0017992476 4.362384e-05 0.0038070271 0.003661704 -0.00016521213 2.3026792e-05 0.003915117 -0.00058201735 0.004292471 -0.0042388886 0.0040319716 -0.0022017623 -0.002307496 0.004636044 
TBX22	0.0016819694 -0.0027711887 0.004120274 0.0029583499 -0.0006792911 -0.0044391416 0.0021413616 0.0032404421 0.0048098755 0.0040383744 -0.000119581375 0.0033401717 -0.002720764 -0.0021583487 -0.00016376164 0.0048378026 -0.0010907481 -0.0013786753 0.003972619 0.00056154584 -0.0034041724 -0.0017418549 -0.0036973474 -0.0027685033 0.0039687976 0.0006241149 0.0049526202 0.00027956028 0.0009029817 0.0013807258 -0.0047969767 -0.004125318 0.0034776377 -0.00090389117 0.0010091527 0.00078057963 0.00022541673 0.004044629 0.0023685447 -0.0027443413 0.0022807054 -0.0012419152 -0.0031484945 0.0020859474 0.0033219429 0.0041479985 -0.0011597816 -0.003186327 0.0009347529 0.0038480968 -0.0019262745 -0.0019655137 -0.0014146233 -0.00174229 -0.0026993197 -0.004175203 -0.0033966212 0.00023338111 0.004842463 0.0019172766 -0.0027560943 -0.0013106742 -0.0041930135 -0.0004655407 -0.0010536817 -0.001726635 -0.0021758627 -0.0045219497 -0.0035479197 0.0030052403 0.00013888362 0.004355356 0.0031253805 -0.0043578474 0.001229616 0.00024795675 -0.00447872 0.0032715756 0.0012284691 -0.0017832643 0.004536972 -0.0049973866 -0.000772129 -0.003436078 0.0038093168 -0.0019678478 -0.0025322866 -0.0021690035 0.0033648037 0.0032815435 -0.0011134121 -0.00071041647 0.0016180087 0.001320143 -0.0031509898 -0.0022857285 0.00068125397 -0.004111699 -0.001861782 0.0014505252 
TLE1	0.0016981544 -0.0030240817 0.000543153 -0.0016384216 9.4487725e-05 0.001501673 0.0023890694 -0.00022923035 -0.004869939 0.0004991034 0.0027447098 0.003293436 -0.004120656 0.00328636 -0.001503503 -0.00055145426 -0.0035690698 0.00094830093 0.0035500827 -0.002509598 0.0018425523 0.001746803 0.0036945122 -0.0026504595 -0.0036262353 -0.004171887 -0.00044943482 0.0046765306 0.0011925484 -0.0027891574 0.002045174 0.0021087143 0.0049693533 0.0011587307 -0.0013490826 -0.0016086989 0.004758023 -0.0014377228 0.0035597123 0.0015730662 -0.0032245389 0.0015946164 -0.0028104328 -0.0016673645 0.00083323626 -0.0046996153 1.52516095e-05 0.0011553196 -0.002826321 0.0033608743 0.0024085788 -0.00035284928 -0.00016454735 -0.0041197776 -0.0002599073 0.0041654217 -0.0017837627 -0.0020947433 -0.001410298 0.003204953 -0.0007779721 -0.0042808116 -0.00029098993 0.001689299 -0.0007855537 0.001104319 0.003009006 0.0043733907 0.0012469738 -0.0016425219 0.0048660003 0.00015758247 0.004196661 0.001028681 0.0033724853 -0.004911373 0.0027541171 0.0036054554 0.002114837 -0.0007458582 0.0011270461 -0.0012301597 0.0034200144 -0.002647781 -0.00247072 -0.0020714498 0.00033830613 0.0030712718 0.0022178406 -0.0047796173 0.0035669059 0.003392586 -0.0032037196 -0.004055603 -0.0024057396 0.0028812552 0.001163075 -0.00058507256 0.0016162109 0.0012560951 
CLC	-0.0021775498 -3.0487805e-05 0.0036320619 -0.0026581602 -0.0005164924 0.0025306235 -0.0013369591 0.00064874813 0.0018155063 -0.0012919831 -0.002498491 0.0042337445 0.00016983949 0.0030108304 0.002777961 0.0038328154 0.0016531349 -0.0016548495 0.0025704363 -0.0048346436 -0.0049269614 0.0026386348 0.004111375 0.004028197 -0.0046846126 -0.0034030173 -0.0014639513 0.0025339012 -0.0020192803 0.0016491733 0.004902048 0.0017049827 0.0011662813 -0.0006807512 0.0010997882 -0.00016484334 -0.00050282094 -0.00021739659 -0.004494119 -8.497456e-05 -0.000418586 -0.0021886432 -0.0017030863 0.0005993772 0.00010521242 0.0006707984 5.799103e-05 -0.0034156118 -0.004737229 0.0013324302 0.0025716014 -0.00024553898 -0.0044394773 -0.00031263215 -4.2034088e-05 0.002651063 0.0015333499 -0.0042828657 0.0010822937 -0.002422147 0.0028480452 -0.0043824227 0.0013543316 0.0012522086 -0.0037257539 0.00023343426 -0.0032501745 0.0030199015 -0.002683459 -0.00431239 0.004072456 -0.0028699243 0.00130638 0.0013529586 -0.0016920815 -0.0037478455 -0.0029485773 0.003988394 -0.0034527879 -0.00271437 0.002778595 -0.0028063564 -0.0008692458 -0.0021135453 -0.0030795601 -0.0027127673 0.0029128927 0.0035242632 -0.0015757382 0.0017122797 0.0031280657 -0.0016120691 -0.0020725648 -0.00016743611 0.0016818066 0.0019307957 0.0017466953 0.0016120311 0.0017766076 0.0029639981 
NMS	0.0030315882 0.0006914611 -0.0032484124 -0.0023098711 -0.00095446093 0.00058450317 0.0035833695 -0.003909571 0.003544933 -0.0047008567 0.004062669 -0.0013659751 -0.0034193348 -2.0305545e-06 0.0017236565 -0.00043267035 0.0020727299 -0.0024272613 -0.0038862068 0.0033927506 0.0014783883 -0.0026504155 0.004755101 0.0028804042 0.0017784886 0.0027271437 0.0026366517 -0.0018637258 0.0003386089 -0.002880277 0.0048994613 -0.0019921863 0.00043655373 -0.0003592708 -0.001827852 -0.0040158834 0.004888025 0.0039694034 0.003520456 -0.00408056 -0.004246324 -0.0035228166 3.2859058e-05 0.0039538858 -0.0044835927 0.00085751235 0.0043279566 0.0015456593 0.0005374817 -0.00023545651 0.0015839225 0.0026802854 -0.0038085012 0.0010463294 -0.004846137 0.0013463831 0.004896518 0.0021879144 0.0015763326 0.0023361188 0.0033738364 -0.003990961 0.0046499535 0.00116512 0.0036227098 -0.0033891448 0.004075744 -0.0046216836 0.003787415 -0.00028273347 -0.00071403565 0.0047944435 0.0036209703 0.0032053103 0.0006398145 -0.0031145609 -0.0012018912 -0.00276751 -0.0013792925 -0.0012171266 0.00019513552 -0.00029463388 0.0026879006 0.0014537151 -0.0049541024 0.00020246957 -0.0025607499 -0.0032078403 0.0015369968 -0.0039624586 0.0006470081 0.001194371 0.0037099386 0.002836061 -0.0011628049 -0.0015520977 -0.0034566484 0.0013531275 -0.00034393312 0.0018915114 
ZDHHC22	0.003004774 0.0030753491 0.0024810669 0.0030511294 -0.0011731643 -0.0047229887 0.004031004 -0.00040526167 0.0031640953 0.0035035885 -0.00088997994 0.00054932234 0.0024989534 -0.0038483543 0.0030087274 -0.002214953 0.00034153045 -0.00039266204 -0.0018979859 -0.00046672695 0.0031503143 0.0015480863 0.0012745457 0.0020594653 -0.0028398843 -0.00035450986 0.003645911 -0.0049811844 -0.002148187 0.004858956 -0.0040010377 -0.0026253548 -0.0011972067 0.0031336443 -0.0042293337 -0.0017985469 -0.001293054 0.004501002 0.0034709796 -0.004616657 -0.002306763 0.0029921052 -0.0038100383 0.0021853643 -0.0009691271 0.0029378168 -0.00366739 0.0007740476 -0.0007122795 -0.004416185 -0.0041185147 0.0006545108 -0.00020758442 0.0048994506 0.001508944 0.0017936483 0.004018108 0.0025607762 0.0015274135 -0.00027382688 -0.0007653109 -0.00013404973 0.0014298504 -0.0035087292 -0.00049246085 -0.0016133216 -0.004741355 1.2175275e-05 0.0014440413 -0.0025968594 -0.0037856947 -0.003004287 0.0016524092 0.004803412 -0.0012813279 -0.0036279797 0.0005385992 0.0002727116 -0.002542958 -0.0038767061 -0.0011376074 0.0008897763 -0.0012605339 0.0027788347 -0.00033764448 -0.0029307709 -0.0028768382 0.0023903893 -0.0045718 0.0035719085 0.0030887425 0.0042015817 0.0010438032 -0.0040471354 0.0033522518 0.00097255147 -0.0010094477 -0.0030326098 -0.00180806 -0.0045247166 
MYL9	-0.0025495938 0.0005952844 -0.0048023807 -0.0027095252 0.0044202255 -0.0027057927 -0.0017501866 -0.0019440091 0.00073257944 -0.004711997 0.0021196073 -0.0037223075 -0.00060497056 -0.0015965016 -0.004758633 0.0012315314 -0.0036066675 0.0006251272 0.0046059666 0.0030681046 -0.0033394522 0.0005033441 -0.0011388233 0.0013392615 0.004115166 -0.0029393763 0.0013400621 -0.0035248224 -0.00225469 -0.0019964513 0.0013925133 0.0013777625 0.0011330937 0.004777759 0.0046082325 -0.0034963305 -0.0014609923 0.0005526405 0.004438028 0.0008452823 -0.0050002844 -0.0040345783 0.0008333984 -0.0017197496 -0.001800091 -0.003828744 0.0035964216 -0.0036934656 0.004605436 0.0016110698 0.0035159725 0.0016586974 -0.0023212817 0.0036584637 1.1167101e-05 0.0009575644 -0.0022835338 -0.00079885934 -0.004319925 0.003450961 0.000532272 -0.003315445 -0.0012576641 -0.0038698644 -0.0021477337 -0.0002601872 -0.0034474984 0.00014721495 0.00049566355 0.0030109398 0.000600343 -0.0033379102 0.0047674063 0.0011288405 -0.0048419004 -0.0038454789 0.0009383978 0.0026911304 0.0002565205 -0.0039836615 -0.0024352842 -0.0027914147 -0.0023212284 0.0019361885 -0.0025635066 0.0008645248 0.001163922 0.0034846214 0.0041617295 -0.001509035 0.0010638867 -0.0014282069 0.0004715002 0.0022299776 -0.0005074525 0.001722093 -0.0022688417 -0.0047774855 -0.001829789 0.004785101 
ADCY9	-0.0030161974 0.001846171 0.0048811594 -0.0025785102 -0.004854374 0.0016498991 0.0038502587 0.0025736233 0.00396209 -0.0034680767 -0.00030157762 -0.0031153557 -0.0014732218 0.0035311717 0.0016097617 0.0039609065 0.0013275759 -0.0013631313 -0.0027727291 0.002232998 -0.0048893783 -0.00093401654 -0.002246304 -0.0014914168 -0.0028052167 0.0009244746 0.0013570206 0.00027905143 0.002217225 -0.0042178873 0.00079888717 0.0048417053 0.0032648994 0.0039363215 0.00074177387 0.0037921283 0.003601942 -0.0007863704 -0.002214221 -0.00022937982 0.0018746606 -0.0036465912 0.0027043049 -0.0002772144 0.0013894411 0.0031843563 0.0025211682 0.004253796 -0.000831055 -0.0017494055 0.0035077408 -0.00020679005 0.0017861032 -0.0019110345 0.002962391 0.0047858157 -0.0038156977 -0.001320396 -0.00043841958 0.0038593998 -0.003796489 -0.00053484185 0.0036061187 -0.00024353914 -0.0029961807 -0.0014223563 -0.0032879876 0.0020023314 -0.0029785086 -0.0036077853 -0.0028270397 0.0014391557 -0.0037903548 -0.003536801 0.002151898 0.0042876247 -0.0007303256 0.002928338 0.0030684697 0.0016843769 0.004661894 0.0035712854 -0.0025115535 -0.004618378 0.0019781487 0.0007480356 -0.0025311022 -0.0046472377 -0.001470299 -0.0029981202 -0.0013558127 -0.0025378342 -0.0040732143 0.0035751646 0.0028528366 0.0027844443 -0.0030280722 -0.0027859204 5.6108354e-05 -0.00084330834 
NCR3	0.002961152 -0.0030890428 -0.00404794 0.004199547 -0.00089975406 0.003696896 0.0025153127 -0.00027600065 -0.002835685 0.00394868 -0.0044660857 0.001083076 0.0022424834 0.001531111 -0.00040034184 -0.00060781115 -0.0015188842 0.0016032696 0.0030803585 0.000109579516 -0.0031925838 -0.0044115246 5.854789e-05 0.0026427098 -0.000861324 -0.0026691034 0.002030917 0.002846092 0.0010611217 -0.0011985508 0.0007406666 0.0028667515 -0.0007962907 -0.004709419 -0.0043455465 -0.003135368 -0.004895166 0.0004182987 -0.0010236122 0.003219975 -0.0043302034 -0.0021625285 0.00049539964 0.0030056445 -0.0030392203 -0.004272429 -0.0044637285 -0.0046497355 0.0034801906 0.0023423678 -0.0032550811 0.0005106881 -0.0044711465 0.00041285882 -0.001025834 0.002161527 0.0021836297 0.004959718 -0.0027151003 -8.3641455e-05 -0.0016848858 -0.00055919914 -0.0043330905 0.002327023 -0.00041753438 -0.0034876324 -0.0049465727 -0.0007732704 -0.0020263563 0.002952235 0.0031993797 0.0012205057 0.0032474836 0.0007315763 -0.0026644012 7.465286e-05 -0.0018696627 0.0006771757 1.0428706e-05 0.0044755875 0.0008589111 0.0015032985 -0.00036510444 0.0026668871 0.0017001643 -0.0035074232 0.0003643722 -0.0024414686 -0.0018101431 0.0041438285 -0.0020112859 -0.0010489577 0.0014901175 0.0042719617 -0.000868244 -0.0011641289 0.0002897454 0.0033822788 -0.0002578986 0.0024324108 
