DTWD2	0.0046810363 0.00086651917 0.0032759074 0.0047926307 -0.0046529076 0.0033102033 0.004847479 -0.002289592 -0.0017620639 -0.0006589737 -0.0030863397 0.0029254328 -0.0043917075 0.0013768735 -0.000586201 0.0005853947 0.0034885416 0.0038233516 -0.003122576 -0.0034657368 -0.0025140387 -0.00025275792 -0.00032429214 -0.00016319861 -0.0038145268 0.0022753961 -0.0025680321 -0.00039211527 -0.00036651353 -0.0034266044 0.0026242698 -0.00040017898 -0.0043489938 0.004363134 -0.0037643448 0.00059053075 0.00012208776 -0.003371355 0.0022675064 0.0026155654 -0.0030195531 -0.0017803893 0.0014102177 0.001854297 0.00080001605 0.0019976092 0.0049045077 8.300902e-05 -0.0024734135 0.0012476 0.0032405644 -0.00023665358 0.0009436137 -0.0017609309 0.0019368649 -0.004662857 -0.0041324124 -0.00021916996 -0.00152406 -0.004374602 0.003819483 -0.0011422401 0.0011510222 -0.00011762133 -0.0036826767 -0.001228594 0.0044558328 -0.002799306 0.0030507979 0.0036359853 0.0029263003 0.004606963 -0.0031120505 0.0017231373 -0.0036279454 -0.0012992109 -0.002857699 0.0010317131 -0.0017986133 -0.0005860316 -0.003104368 0.0018355934 -0.0015409926 0.0011055553 0.00284372 -0.0038600166 0.0024862138 -0.0027073764 0.00046877327 0.001966506 -0.0037981546 0.000818576 0.004950086 0.001323299 0.0015581187 0.00091017655 0.0044255457 0.004742814 -0.0025675474 0.0018021845 
PSMA6	0.0032238644 0.00089634926 -0.000100218844 0.00454586 0.001415946 0.0007992528 0.0019325851 -0.004958622 0.0012595818 0.002871148 -0.0012109937 0.0013411843 0.001918874 -0.00077623944 0.0020383152 0.0017809217 -0.004643104 0.0032442252 0.0020409806 0.002440394 -0.00020616996 -0.003915151 -0.0021889284 -0.0032519165 0.0010159618 0.0029899315 -0.0037715808 -0.0009921069 0.0037274319 0.004047248 -0.00336378 0.00036663428 -0.0013491254 -0.0017650871 -0.0024990856 -0.004734834 0.0020248315 -0.002570676 5.3954212e-05 -0.0038824144 -0.0045796135 -0.0027383189 -0.00455645 0.0031934122 0.0022245515 -0.0017391068 0.0019301249 0.0027032613 0.0042611924 0.003948823 0.00031211332 -0.0009943782 -0.0008374682 0.002919852 -0.00075079506 0.0011203717 -0.0018190837 -0.0034314282 -0.0012990654 -0.0008957256 0.004966434 0.003896456 0.004586075 0.003347434 -0.0041509066 -0.0011846676 -0.004120253 -0.0031190356 -0.00095658656 0.0041341325 0.0002822271 -0.0014875047 -0.0027850196 0.00404654 0.0029598349 -0.001457835 0.0009898448 -0.0033401602 0.00045381882 -0.0023150505 0.00087152136 -0.0019260921 -0.0026449312 0.001700299 -0.002200829 -0.0032280157 0.0021725514 -0.0019693333 -0.0006592045 -0.0026891942 0.0019613546 -0.0024200794 -0.0029628254 -0.0023291698 0.00315487 0.002930292 0.0037324 0.0009102778 0.002090354 -0.0044909804 
GUCY2D	0.0022859233 0.004107559 0.0040812474 -0.004199921 0.0016008386 0.004243199 -0.003821913 0.002638568 0.0009150553 0.001072548 -0.00046811625 -0.0035643736 -0.0022688392 0.00050624274 0.004237658 0.00303805 0.0007699837 0.0046064476 0.0013006238 0.002799945 -0.004527392 -0.0026133636 -0.004975551 0.003015575 -0.0021585901 0.0033226074 0.0038191641 -0.0014887062 0.002551407 -0.0030699344 0.0036121723 0.00078972086 -0.0043700263 -0.0042404337 0.0030324443 -0.0036188292 0.00094289274 0.0013958778 0.0041111936 0.004325814 0.00047317002 0.0031847034 0.0022964317 -0.0014391862 -0.00016530015 0.002473322 0.0025222984 -0.002358634 -0.003504486 0.003418825 -0.0047194385 -0.0008068354 0.00043832933 0.004287937 0.0020766635 0.00056557806 -0.0020109406 -0.00038085057 0.0018548132 -0.0021432398 -0.0007169213 0.00023476966 -0.00082917704 5.8871625e-05 0.0003667865 -0.00025720237 -0.0042602876 0.002227796 0.003680454 -0.0016601206 -0.0043247878 -0.0043727364 0.0011961253 -0.0007503962 -0.004257934 -0.0017534167 0.0034432816 0.004708285 0.003446155 0.00201548 0.0002466396 9.823322e-05 -0.0021720065 -1.5525997e-05 -0.0030955737 0.003995207 0.002766036 -0.0015687612 -0.00256749 -0.0005805991 -0.004913983 -0.0028193803 -0.001685809 -0.0026032496 -0.0017556697 0.0027370774 0.0043658586 0.0022530097 0.000105507665 -0.0033688587 
GPR143	-0.0045583714 -0.0011970539 -0.0033421924 0.00031097434 -0.0022957134 0.0034660755 0.0044444087 0.0008427657 -0.00327409 0.0038982334 0.004255344 -0.00440817 -0.0016108718 0.0011093749 -0.004227449 0.0015559028 -0.001998579 0.0028680146 -0.00087184564 -0.00024009857 0.00015909843 -0.0018546504 -0.0021030807 -0.0023418497 -0.003158905 -0.0010755087 0.0029618444 -0.0036966898 0.00493503 -0.0042344313 0.004373395 0.004289225 -0.0038299542 0.0029763067 -0.0011952806 -0.0022630675 -0.0049512936 0.0024147131 0.0021805982 -0.0028028404 -0.0020223078 -0.0047213207 -0.0039538145 0.0012448421 0.0038796645 0.0047175223 0.0021267252 -0.0024187444 -0.0023917824 0.000592536 -0.00107692 0.001259928 0.0026956694 0.0019788821 -0.0043025287 -0.0019979258 9.991611e-05 -0.0015624748 0.0034322375 -0.0043537277 0.0018472946 -0.00069081964 -0.0039164 -0.0007812666 0.0029789258 -0.0043063574 0.0009491026 -0.00079018355 0.0044677667 -0.0033006717 -0.0006232398 -0.0025732901 0.0015244414 -0.0041780816 -0.0028869633 -0.0032922532 0.0006859245 0.0049340795 0.00067789416 -0.0005261875 0.0007536205 0.00033961894 -0.00286357 -0.00069838105 -0.00058841845 0.0046473546 -0.0017911686 -0.00053957873 -0.0021844395 -0.0025191861 -0.0013403737 -0.0010080467 0.0010931451 -0.001445277 0.0007281468 -0.00072939816 -0.0009919648 0.0010194699 0.0027161834 0.00073638174 
CCAR2	0.0029985034 -0.0035696132 0.0033368303 -0.00023408365 0.0016221208 -0.001682433 -0.0031138023 2.4509724e-05 -0.0047986195 -0.0017612395 -0.0037587457 -0.0026638415 -3.616441e-05 -0.0009848834 5.598223e-06 -0.0033496763 -0.0035016185 0.004801784 -0.0004866624 -0.004411371 -0.0014487084 0.0020974264 -0.004680853 -0.00068259134 0.0013414598 -0.0030941106 0.002028075 0.000644528 -0.003467567 -0.0037789098 0.0044308733 -0.0017623623 -0.00086190895 -0.0024036912 0.0038654949 -0.003063266 0.0011771437 -0.003818145 -0.00050632964 -0.0012915492 0.0032212369 0.0020459646 0.0012160692 0.001586601 0.000107805994 -2.451295e-05 0.0018969334 0.0017818472 0.0031281011 -0.0009800431 0.0015181366 0.0033803866 -0.0012560178 -0.004887159 -0.003039912 0.0034078967 0.0019410712 0.0042011444 0.0045874403 -0.00094832823 0.0047177197 0.00015225906 0.0029734126 0.0017265888 -0.0019349327 -0.0037588065 0.0020867484 -0.003989229 0.0016895896 -0.0013750902 -0.003695842 -0.0012189395 0.004289737 -0.003730062 0.00470996 0.001286415 0.0019200029 0.004990121 -0.0037487436 0.0019207501 -0.0012879075 -0.0031468729 -0.0024456086 0.001217292 -0.0030413272 -0.0005058262 -0.002397126 -0.003142677 -0.002331726 0.002894561 0.002651172 -0.0046423464 -0.0002309887 0.0027770037 -0.0046667065 0.0013353914 0.001788403 0.0006288213 -0.0005787999 -0.0011506138 
GPR65	-0.00025208356 -0.0031995527 0.0043152794 0.003326653 0.0044464665 -0.0047165626 0.00192277 0.00294477 0.0019746905 0.0038367964 -0.0018030382 0.003366842 -0.0011115393 0.00277001 0.0034712756 -0.0013760476 -0.00067589484 -0.00058290624 -0.003918698 -0.0034286217 0.002218768 -0.0010779649 0.003180846 -0.0037810174 0.0010668971 -0.004860484 -0.00053264643 -0.0048678443 0.0016927483 0.0020783786 0.0036284167 0.0032144918 -0.0036434957 0.0033099663 -0.0040416755 0.00052558945 -0.0025956566 -0.0038167106 -0.0044947737 -0.00062093354 -0.00406595 0.0033059705 -0.0048602857 0.0037453938 -0.0014551667 0.003450945 0.0025326232 0.0049012196 0.0024643028 0.0016425234 -0.0044315537 -0.0023299996 -0.0021670933 0.0045720316 -0.00041503427 -0.0010410905 0.0015476414 0.0015348183 -0.002551349 0.00211876 0.0009873101 -0.0023341503 -0.00444842 0.00041974615 -0.00066067016 -0.00037274382 -0.0033599949 0.0009139738 -0.0031070942 0.00096732256 0.0034431384 -0.0016139388 -0.004375101 0.0033188604 0.004841747 0.0044013294 0.0036944773 0.0043840054 0.0009559339 0.0033349746 0.0013980442 -0.00049066363 0.0028173726 -0.004393718 0.0023813965 0.0026015404 -0.0004524957 -0.0019125566 0.00016645803 0.0034884717 0.0025554253 0.002946532 0.0027208282 -0.0021344249 0.0028711215 -0.0012282847 -0.002521497 0.00068447547 -0.003586998 0.0030564216 
PDSS1	-0.0009483286 -0.003971424 0.002539075 0.0005272859 -0.0048770136 0.0011394949 -0.0043747732 0.0016810856 -0.004266423 -0.0016446828 -0.00071062526 0.00082089636 -0.00253758 -0.0026817555 0.003256693 0.0010226382 0.0034341472 0.0014155395 -0.0040452606 0.0025187402 0.0028761413 0.0026618752 0.0008398289 -0.0028032165 0.004263251 0.0042038155 0.004639706 0.00012952164 -0.0029192255 0.004408399 -0.0024979815 0.0014131758 0.004182087 -0.00092149066 -0.002037373 -0.0008555099 0.0047591035 0.00077735935 -0.004433443 -0.0010631512 -0.00047454497 2.883851e-05 -0.00019336419 -0.003004411 0.00089212524 0.0035951326 -0.0049500726 0.0026468763 -0.0042518103 0.0048696357 -0.0013367239 0.0015539316 0.0039969604 0.0005403656 -0.0020308332 0.0010100076 0.0015904016 0.0048101507 -0.0021554718 0.0027792756 -0.0015080154 -0.00037206666 -0.003616953 0.0017902306 0.0015523247 0.002745601 0.0046892897 -0.004552251 0.0038645333 -0.004513677 -0.004987391 -0.0021402217 0.00072508346 0.0021308938 -0.0014724341 0.0048725936 0.004344067 0.0026131398 -0.0027589381 -0.0001676388 0.0015515644 0.0047898735 0.0045190295 -0.0004086067 -0.0014878336 0.0012014307 0.0035144528 -0.001154151 -0.0023554948 0.00409103 -0.0033799678 0.002081384 -0.0033997698 0.0015812846 0.0047413246 2.9822855e-05 0.00060243695 -0.00091691833 0.0027338734 0.004807081 
CSNK1G1	-0.0008291637 -0.0017947877 -0.0023521895 0.0049347645 0.003023615 0.0010450424 -0.0026391754 -0.0001614086 -0.0043160073 -0.00035102913 0.00026703248 -0.003278837 -0.0018274784 0.0049312254 -0.003714184 0.0031278161 0.002142094 -0.0037617872 -0.0031990665 0.0021222006 -0.004659363 -0.0028423734 0.00046107412 0.0036980964 -0.0035384512 -0.0031345799 -0.00028925558 0.0018606012 0.0034392911 -0.0030523788 -0.00079861504 0.0008894325 0.0019390634 0.0006931173 0.004306343 0.0030890869 -0.002212969 0.002663403 -7.626979e-05 -0.0038101405 -0.00025303575 0.001523173 -0.0019438337 -0.002122702 -0.0013481512 -0.002649523 0.0030843841 -0.003530112 -0.0013260961 -0.0033841569 -0.003648674 -0.004734202 -0.0029461381 -0.0009100208 0.0011795749 0.0026345586 0.0048969314 -0.0016428293 0.002517053 0.0025755865 0.001837465 0.0025798273 0.0032308346 -0.004578354 0.0047586104 0.001882759 -0.002590375 0.0025291413 0.0013780609 -0.0030788095 -0.0042204275 -0.00086586864 -0.0028179542 0.0037622254 0.0049371747 0.003524604 0.00028678347 -0.00081787904 -0.004938306 -0.0014457386 -0.0045571197 0.004899085 0.0043632914 -0.00079601066 -0.0049513094 0.00097035145 0.0020231453 -0.00337925 0.0038957165 -0.0035964597 -0.0030334422 0.0020382497 0.0030103917 -0.0024478582 -0.0010806014 -0.0007828679 0.0042124903 0.00451999 -0.00027171662 0.0012880669 
FGF6	-0.0027745506 -0.0002062051 -0.0007287685 -0.0041117407 0.0003159067 0.002516663 0.0025308884 -0.0011892546 0.0012712859 -0.003679022 -0.0038178246 -0.002093483 0.0031644194 -0.0007280471 -0.0036252774 0.0048166523 -0.0007878422 0.0019444141 -0.0018556863 0.00020576255 0.0014127609 0.0038841537 0.0014920724 -0.0017994444 0.0049836533 0.002890553 -0.00046559612 -0.004472383 -0.000304746 0.0035454493 -0.0026589236 0.0031281484 0.0013829538 -0.0036324447 -0.0044829827 -0.0015305014 0.0028948258 -0.0033314112 0.0016338924 0.0034271013 0.0045476514 -0.001361838 -0.0002128133 -0.0006319789 0.002448897 -0.0023855323 0.0014869489 -0.00044764054 -0.0019825946 0.0041616973 -0.0024973855 -0.0012472543 -0.00092007726 0.0015190202 -0.0020054064 -0.0049548317 -0.0039117695 -0.0045339107 -0.0018565439 0.00016610035 -0.0046196007 -0.0011525261 0.0011076962 0.0030234142 -0.0002698227 0.0020826291 -0.0015796934 -0.0015649276 -0.0021677034 0.0031698793 -0.0035695515 -0.00022126328 -0.002095528 0.004436669 -0.0016302163 -0.00019618172 6.534447e-06 -0.0005236719 -0.0018146947 -0.0029221242 -0.001365571 0.0014202739 -0.0015045622 0.003693105 -0.0013893344 0.00092563016 0.0015027702 -0.00088958745 -0.0005941477 0.003423119 0.0010343293 0.0015495175 0.004461586 0.002539994 0.001463935 -0.00029914075 -0.0020217034 -0.0012678864 0.0024298169 -0.0005006687 
GFI1B	-0.0011861213 0.0027657235 -0.00046082525 0.003250877 -0.004966171 0.0022294887 -0.0026812996 0.0029400643 -0.0021175307 0.0020260043 -0.0014901648 -0.004807623 0.00461111 -0.004999203 -0.0042262943 -5.8642163e-05 0.0025356833 -0.00089200726 0.0028836706 -0.0028700063 0.0023919248 -0.0016073035 -0.0036810979 -0.00073729415 -0.004049878 0.0040248213 -0.0044062887 -0.0027226687 0.004584601 0.004877753 0.00488791 -0.00049215794 -0.002416125 -0.0047429954 0.0011434661 -0.0046697687 0.004725526 -0.0046880236 -0.0036618682 0.0044145514 0.00081608933 0.0036490709 0.0033417938 0.0007625971 -0.0025388591 0.00027211822 0.004184431 -0.0038978315 0.004448121 0.004695218 0.0035137397 0.0035155823 -0.0030572189 -0.0010595935 -0.0045308857 0.0009614418 -0.0037675237 -0.0038106507 -0.0021023555 0.0010254444 -0.004418121 -0.0032079406 0.00454827 0.003901924 0.0022902428 -0.00036475153 0.0009246097 0.00050095486 -0.0021909892 -0.0008514763 -0.000818793 -0.004738676 -0.004123663 0.0039970516 -0.0040059444 0.004668673 0.002933503 0.0022041735 -0.0035269472 0.003393672 -0.00025465278 -0.0037776486 -0.0031948844 -0.0028815863 -0.0014808231 -0.004814277 -0.0036094168 0.001303261 -0.0009410089 -0.002583441 0.004746532 -0.00037176147 0.0011468985 0.00067256525 -0.0019023325 0.0042172805 0.0028529116 -0.0037915655 -0.0021053862 -0.0005092676 
OR2H1	0.00087390613 0.0028247181 -0.0026773533 -0.0021078787 -0.0033969355 -0.0019090684 0.0047178753 0.003535807 -0.0038407897 -0.0008511627 0.0017870193 -0.0049199285 0.004570335 -0.0028568055 -0.0037492416 0.004371345 0.0008633892 0.0043703024 -0.0035307582 0.0047411295 0.0021647145 -0.00044028653 -0.00048862986 -0.0034673342 -0.0037965423 0.0039554834 0.0008558323 -0.0005909085 0.00073686923 0.0022022645 0.0036048 -0.0005996204 -0.00038180308 0.0032839652 -0.0028524022 -0.00094492186 0.0036313797 0.00060152856 -0.002244499 -0.0033590018 -0.0048792413 0.00046715204 0.0030304547 0.0026948994 0.0007196894 -0.0041281385 -0.0036845836 0.0014038162 0.002383382 -0.0021485894 -0.0047615278 0.0041290345 0.0032046887 0.0014758453 -0.0026284887 0.0024834494 -0.0018396958 0.0037599262 -0.00096267427 0.0033805575 -0.0026456984 0.0048590847 -0.00337533 0.00092247844 1.9217334e-05 -0.00059899746 -0.0028666107 -0.0032933592 -0.003573598 0.0028547817 -0.0032547787 -0.0015302591 -0.0033065905 -0.001838441 0.00022674775 -0.0048167324 0.0018780428 0.0018618488 0.0048467964 0.0041087694 0.001072074 -0.004667919 0.004475161 -0.0034338427 0.0022567785 0.0031799732 0.0006564315 0.0043722424 -0.0037327951 -0.0040340973 0.0016483516 0.0038591542 -0.004688461 0.0036840355 0.004852227 -0.0042479974 -0.004865642 -0.004966159 0.004599322 -0.0016593228 
ITPK1	0.0017374896 0.004263988 0.00042772555 0.001233421 -0.0031476868 -0.0042240955 -0.0048374776 -0.0032437623 -0.0029525831 -0.004912834 -0.004087401 -0.004593855 0.000118134856 0.00257417 -0.0015424589 0.004346996 0.0040170653 0.0008354962 -0.002445919 -0.003091748 -0.0006604565 0.004345756 0.0034032057 0.0014949801 0.00022215286 0.00061625196 0.0031731557 0.004258694 0.0029569694 -0.0045574796 -0.004335744 0.0013529954 -0.00013150055 -0.003255272 -0.00052951585 -0.0014771079 0.0037251334 -0.0036225424 -0.00078967644 -0.0002201778 -0.0013295255 -0.0029039292 0.001676972 0.0041616242 0.0020375352 -0.00020696464 0.0013181415 -0.0026872067 0.0032398086 -0.0048420522 0.0039605037 -0.0029863592 0.0049105086 -0.0005992816 -0.0015677614 -0.00093638024 0.0018659402 0.001622813 0.002329175 -0.0032327361 -0.0031513425 -0.0031095135 0.0033912037 -0.00013555205 0.0006236556 0.004587335 -0.003014568 0.0008553888 -0.0010192868 0.00059707655 0.0004089926 0.0041881516 -0.0035551128 0.0044284477 0.0019173109 0.0024773262 0.0031602662 -0.0026209573 -0.0020951182 -0.0016552518 -0.0014643724 -0.0048100622 0.0032922272 -0.0025658791 0.0017821394 -0.0018737264 -0.00041090508 -0.003921089 0.00039475405 -0.002255426 -0.0048934 -0.0044897906 0.0023234219 0.001657361 0.003882861 -0.0016654652 -0.0023488624 -0.00071379717 -0.0041667665 -0.00092129223 
ALDOB	0.00038920497 -0.0030282815 0.0023722155 -0.0015097396 -0.0029958796 0.0026764693 -0.0020348534 0.00035780034 -0.0043371916 -0.0045219264 -1.9304234e-05 0.0013382481 -0.003535568 0.0008714955 -0.0033420122 0.001997369 0.0033204942 0.0030279392 0.004202073 0.0006016555 -0.0042566257 -0.0018726272 -0.00475103 0.004640874 -0.00401152 -0.0004527399 -3.4380378e-06 0.003518381 -0.0048798253 0.0030769347 -0.001796404 2.0876603e-05 0.0016170488 0.0012774522 -0.0015090836 -0.002720856 -0.0003073338 -0.004651055 -0.0021244443 0.0021452522 -0.001439262 0.0037063411 -0.0018170897 -0.00093926245 0.0017725887 0.00034365192 -7.055636e-05 0.0005120614 0.0033302815 -0.004847968 0.0040325834 -0.000545484 0.0025742836 -0.0036516928 0.003188971 -3.9712773e-05 -0.001502031 -0.0048065796 0.0027145194 -0.0012261536 0.004779134 -0.0008171947 -0.0047015916 -0.00046374145 -0.00095113466 0.004214065 0.002641604 0.0005189004 -0.002796546 0.0019167549 -0.00045646468 0.0003079574 -0.004030946 0.0006214002 0.0021472224 -0.00466595 -0.0005804484 -0.0012345972 -0.0023055184 7.150319e-06 0.00065551983 -0.0013457732 0.00077834795 -0.001777934 -0.0013588746 0.0046154554 -0.0020804428 -0.0032324244 -0.0027787187 -0.0032616516 -0.0024701129 0.002178278 -0.0010638918 -0.003768719 -0.004451143 -0.0013093855 0.00083283335 -0.000775145 0.00223562 -0.0042703147 
SIGMAR1	4.892545e-05 0.0020274715 -0.0042484635 0.0034814107 0.001200146 0.0036238302 0.0008233046 0.0045112018 -0.0024519793 0.004156585 0.0029642847 -0.00021143428 0.0048607322 -0.0044698967 -0.0033519205 -0.0036798099 -0.0047722356 0.000801163 -0.0035449667 0.003735259 0.0005261006 -0.0011794533 -0.0039532497 -0.004171208 -0.00017939718 0.0033891266 -0.0041339113 0.0008921556 -0.0036026733 0.0005608077 0.0026848528 -0.0015087468 -0.002918922 -0.0013749119 0.002685119 -0.0008266731 0.00094153365 0.0032028283 0.004877948 0.0022217236 0.0045882203 -0.0049297535 0.00010935558 0.0012812378 -0.0008119159 -0.0026792753 0.0047120275 -0.00405524 -0.0014243552 0.0004084108 -0.00029863432 -0.0012058092 -0.00086449034 -0.00022183768 0.0017008095 -0.0042060623 0.0003692045 0.0047201053 -0.004779878 -0.0034710066 0.0024691229 0.00041455668 -4.1283252e-05 0.004033086 0.0045539835 -0.004975054 0.0006459916 -0.0002052335 0.0029185512 -0.0043405197 -0.003348922 -0.0014888938 -0.0043710046 -0.003923608 0.0022917097 -0.0010784903 -0.0043130037 -0.0008166273 -0.003944708 0.0034279241 -0.0015764764 -0.0018352544 0.003971156 -0.0019936566 -0.0045492877 0.00049662834 -0.0021124766 0.0032031022 0.0032651443 -0.0032766834 -0.0022354987 0.00053529226 0.0018285823 -0.0028631259 -0.0048749438 0.0008581085 0.0045072604 5.3063686e-05 0.002043468 -0.0018658837 
NRBP2	0.0040521137 -0.00011977598 0.00050758 -0.0031525793 0.002192725 0.0034498363 -0.0007438867 -0.0030907237 0.0021943434 -0.00033881317 -0.0012121333 0.0019476003 0.001546588 9.144124e-06 0.0027868887 -0.0031787064 -0.002413706 0.0048748273 -0.0012455733 -0.004502131 -0.0032205374 -0.0031839546 0.0027221565 -0.004706071 -0.00166815 -0.0024353424 0.0016753508 0.0036895243 0.0041467566 -0.0049142186 0.004561615 0.0027222626 -0.0014041389 0.004875071 -0.0013271525 -0.00320049 -0.004721848 -0.0016754227 0.0036301774 0.0029208146 0.001192873 0.0013884435 -0.0038719391 -0.00039334325 -0.0025813144 0.0029091386 0.0013265276 -0.0009076597 0.0007781702 0.0022171256 0.0014525315 0.0007051181 -0.0022653113 -0.00027286715 0.004728389 -5.1410076e-05 0.0025657306 -0.0026195701 -0.0018080549 0.004493771 0.00047721475 -0.0048068687 0.0020064944 -0.0037066587 0.0042099585 -0.0022225135 -0.0048571704 0.004061697 0.0038867793 -0.0028280003 -0.002357885 0.0031307298 0.00224642 0.004610411 -0.00040093926 0.0019439848 0.002914649 -0.0016461724 0.0038914566 -0.001286982 -0.0022577299 -0.0013220116 0.0018247424 -0.002431308 -0.0008646346 0.0009845124 0.003921777 0.0028202294 0.0028323024 0.002260336 -0.0013541232 0.0007273157 -0.0037844973 0.0029298367 0.00056002993 0.0012480844 0.0028184378 0.0042147012 -0.00064102944 0.0013194755 
INTS1	0.0037636594 -0.0024882802 -0.001905412 -0.0010501028 0.001231232 -0.004276273 -0.0012325204 -0.0033301285 0.0049330303 0.003892591 -0.00011857816 0.0025242101 0.0009795919 0.0045128325 0.0018343488 0.004325878 -0.0034560082 0.0022043234 -0.0030558305 0.0015613658 -0.00048851036 0.0028389776 0.0031063487 0.00211212 -0.004306746 0.0031166144 -0.0020879048 -0.0008046349 -0.004199017 -0.0026903206 -0.003281885 8.723395e-05 0.0017299722 0.0007075922 -0.002754337 0.0031087522 -0.0020165003 -0.00476904 -0.0010056336 -0.0039707343 0.0024261472 0.0023812167 -0.003504091 -0.0010398794 -0.0021152184 -0.0019154247 0.0019555422 0.004467233 0.0023325211 0.002054677 -0.004824519 0.0049731024 0.0027034518 0.0026485072 0.0022256302 0.0046857595 0.002286431 -0.001385587 0.0037176253 -0.0021815214 0.0033315627 0.000896336 -0.0043700333 -0.0029520225 0.0038021891 -0.0049768426 0.0037004491 -0.0027684823 -0.00070563005 -0.004349048 0.00033464908 0.0027779476 0.0039071403 0.0031463683 0.0043009357 0.0013082472 0.000137988 0.0026057428 0.0020485423 -0.0019555471 0.004750289 0.004694965 -0.0018062667 -0.003833272 -0.0014103211 -0.0039907666 -0.0013183728 -0.0034175795 0.0027236862 0.0048845927 0.004637534 0.0004702522 -0.003169124 0.0035236205 -0.0018698892 -0.0028321825 0.0045648194 -0.0025893266 0.0017756646 -0.001999117 
PHLDA2	-0.0028718556 0.00026488313 0.0023542645 -0.0038534275 0.004667698 0.004619521 0.000342378 -0.004706747 -0.00013075679 0.0023338383 -0.0017852928 -0.0019946354 0.003891054 0.0048512244 -0.0029330414 0.0034155727 0.0044902684 0.002835947 -8.235503e-05 0.00034421775 0.0024017629 -0.0008359212 0.002444409 -0.0022285802 0.0004572239 0.0033553608 0.0016206565 -0.0044765277 0.0015069478 -0.0020599398 0.004727315 0.0011318743 -0.0014889636 -0.0021127772 -0.0029531037 -0.0010879698 -0.00019941406 -0.0016094808 -0.0018252607 -0.0033919548 -0.00039469052 0.0032452405 0.0007097857 0.0034707345 -0.0033731204 -0.004158615 0.0035706095 0.00431299 0.0047462652 -0.0030480174 0.0049805595 0.0043794666 0.0036880348 0.00049954024 -0.00075349456 0.0018297513 0.0004987116 -0.0044852695 -0.0001597724 0.00024194225 0.002311332 -0.0047917604 -0.00043529092 -0.0020790165 -0.0034756323 0.004550103 -0.0030698692 0.0001514745 -0.000101563215 -0.0014334235 0.00098646 0.003939535 0.0038449098 0.0047290544 -0.0021070084 0.0010987443 -0.0017800368 0.0027285893 0.0018733358 -0.000839579 0.0029806017 -0.0037355248 -0.0042597284 -0.00055272575 -0.003904909 0.0019030519 0.0019489836 0.0023999235 -0.003471542 -0.003469358 0.000960623 0.004319648 0.0007213892 0.0049792365 -0.0041267453 -0.001995066 0.0016622287 -0.0012001963 0.0020708528 0.0004087153 
YARS	0.0013093557 -0.0017230035 -0.0027412293 0.0038293898 0.00059406436 -0.0010991358 0.0029423996 -0.0028824017 -0.0008265653 0.0030899262 0.004060887 -0.002321283 0.0026310273 -0.0042081424 -0.0046684765 -0.0020707247 0.00014327417 -0.0033936198 -0.0044116853 0.0003320131 0.0026850577 -0.0034596531 0.0026119063 -0.00037676992 0.0018154428 0.0044003725 -0.0023000173 0.0046530645 -0.0026903008 -0.0042382753 0.002388732 0.0019445498 5.4598706e-05 0.002480147 -0.0030036278 -0.0016680749 -0.0019143573 -0.0027088313 -0.002051973 0.0036161686 -0.0043077962 -0.0043873317 -0.0011585063 0.0016016297 0.0008421842 -0.0007543384 -0.003157757 0.0035470168 -0.00073497515 -0.004549292 5.2548898e-05 -0.0039859368 -0.0028359715 -0.0030643188 0.00304419 0.0049654073 0.001173261 0.001073434 -0.0003360112 0.00041298632 0.00094741146 -0.0024511912 0.0009337521 0.0014419757 0.0049423208 -0.00034256047 -0.002315614 -0.0036206862 -0.0028159423 0.0011412812 0.0025393947 0.0035512997 0.0016106155 -0.00087273004 -0.0023985305 0.002626117 0.003869509 -0.0021428983 0.00042437884 -0.003903739 0.0015469443 0.0037019146 -0.0014012845 -0.0008579296 0.0014562062 0.0029899504 -0.0023484437 -0.0033497147 0.0034115366 -0.0043128226 -0.0006295759 -0.0010583081 0.004194754 0.0027254736 0.004675587 -0.0024515209 0.0036961245 -0.0024784652 -0.0028381958 -0.00044488846 
CEBPD	-0.00280044 -0.00014495087 -0.0044774623 0.0012813737 -0.0027395803 0.004900607 -0.0044052247 0.0028927347 0.0022276083 0.0008697312 0.00029987656 -0.0017519565 -0.0028552837 0.00011822307 -0.0042421217 0.0032525475 -0.0018752274 -0.00026906107 -0.0048772106 0.001000733 -0.00034515996 0.0013095196 -0.0018626682 -0.0037553236 0.00034277196 -0.0015612867 0.00221381 0.0030665474 0.000848601 -0.0005427458 -0.004814311 0.0047151977 -0.00083757873 0.0039623897 0.0036521538 0.00196639 0.0014010108 0.0011508078 -0.00014805695 0.004227557 -0.002354021 -0.0010818514 0.0016090902 -0.0001287577 -0.0040870253 -0.00034510478 -0.0047062784 0.0044995733 -0.0037677886 -0.0011747481 0.0028358465 -0.0030862265 4.136126e-06 -0.0018368341 0.0027333614 -0.0007394145 -0.004104252 0.0040638926 0.0041255164 0.0020287891 0.0015620586 -0.0035555593 0.0011655277 -0.0011965161 -9.057251e-06 -0.001449036 0.0018898855 -0.0048204605 0.0049091363 0.0030215145 0.0043532774 -0.00055230845 -0.0017918169 -0.0037304228 -0.0035338625 -0.0007750161 0.0011789728 0.0025626828 -0.0017596926 -0.0022207533 0.0028131453 0.004046063 0.0013749029 -0.0033861776 0.0015099705 -0.002829414 -0.0042197155 0.0037551236 0.0044132094 -0.0008247114 -0.0049711512 -0.0025101756 -0.0048281588 -0.004041163 -0.0010849534 -0.0011068983 -0.0017029322 0.003889374 0.00056006276 -0.004658675 
HCFC1	0.0038539276 0.002971449 0.0036342815 -0.0020286865 -0.0037354587 0.0010717455 0.0019555625 -0.004511561 -0.0024452305 0.0020053291 0.0008428806 -0.00012550087 -0.0023284038 -0.0010195721 0.0006771574 -0.0023590117 -0.001867889 -0.0010964294 0.0043446724 -0.0029506013 -0.003882776 0.0041787145 0.0025317653 0.0017402674 0.0013891925 -0.004828633 0.003176946 -0.0042073354 0.004131756 -0.00026093365 0.004647243 -0.0014349668 0.0045077763 0.0010248532 0.002781227 -0.0026138218 0.0007228168 0.0005525355 0.003392127 0.0020630711 0.0041400813 0.0012678511 0.0022591264 -0.0035304062 -0.001136348 0.002284761 -0.002346603 0.0011619735 0.002885673 -0.0010814662 -0.0029365872 -0.0026571548 0.0013480545 -0.0018680975 0.0047454345 -0.004916855 -0.00069704576 0.0035063874 0.0031356933 -0.0036636807 -0.0001291785 0.0032171102 0.0037138197 0.0012755203 0.002441678 -0.0031288627 0.0023254948 0.0020450747 -0.0032833747 -0.00020754438 -0.002929765 0.0033586381 0.0008979731 -0.0044672806 0.0009170036 0.00026726443 0.0010269671 0.0048177494 -0.0012037911 0.0006587688 -0.000112520065 -0.003113386 -0.0027729177 -0.0016139299 0.0022140883 0.0027963184 -0.0019657 -0.00437399 -0.0023981815 -0.003428383 0.0033833173 0.0024224415 0.002884145 -0.004881146 0.004296055 -0.003526502 0.0038819374 -0.0035488256 -0.0013676364 -0.0042703818 
NAA35	0.0008515191 0.0047397558 -0.0010501656 0.0036690815 0.00076342997 0.0014777508 -0.004618377 -0.0038411494 8.1307015e-05 1.1315171e-05 0.0005516359 -0.002725872 0.0014192899 -0.004161767 -0.00025719852 0.0027985896 0.0013191965 -0.003002256 -0.0015313869 0.0039313077 0.0030754209 -0.004885649 0.0020481546 0.004293377 -0.003829413 0.0027375065 0.0047708475 -0.0046057845 0.0034090788 0.004241696 -0.00095933455 0.002147785 -0.003856038 0.003778491 -0.00052399415 -0.0022697444 0.0006754162 -0.00070999307 0.0012034681 -0.003147111 -0.00034849797 -0.0015276768 -0.0031295975 -0.003866875 0.0005930997 -0.0014879416 0.00092736393 0.002466303 0.0029077819 0.0027362453 -0.001060017 -0.0023688779 0.0002536528 0.0015786123 0.00054188736 0.003567161 0.0019226932 -0.004674599 -0.00068338297 0.004974596 -0.004719548 0.0018460251 -0.0014302977 0.002371254 0.0038690632 0.0033444185 -0.0029641017 0.0014611987 0.00134114 0.0022041202 -0.0033415882 -0.0008879 -0.0017450328 -0.0009942201 -0.0038513315 -0.0047596553 0.003638289 0.0033936794 -0.0012668183 0.000575743 0.0006496692 0.003826865 -0.00066719647 0.0038146318 0.0027567605 -0.002993608 0.0030787028 -0.0034947176 0.0028157393 -0.003735077 -0.004954257 -0.0021293766 -0.0026949216 -0.002339576 -0.001099814 -0.0019255828 -0.003846074 -0.0024402922 0.0029576588 0.00093654485 
HEY1	0.0011340191 0.0012366164 -0.0043009785 0.0008972125 -0.0038956543 -0.003170186 0.0010093177 0.0034744944 -0.001854795 0.0005248899 -0.003331799 -0.0024687282 -0.0025749102 0.0030257192 0.000108918604 0.0014349619 0.00189666 0.0033517745 -0.0048007253 -0.0039550774 0.0013378218 -0.00030119804 0.0047786906 0.002136256 -0.0031897174 0.0044257315 0.0021329187 0.0012772891 -0.0008650343 -0.0030178032 -0.003496661 0.0014140741 0.0004213626 0.0013150449 -0.0037235357 -0.0041616946 0.0038166617 0.0049876464 0.0028102286 0.001056 0.00037490568 -0.00411307 0.0036450096 -0.0016714508 0.0040552667 -0.00088456407 0.0004716288 -0.0032314253 0.0026109023 0.0003220068 -0.004939148 -0.0035592183 0.0027356325 -0.0040913597 -0.0035089904 -0.0025729188 0.0005956223 0.0034137468 0.0034180605 -0.003979081 0.002553595 0.0010896779 -0.0036644381 -0.004749717 -0.0016215747 0.002118568 0.0035892422 -0.0025267997 -0.0039528264 -0.0034921733 -0.0041412255 0.0017467338 0.00032803457 0.0013964963 -0.00042602862 0.0011499637 0.00011362907 0.002167564 0.0026384713 0.00027729713 -0.0043901075 0.0011886044 -0.0029132753 0.0038909547 0.0043003173 0.0025414156 0.0011628411 -0.0006711995 0.0025305373 0.003231989 6.0100287e-05 0.0004583163 -0.0047853105 0.0023919777 0.0010890464 -0.00495721 0.0035279081 -0.0030577066 0.0021697073 -0.0045366823 
ZNF367	0.0010829264 0.0018544528 -0.004244679 -0.002869471 -0.0049549057 0.004926648 0.0042523113 0.004950825 -0.0020825765 -0.0027823173 -0.0040897224 0.0026580142 -0.0016172776 0.00036635165 -0.002903949 0.0033406166 0.0028812026 0.003964237 -0.0009359296 -0.0022400063 -0.0015071107 -6.665587e-05 0.0032473248 -0.0013723829 -0.001484359 -0.0038908797 -0.0045266235 0.00076342205 -0.00035034728 -0.0038816785 0.0036261673 0.000914994 -0.003234747 -0.0038767138 -0.0020380206 0.0018520764 -0.00020178346 -0.0012640989 -0.0033510546 -0.004377889 -0.0014476845 -0.00088352227 -0.004385417 4.5914538e-05 -0.0016830359 0.0035845342 -0.004653189 -0.0043302216 0.00010971543 0.0036903145 -0.0023673389 -0.0030770942 0.002688229 0.0034109864 -0.0036616465 -0.0007170619 0.004199927 0.003189708 -0.00066861225 -0.0015063335 -0.004558149 -0.00041875045 0.004954862 0.001290837 0.0029975895 -0.0018957874 -0.00451884 -0.0038317032 0.0022633567 0.0029759847 -0.00186158 -0.0008361494 0.004070732 0.00019312136 -0.0029847478 -0.002017786 0.0045805466 -0.0010343088 0.0023783918 0.00045289696 0.0006754405 -0.004092026 -0.0037140208 -0.0014626449 0.0024374719 -0.0032833365 0.0022956093 0.0035200003 -0.002484462 0.0004791038 -0.0036161398 -0.0021995772 -0.0021155397 -0.0015360346 -0.00086024625 0.0008879104 -0.00042488833 0.0015977041 -0.0025497167 0.00060545193 
TEAD3	-0.0024487856 -0.00288745 0.002387622 0.0013998415 0.004873641 0.0038539558 -0.0032515437 -0.001621612 0.0010656922 -0.0045567644 -0.0024588958 -0.0034824242 0.0020724915 0.0032786143 0.0039751767 0.0016881975 -0.00055771053 4.6356785e-05 -0.0036090019 -0.0039490643 0.001957348 0.0034538892 -0.003977477 -0.0032221572 -0.0038023684 -0.004448365 0.004513083 -0.00482299 0.0047431076 0.0037646578 -0.0010282147 -0.0039883624 -0.003361074 0.0027963147 -0.00077691587 -0.0019103982 -0.0012097834 0.0031678164 0.0036544749 -8.1505765e-05 -0.0014364796 -0.0026483885 0.0023767585 -0.002141188 -0.0041497233 0.001643012 -0.003671308 0.0019171415 0.0014316634 0.00096175645 0.0025388002 0.0036677725 0.0018851756 0.00034109908 -0.0015845302 0.0009596226 -0.0022246742 -0.0043358384 -0.0015535724 -0.0013791249 -0.000104960905 -0.0021324412 -0.0038589071 0.0047766874 -0.0016779598 -0.0031136177 0.000747493 -0.001617439 0.0034394884 -0.0015708611 -0.004996531 0.0043022344 -0.0028022546 0.0018997955 -0.0045749913 -0.001548466 0.00022490865 -0.0034504784 -0.0024073934 -0.0035154538 0.0034811902 -0.00040783864 -0.0049435184 0.0046444237 -0.0010191008 -0.0043518506 0.0011780909 -0.0022031344 -0.00418393 -0.00027176974 5.4530385e-05 -0.0013409097 0.0030502882 0.0011771015 0.0032265834 0.0018193685 0.0003022603 0.0041855467 -0.002683489 0.0004901415 
CRABP1	-0.001167202 -0.0048354184 0.00043739835 -0.00420715 -0.0014941797 -0.0023165103 -0.0023501653 -0.0030591688 -0.003545262 -0.0012503802 -0.0011942025 -0.001039614 -0.002782822 0.00012416461 -0.0004588625 0.0019704793 0.003969185 -0.0006902241 0.0020971936 -0.0019190524 -0.0031642115 -0.0046803607 -0.00054819114 -0.0039645317 -0.0031989587 0.004583593 -0.00027692915 0.0045914473 0.0010679588 0.0025271003 -0.0027953552 -0.0031070285 0.001441182 0.0026059828 -0.0033998473 0.0036759814 -0.001979952 -0.0023354124 0.0042376406 0.0023331533 -0.0017825966 -0.0024759856 0.004053809 -0.0041446676 -0.0028477171 -0.0036722294 -0.00033688245 0.0010770656 0.004273935 -0.0013556867 -0.0011299342 0.0014497085 -0.0010143192 -0.0010819732 -0.0017747647 0.0013372794 -0.001273017 -0.00023340384 -0.002533944 0.00025092482 0.0016021997 0.004963119 -0.004918097 0.0035292841 0.0031596546 -4.9821894e-05 0.00026547004 0.0003777721 -0.00014378178 -0.0036890917 0.0021453747 0.0038327293 0.004905259 0.0033014026 0.0009541576 -0.0042724 -0.004943248 -0.001579787 0.0035026774 0.0009951738 -0.00055963336 0.002732185 0.0032931103 0.002411142 -0.0015027282 -0.004381119 -0.0012466739 0.0034973426 0.00095515116 0.004322299 -0.0034368942 -0.002234562 0.0037372154 0.0011925187 0.004137109 0.0016160225 -0.0014289236 0.0014490305 -0.0040211785 0.0021131816 
RRAS	0.0027108192 -0.0044502076 0.0041821525 -0.00046309354 0.0017607126 0.00046528745 -0.00063308433 -0.004775857 -0.0021409662 -0.0045148134 0.0002217065 -0.0025938433 -0.0040939576 0.0012099796 -0.0014566979 -0.0033130718 0.00066816167 0.003411523 0.0007106353 0.0026402392 0.0046890075 -0.003362549 0.002075069 -0.002666637 -0.00092492433 -0.002608855 -0.0037830914 -0.0029028382 -0.0022564128 0.0016202704 0.0032178897 0.0030614845 -0.0014729211 -0.004897623 0.0029519715 9.9656514e-05 -0.0015585194 0.0014276946 0.004916285 0.0013385837 -0.0045301425 -0.00013578928 -0.004511864 0.00018826804 0.0016842954 0.0034740353 0.0044787303 0.0015782012 -0.00046345743 -0.00031248687 -0.0046094805 -0.0021601983 -0.00335633 -0.003343843 0.0019900473 0.0013938945 -0.0037677232 -0.0044768723 0.004549628 0.0014841657 0.0016176325 0.00072275545 0.00039917632 -0.002567325 7.2556584e-05 0.002177955 -0.0036664256 -0.004186263 0.0039088824 0.0005369324 -0.0016647975 0.0047777523 0.003345378 0.0046714284 -0.002009112 -0.0023843583 0.0047297827 -0.0035951925 0.001053703 0.0028608185 -0.0027051263 0.002446662 -0.0008350476 0.0003733004 -0.0038827565 -0.0039594034 -0.0031504985 -0.0012182759 -0.0012388529 -0.0026348482 0.0005422629 -0.0033335418 -0.0011389002 -0.0018156522 -0.0049709002 -0.0044289567 -0.0013347716 -0.0045973416 -0.0014136978 0.003776974 
DPH1	0.001142292 -0.0017846335 -0.0037383183 0.0033343174 0.0007259462 -0.0042406735 -0.0042242366 0.0014216888 0.0031692944 -0.0008572564 0.004395411 -0.0044783438 4.6890018e-05 -0.0036562772 0.0032265247 0.0032722743 -1.9831118e-06 0.00025655582 -0.0004630788 -0.004411032 -0.0034687482 -0.0009805545 0.0041482938 0.0035336788 -0.0012945016 -0.0022649386 -0.0021890262 0.0006071753 -0.00253332 -0.0005189277 0.001529216 0.0020931568 0.0042781965 0.002786923 0.002484358 -0.0031348662 0.00037134934 -0.001171657 0.004726262 -0.0014827003 0.0022955572 -0.0014819725 0.004622152 0.0008846082 0.00062296283 -0.0002146155 -0.0036875827 0.0034930077 -0.003296147 0.0036178154 -0.0016202226 -0.0023466083 0.0009668473 -0.002882474 0.0048739533 0.0023816915 0.0004655969 0.0017584111 -0.00068744045 0.0023206447 -0.002704157 0.0048496523 -0.0025278202 0.0027152004 0.00051595137 0.0011733401 0.0032015578 -0.004175485 0.0028734114 0.0005901218 -0.00072438584 -0.0030856729 0.00052212906 -0.0026899977 -0.004931084 -0.0020506303 0.003623324 -0.0036963352 0.0047300193 -0.0010083385 0.00068156765 -0.0016106025 -0.0009421716 -0.001408876 0.0013608319 0.0028198885 0.00037344772 -0.003943232 -0.00041785085 0.0012919909 0.0017635408 -0.0026880747 0.0030394557 -0.0017802451 -0.004746431 0.0047154403 0.00048422837 -0.0047002365 -0.001239731 -0.0036200024 
TTC28	0.0036026041 0.003991158 -0.0033899469 0.003488736 -0.004950309 0.001968895 -0.0021205454 -0.0038805525 -0.004012849 -0.0027230298 -0.0037393863 -0.001524544 0.0017371076 0.0034577867 0.0032804823 0.0015085826 -0.004202692 0.004774432 -0.003272616 -0.0017075528 -0.0007285228 -0.0031521856 -0.00087841 0.0023203776 0.004389197 0.0031895007 0.003326503 -0.0032546346 0.0027496356 0.0007851257 -0.0020598369 0.0037147307 0.0023424253 0.0038784158 -0.001077758 0.004496752 0.00020899261 -0.0024536054 -0.0040160706 -0.004621286 0.002179625 0.004851745 0.000285097 -0.0034912275 -0.0046859155 0.001276932 0.0048085945 0.0020121436 -0.004686623 0.0012757503 0.004009013 -0.0035477742 -0.003267484 -0.0034015398 -0.0025107495 -0.0042708954 0.004171933 0.0040746606 -0.0030580603 -0.001491282 -0.00036101407 0.0010645352 0.004262464 0.003108593 -0.003093556 0.0018649813 -0.0029178765 -0.0025056116 -0.0007802068 -0.001335729 0.0040466245 -0.001692484 1.1475311e-05 0.0027706956 -0.001113544 -0.0030906014 -0.0010240637 -0.0028000022 -0.0013028906 0.00074386125 -0.0014342004 0.0011202948 -0.004523669 0.00015417468 -0.002650726 0.0042070854 -0.002326516 0.0019842228 0.0044428147 -0.0007160093 -0.002747808 0.0010798951 -0.00044206 -0.001057721 -0.0004883912 0.0015921174 -0.0007026087 0.003368893 -0.0009110304 0.0012138548 
SLC29A2	0.00095960416 0.0017990489 0.002006108 -0.001775909 -0.0007589055 -0.0003670942 0.0038864303 -0.0013402308 -0.0043639303 -0.00019893679 0.00345153 1.3642343e-05 -0.0036025126 0.00086854683 0.001580162 -0.00010241131 -0.00088544475 0.0040578353 -0.0015184899 0.003906824 0.0011315704 0.0048247934 0.0015366247 0.0034269 0.0029463475 0.004356515 -0.0031689175 0.0032554488 0.00016885198 -0.0021193116 -0.0023895325 0.002862686 0.004916631 -0.004515479 -0.0036802723 -0.002339408 0.003679203 -0.0027813767 -0.00025231764 0.004503259 0.0020589307 -0.004645797 0.0041817217 0.0023625449 0.00072267605 -0.0015709535 0.0038291311 0.0038027102 0.0043422645 -0.00092091784 0.0017313639 0.0021799167 0.00084021746 0.002116914 0.0040779593 0.004833225 0.00057663966 0.0020705867 -0.00026191154 0.0042422027 -0.004515258 -0.0038767147 0.0046447157 -0.0048492495 0.002760127 0.0040786033 -0.004589247 0.0005629639 -0.0011327291 0.0026273269 0.0036509954 0.0010689099 -0.0020549365 -0.0010619549 -0.0022756555 -0.0019515019 -0.003267627 0.0042572943 -0.0009353302 0.004157131 -5.74174e-05 0.003649569 0.0020119231 7.663802e-05 0.0018045389 -0.0030140937 0.0011561321 -0.004388439 -0.0029695753 0.0028518592 0.00087957917 0.00367597 0.002771152 -0.004326073 0.0007942323 0.0013921662 -0.0019417226 -3.3698954e-05 -0.0042168777 -0.004296457 
NQO2	-0.0019509619 0.0022146797 0.0044418215 -0.001131647 -0.004044065 -0.0005790357 0.0030355016 0.0033518285 0.0023214065 0.0015562802 -0.0009882953 0.002988852 0.000980767 0.00400524 -0.002689932 -0.0017023615 -0.004044118 0.001293324 -0.0037555739 0.0016733943 -0.0011323385 0.0041878913 -0.002996552 0.0018409566 0.0011770754 0.00044675302 -0.00209959 -0.0035319396 0.0012940924 0.0020268532 0.003723774 0.002423575 -0.0011489391 -0.0020896008 0.002050319 -0.003577268 -0.0025958135 0.0012207258 0.0023282776 0.0042008343 0.00082601013 -0.00030365863 -0.00032858519 0.004189188 0.0030712686 -0.0014975996 0.0018705634 -0.0029842686 -0.0005228586 0.0016283154 -0.0011485314 -0.0014217248 -0.003606059 0.0008101731 0.002695545 0.00085401855 -0.0028944495 -0.0019277442 0.0043031415 0.004616645 -0.004171121 -0.004843793 0.0026013476 0.0006592968 0.0034640739 0.002438485 -0.0033825836 -0.002692359 0.003213272 0.0026972985 0.004123365 -0.00060930685 0.0016000046 -0.00039059768 -0.002647798 0.0037067966 0.0011715454 -0.0004637721 0.001718746 -0.003885667 0.0045973184 -0.00389079 0.0009263864 0.0016678096 -0.00306053 -0.001652434 -0.0019882706 -0.0041730637 -0.0037986059 -0.0039728666 0.0012158487 -0.001721191 -0.0039496156 0.0041587767 9.894186e-05 0.0025750871 -0.0035644537 -0.00393007 0.003659979 0.0048690694 
EID2	-0.0019050962 -0.0015923285 0.0044862246 0.002416416 0.003628437 0.003655315 -0.0010893533 0.0031233942 -0.0035138119 0.0038264927 -0.0030820088 0.0002206131 0.0015477099 -0.0020443588 -0.00080507394 -0.00020659472 -0.003565207 0.00033879097 0.0012178454 -0.0029708191 -0.0027031368 -0.0031242436 0.000748623 0.0048800022 -0.0029633795 -0.0037795792 0.0029767754 0.0005527187 0.0023922408 0.0023039663 0.0020231633 0.0047086617 0.0034692667 0.003534922 -0.00023504328 -0.004473987 0.00089699705 -0.003292813 0.0045154747 0.0030358841 -0.002885123 -0.0007666794 0.00017272982 -0.0049679508 -0.0044785626 0.0008981039 -0.0028866776 0.00073425384 -0.0035052325 0.004386325 0.0012610939 0.0015175492 -0.00043790837 0.0030527133 -0.00071531883 -0.0010210943 -0.0045852014 -0.003823796 -0.0035373042 -0.0006946096 -0.00071292394 0.0009832113 -0.0048796628 0.003965927 -0.003742906 0.0045427126 -0.0041649393 -0.0017359377 -0.0022910242 -0.0024010513 0.0038303714 -0.0017945854 -0.0012445813 -0.004521558 0.0013728628 -0.0013796611 -0.0008186299 -0.0019312886 0.0018631405 -0.0014015747 -0.0029001934 -0.004189584 -0.0049662036 0.0011404238 0.004898519 0.002644581 0.0008964953 -0.0028687948 0.0017915947 0.0019805164 -0.0011412685 -0.0032252027 0.0031345966 0.0017051669 0.0021120496 0.00095534645 0.000895458 0.0019552475 0.0031767434 0.0014625448 
GCLC	0.0047093434 -0.003501828 0.002196342 -0.0004832387 0.004538882 0.0010873484 -0.004097266 -0.004955584 -0.004398502 -0.0032946113 -0.004863315 -0.0017465258 0.0032216902 0.0013513984 0.0034659752 -0.0016019545 0.0040987874 -0.0035375305 -0.0038810924 0.0046440824 -4.0246967e-05 -0.0033168423 -0.004220759 -0.0034652622 0.00361991 -0.0014912098 -0.004646293 -0.0006350746 -0.003389451 -0.0049840626 -0.004822519 0.0012924877 0.0030418774 -0.0034983896 -0.0035656432 0.003211092 0.0029237212 -0.0013056938 -0.002771581 0.0005696051 0.0041867206 -3.83414e-05 0.0019353373 -0.0029831629 -0.0031088823 -0.0041832067 0.00035246962 0.0031489336 -0.0025518872 0.0022447812 0.0016780593 -0.00070439855 0.0039658346 -0.0029459065 -0.0013417014 0.0014408897 0.0026849997 0.004189723 0.0009984015 -0.0038252848 -0.0010450584 -0.0026776788 -0.0042730602 -0.004095293 0.0016633552 -0.00035751372 0.002205805 0.004490928 -0.00017052826 0.004618617 0.0014333373 -0.0038925223 -0.0037571955 -9.970616e-05 -0.004194687 0.0016192875 0.00018209936 0.004277305 0.002972697 0.0033969872 -0.0020924907 0.0034081142 0.0023672502 -0.004857449 -0.002486442 -0.0036890896 0.0021999332 0.0038120474 0.004026264 -0.0010565999 -0.0023120733 -0.0027685657 -0.0048915152 0.0049117585 -0.0013494306 0.0044069937 -0.0033024542 0.0040069157 -0.0040934137 -0.002535956 
FGF14	-0.0032023874 0.00046436107 -0.0036998456 -0.004871992 0.0016127174 0.0004865068 0.0011522928 0.0035015054 -0.00033785813 -0.0012798568 -0.004883252 0.00021241674 0.0033908181 0.0014762391 -0.003228967 0.00438413 0.0033632275 -0.0030846596 0.0046711494 -0.0035403857 -0.0015844394 0.0018321835 -0.004033704 0.0009899408 0.00013283575 -0.0044102855 0.0008025274 0.0032317478 -0.0007314737 -0.004910576 -0.0022480628 0.0014947116 0.00293312 0.0023169545 -0.0037224405 0.004696305 -0.0046200077 0.002072952 0.0038461578 -0.0042610173 -0.0036706626 -0.0009857509 -0.0015173757 -0.0017518369 0.0034356415 0.0031858762 0.0043120855 0.0006152788 0.002534971 -0.00356638 -0.0014637089 -0.004945146 0.004469563 0.0034419778 0.0026266952 0.00051807036 -0.003567241 -0.001513902 0.0033906712 -0.0026405186 -0.002245489 0.0020587228 -0.00014494281 -0.001566485 0.0020284383 0.004854092 -0.0009766835 0.0018290238 0.003480819 -0.0041867043 -0.0016306936 -0.0025485447 0.0030505958 -0.0001233059 0.0033599392 0.00065563 0.0014180269 -0.004458797 -0.0004586777 0.00058129267 -0.001771084 -0.0046724523 0.0025973164 0.0049346625 -0.004320496 -0.0009716338 0.003336202 0.0010507446 0.0035525085 -0.004098994 0.00084456307 -0.0043021557 -0.0026661397 0.00040143088 -0.003500378 0.0028331762 -0.00061452645 0.00078101916 -0.003503363 -0.003760769 
SIM2	-0.0036804553 -0.0008807837 0.003915463 -0.0031977457 0.0008944683 0.0019465955 0.0034385566 -0.00363089 0.0019653079 0.0046055675 -0.0028278683 0.000913747 -0.0045144632 0.0010119186 0.0013289725 -0.0037515252 -0.00031639624 -0.0029282388 0.0019140956 -0.0036742168 0.0006526685 -0.001109369 0.0025469451 -0.0022874686 -0.0015832379 -0.0020631913 0.0020566804 0.0031453047 0.0025007678 0.00040276788 -0.00093863846 -0.002651441 0.0020588094 -0.0007395117 -0.0011710074 0.00054973614 -0.0010677304 -0.0013562645 -0.0013441778 -0.0037743852 -0.0013747173 -0.00036422926 0.0011772458 -0.003984319 0.004758538 0.0049889823 -0.001116532 -0.00034161613 0.0027002876 0.0022306447 -0.0006417463 0.0004976492 -0.0033263294 0.0023798412 0.00084451836 0.00018405993 -0.0049594217 0.0033675963 0.0032515193 0.00014462149 -0.0014559088 0.0007076453 -0.0040893736 -0.00225304 0.0019982974 -0.004913227 0.0017180918 -0.0031755448 0.0011501183 -0.004803625 -0.001979408 0.004114758 0.004112821 0.0033438741 0.0025406976 -0.0020037536 0.002683368 0.0024497856 -0.0013990044 0.00058911846 0.00471904 0.0007305886 0.00066403905 0.0044461954 0.0038690083 -0.0027782193 0.0049537984 0.0007253911 0.00071553304 -0.000566551 0.0037330757 -0.004218445 -0.0037932105 0.0025754727 0.00094968645 0.0032521968 -0.00296438 -0.0016025917 0.0033782816 0.0004974881 
FAM13A	0.0045768335 0.0017246357 -0.003646659 0.003184713 0.004303935 0.0031426586 0.003699148 -0.00094661274 -0.0043158694 -0.0042419764 -0.004148304 -0.001511366 0.0012848874 0.0036825975 -0.0012128118 0.004127677 -0.0036090566 -0.0035885752 0.0004915793 0.0033532344 0.0015165148 -0.00013726292 -5.5654065e-05 -0.0020102756 0.0014328624 -0.0024284038 0.0026053472 0.0024774324 -0.0025710848 0.0040803757 -0.0003250419 -0.0033393868 0.0007825079 -0.0031126463 -0.00264781 -0.00079768157 0.0031186822 -0.00061619276 0.004979616 0.004867958 0.0017305335 -0.0029642764 -0.0012610182 0.0046686055 -0.0042006164 0.00355859 0.0027697508 0.0016575801 0.003836108 0.00084084214 -0.000417487 -0.0020129657 0.0032684335 0.0016455969 0.0028685096 -0.0023419359 -0.002272396 -0.001940216 0.0044364873 0.0025905292 0.0023870883 0.004887653 0.00063772773 -0.0020306131 -0.0006629212 -0.0018121323 -0.0028688167 0.0043401043 0.0005542823 -4.6810164e-05 0.0049926518 -0.0011419433 -0.002967218 0.0013319141 -0.0014381974 -0.0010198336 0.00023918535 0.0010841825 0.002378554 0.0019567457 -0.001591086 0.0036436722 0.0030030513 -0.0032357892 0.0036590616 0.001114863 -0.0017121627 -0.002294376 -0.0031424381 0.0012195859 -0.0031229432 -0.002165888 -0.0028108251 0.0028524552 -0.0046471045 0.004003943 0.0022359095 -0.001478672 0.0016153178 -0.0025412326 
POLM	-0.004657109 -0.0038349028 -0.0018047494 0.004895283 -0.0029426867 0.0009156609 0.0017315759 0.0034700779 -0.0027555225 -0.004371522 -0.0027659 0.0006602489 0.0035747536 -0.004444588 0.00046224066 0.0047250725 -0.0029698403 0.002855448 0.0002670627 -0.003978495 0.001311716 0.0034504656 0.00091238983 0.0034841711 0.0045643193 -0.00027927564 -0.0039650355 0.001169281 -0.0034187671 0.0025709255 0.0008885512 -0.0034198877 0.004910457 0.0032446384 0.0016173398 0.0038207583 -0.00055348146 0.0018556252 -0.0023931386 0.0037757223 0.002298087 0.00089332747 0.004205255 -0.0032320973 0.0018203859 -0.0039006541 0.0041910447 0.0013005118 -0.0014036632 0.0016066154 0.0017801282 0.0017470075 0.00027568196 -0.0039859395 -0.0005828839 -0.0048780967 -0.0010022155 0.0026850083 0.0032793658 -0.0038935514 0.0049306704 0.0038494598 -0.0011974672 1.9771192e-05 0.0027750146 -0.0044260947 0.0017769919 -0.0007275883 -0.00424375 0.0020573135 -5.2085325e-05 0.001868075 0.00040494974 0.0020750363 0.00038730333 0.00012179146 0.00089320174 -0.00029547984 0.004531821 -0.0023209844 0.0027566021 0.0005690772 -0.0006947438 -0.0041079344 -0.004555947 -0.0015726996 -0.0033723724 -0.003335218 0.0010153212 -0.0014953105 -0.0047934554 0.0012388681 0.0039185113 -0.0027333135 -0.0026562582 0.004071971 0.0032684286 0.00048121234 -0.00097164954 0.004014221 
KRTAP8-1	-0.004094348 0.0040780366 -0.0016871816 9.777949e-05 0.0036936235 -0.0006114344 -0.0049566575 0.0046580913 -0.0032963078 -0.004689068 0.0013715847 0.0009554374 0.0016889117 0.00013099579 -0.004624072 -0.0014028151 -0.004605199 -0.004303102 -0.0015556543 6.1390136e-05 0.0042154077 -0.004668705 -0.00058540795 0.00033600765 0.0035821756 0.0026429617 -0.003842507 -0.004966204 -0.0021059166 -0.0003493421 -0.004875199 -0.0026283541 0.0015085127 0.0012843276 0.0039630355 -0.0025512043 -0.0033804157 0.0043991897 0.004137572 0.00073233055 -0.0035529498 -0.0032157744 -0.0005440456 -0.0002795912 -0.002196361 -0.0009833699 0.00032215886 0.00395448 -0.004641948 0.00042210316 -0.0017304944 0.0039026688 0.00029267895 -0.001683761 -0.0008813651 0.00011344307 0.0012769103 0.00011701664 0.0018534614 0.004364386 -0.003133888 -0.0034282103 -0.00017921656 0.004101694 0.0047255913 0.0011371422 0.00021535906 0.003270608 0.0014243675 0.0034504011 -5.0875078e-05 -0.0019081613 0.0015800851 -0.004923563 0.00054519885 -0.0023074425 -0.00041691563 0.00056205987 0.0031413839 -0.0041277586 -0.0040061804 0.0043401932 0.00321374 -0.0048134476 0.0026104157 -0.0031857092 0.0022591033 0.0006486838 0.0016667403 -0.0017579072 -0.0005987392 -0.0011499891 -0.0017778672 0.0023089007 0.00019277158 -0.0042793183 -0.0027842293 -0.0014674937 -0.0002992627 0.0003832939 
OR51M1	-0.0035537323 -0.004897504 0.00078123994 0.00044967438 0.0046398723 -0.00056319486 -0.0008176269 0.0007828105 0.0017668572 -0.0042043533 -0.003217288 -0.0018145078 0.0018674406 0.0006859575 0.0019489487 0.0019132128 0.0044675064 -0.0027837236 0.0023413328 0.00056938815 -0.0018589458 -0.001780727 -0.0028975005 -0.0032242963 -0.0033247974 0.0011399997 -0.00095309713 -0.001539335 0.0048331087 -0.001205538 0.0018073268 0.0012974291 0.0021488874 0.0028274546 -0.0024051806 -0.0021770746 -0.002969822 0.0043599466 0.0012384163 -0.0025522406 0.00017406823 -0.003868308 -0.0012310734 -0.0049165552 0.003273477 -0.004176399 0.0011013842 -0.0008623182 0.0030061398 -0.00069372525 -0.004741022 0.0020554888 0.0047739395 -0.002494788 -0.004846047 -0.0023897265 -0.00045663 0.00059008464 0.0030111712 0.0017013602 -0.0031824731 -0.0047575 0.0010300978 -0.0010696409 -0.00023793362 -0.002547047 0.0022651937 -0.0041585313 -0.0013698955 -0.0021118177 0.00349688 -0.0036241333 -0.0010605287 0.0012048973 0.0021940873 0.0031454866 0.0044676317 -0.0027993186 0.00040226095 -0.0032078493 -0.0024662127 0.0001655693 -0.00023729065 0.0028430226 0.0021616684 -0.0034335693 -0.002634751 0.0043608365 0.003507106 -0.00045393137 -0.0021508834 -0.004465323 0.0047457363 0.004001614 0.00083526876 0.0026800868 -0.0041731666 0.002811226 -0.0020497448 -0.004615909 
TRPM7	0.0010706858 -0.002372255 -0.00045156264 0.002948928 -0.0015603405 0.0016859521 0.004306645 0.0008450002 -0.0006037858 -0.0007091147 3.546039e-05 0.0045888214 -0.00038665644 -0.00024254424 0.0029616817 0.0019744232 -0.003947528 0.0032830148 0.0014729319 -0.002626861 0.0032393974 -0.0021044507 -0.0043821926 -0.0025497763 -0.00034508444 -0.0044525606 0.0015471209 -0.00061591464 -0.0005900114 -0.004820876 -0.0029602912 0.0018848075 -0.0023370255 -0.0045270277 -0.0049059954 -0.00041994985 -0.0043382407 0.0035056104 -0.0007230137 -0.00069841236 0.0036289014 0.0036648503 -0.0018438733 -0.0022684264 0.0012398863 -0.001966123 0.0011903875 0.004707993 -0.0040593436 -0.001661327 -0.0047091544 0.003993706 0.004382762 -0.003563083 0.000911706 0.0028455658 -0.0011863002 -0.0019217888 -0.0021869317 -0.00036562938 0.004720455 0.0032596078 0.004920253 0.002853607 0.0016896619 -0.0017169893 -0.0046895803 -0.0030542526 0.00082854996 0.0033286703 -0.0015220694 0.0049376357 0.0036127751 -0.0038411596 0.0025945439 -0.0009950289 -0.0027030567 -0.0015862425 -0.00028643364 0.0033103323 -0.0020422058 -0.0014448954 0.0012655043 0.0033798867 0.0034673857 0.0022770583 -0.0045397743 0.0035865034 -0.0014521251 -0.0011469494 0.0012472951 0.0023184286 0.0049884194 -0.0014484547 -0.0024216762 0.0019391414 -0.0030697028 0.0032704647 -0.004361027 0.0008753188 
DTX3L	0.00473912 0.0012093518 -0.004871351 0.00011139432 -0.00078940584 -0.0018715337 -0.0032230979 -0.0007025055 -0.004510293 -0.0005976915 0.0028439118 -0.0031267856 0.0012505545 0.000592128 0.0039917645 0.0011895872 0.0044927737 -0.002712587 0.00446018 -0.0032780294 -0.00095426815 0.004066224 0.0031404863 -0.00052946206 0.004165795 -0.0036484902 0.0036471905 0.00043600771 -0.00056674343 -0.000168326 -0.00033997174 -0.0016533907 0.0009686219 -0.00044307704 -0.0012320261 -0.00088299747 0.00012380342 0.0026121761 -0.0011084628 0.0033400424 0.0043708305 0.004821677 -0.00083563157 0.00157868 -0.0033912945 0.001857092 0.0034908669 -0.00314244 0.00333977 -0.0035911035 -0.003637481 -0.0020193115 0.0025306807 -0.00026155522 -0.0047120093 0.003070927 0.0031335102 0.0035565256 0.0004962996 -0.0047023925 -0.0013099952 -0.0016257454 -0.0042734016 0.00086776825 8.537786e-05 -0.00031215473 -0.00080914126 0.0028754256 0.0031261877 0.0049324553 0.0029199512 -0.0040171584 0.0024539183 0.004260064 -0.0027154074 -0.0041047866 -0.0014395338 -0.00068132795 -0.0019444393 0.00027622876 -0.0031139932 -0.0004826702 -0.0030106832 0.0040403777 0.002004995 5.904735e-05 0.0038829728 0.0032321883 0.004592932 0.0002607743 -0.00045685464 4.8694717e-05 -2.814573e-05 -0.004655052 0.001070797 0.003985017 0.003031548 -0.004923419 -0.0005414721 0.0032868127 
POTEKP	-0.0039601293 -7.1540846e-05 0.002665337 0.0047007836 0.0020471266 -0.00447541 0.0031821877 -0.0049871802 -0.0016889039 -0.003053402 0.004444021 0.0035324243 -0.0018568116 -0.0030728392 0.00074720645 -0.0013601319 -0.0026748239 0.004553388 0.00027719582 0.0021600649 0.004926624 -0.0022348561 -0.0044713886 0.0005589236 0.0011297994 0.0005596205 0.0031006997 -0.003174553 -0.00096066657 -0.00039696056 0.001996674 -0.003559238 0.004451517 -0.0034367456 0.0026288799 -0.003491015 0.0019151935 -0.0012223816 -0.003291285 0.0023873225 0.00034930656 -0.0021423427 -0.0022622712 0.0014646988 -0.0030060096 -0.0024534995 0.0014480554 -0.00038912293 0.0033662128 0.00055928173 0.0027976474 -0.00446094 -0.003229433 0.0031615372 -0.00016514029 -0.0031709108 -0.0040254 0.0006794682 -0.004799885 0.0004630656 -0.00041377346 0.004952461 -0.00023198301 0.00054553314 -0.0049288576 0.00271646 0.0014462089 0.0041632554 -0.0005329729 -0.0025761577 0.0026422504 -0.0008448792 0.0031922997 0.00021839108 -0.0007553514 -0.003321809 0.0036680617 0.004501801 0.004661698 -0.0010235287 -0.002405695 0.00062622025 -0.0017287248 0.0046638064 0.0047022477 0.000901283 0.0043362705 -0.0011269369 0.0019517303 0.004798907 -0.0031278825 -0.0002417332 0.00073220377 0.0031344672 -0.0047102547 0.0027359433 0.001156571 0.00070281693 -0.0045182537 -0.004017368 
ATL3	-0.0029457537 -0.0018894309 -0.0040054973 0.001526458 -0.00031979897 -0.0016004929 -0.0030316391 0.0026342182 0.0009413232 -0.0049524466 -0.0040798583 -0.0025565163 -0.0031800368 -0.0045763473 0.003525987 -0.0012882662 0.0037849175 0.0008250386 0.00041196216 -0.0027616762 0.0020092144 -0.0016937396 -0.0027416828 0.0039251423 0.003815097 0.0006255441 0.0041966243 0.0006994076 0.000120763245 -0.0048360224 0.002729152 -0.003539855 -0.0036831186 -0.00062596105 0.0015184385 -0.0015957494 0.0015342482 -0.0008019746 0.004856326 0.0020547926 -0.0012797195 0.0023736167 -0.0006803834 0.0028381406 -0.0027168319 0.0039628246 0.0045337873 -0.0001761681 -0.0033599844 -0.0030800987 -0.0047992384 0.0023064278 -0.001041943 0.004248282 0.0018579442 -0.001459277 0.001459538 0.0031625738 -0.0036045087 -0.0011761511 -0.004602411 0.003424574 -0.00050278055 0.003479651 -0.0038491476 -0.0009992296 0.0036581012 -0.0038206717 -0.0011846438 -0.00018053167 0.00071394054 -0.0046124132 0.0026612927 0.003592589 0.004532139 -0.0042694653 0.0024571195 -0.0049034394 0.0029449167 0.0049945936 -0.00028041328 -0.0033131156 0.004037241 0.0006219623 0.00043943312 -0.0025045767 0.0049853553 8.809507e-05 -0.004744424 0.0036829088 0.0008172465 -0.00016453747 -0.002818104 -0.0013220294 -0.0020843125 0.0005637497 0.0032431874 0.002395434 0.0002499482 -0.0023189813 
CD2AP	0.0015608736 -0.004321607 -0.003644249 -0.0040331846 -0.0008036223 -0.0019046842 0.0013830566 -0.0011355517 -0.004027025 0.0033701106 0.002993004 0.0015500425 -0.0022461691 0.004120993 0.0007176863 0.004684576 0.002168366 0.0035565502 -0.003608032 0.0040335977 -0.002506088 0.002459189 0.0033744695 0.0040791347 0.0007782851 -0.0015069152 0.0006517519 -0.0030784295 0.0032241237 -0.002278878 -0.0040964596 -0.0035958488 -0.004249028 0.004274404 0.0024174468 0.0016715538 -0.0012490309 0.0039858855 0.002147452 -0.0035491125 -0.00013483074 0.0024059254 0.0028820795 -0.0047866907 0.0047861943 0.000719115 -0.0021464685 -0.0014767156 -0.0037653167 -0.0009206347 0.0029973877 0.0003091664 0.0031652665 0.0023964574 -0.0025331455 0.0021920272 -0.0028107238 -0.0022820788 0.0005366619 0.00038157264 -0.000357587 -0.0043053105 -0.004396217 -0.0017839088 -0.0033767363 8.9128334e-05 -0.00035524878 0.0029355101 -0.0027550873 -0.0035845533 -0.004778162 -0.0042406186 0.004701659 0.004660492 -0.0035470503 -0.002692969 -0.002966349 -0.0005271696 -0.0001900353 0.0038651591 0.0041473494 0.004583567 -0.0041651153 0.0018328951 -0.0008115897 -0.001650354 -0.00016074046 0.00039955304 0.004487847 0.002545491 0.0020697094 0.0028079438 -0.0010899666 -0.0045060646 0.0016992927 0.0030893697 -0.0013037922 -0.0015611638 -0.004800194 0.0012762473 
DHODH	0.0046570767 -0.0038611672 0.00034557827 -0.0018122148 -0.0030503597 0.0036483125 -0.000506992 -0.0034422288 -0.0013720391 0.0044517065 0.0038238452 -0.0028289354 0.004581651 9.655139e-05 -0.003054079 -0.00017265309 -0.0020319207 -0.00082274724 0.001354791 -0.0023467129 0.00305461 -0.00081258744 0.0021801742 -0.0029012403 0.0039872 -0.0012788253 0.0037051255 -0.003029009 -0.0019988588 -0.0041151755 0.0031205618 -0.0032316493 -0.0018963203 0.00446492 -0.001456208 0.0031933736 -0.004317955 0.0022272517 -0.0035651266 0.004048617 0.0042783185 0.003973568 0.0031783544 -0.004084689 0.0020337114 -0.003549915 0.0015630207 -0.0038888971 -0.00015735468 0.0049444693 0.0003287103 0.004572466 0.0032947382 -0.0009405637 -0.0010545305 0.0022548733 0.0049554855 -0.0021768827 -0.0024590117 -0.004228319 -0.0019462632 -0.0011497826 0.0042795297 0.0043336162 -0.0006446778 0.0002658552 -0.0042888704 0.0048135063 -0.0041068783 -0.0021857661 -0.0016284009 0.0019567052 0.003612892 0.004392832 0.0027663205 0.0014802663 0.0010443986 0.00023155345 0.0025247592 0.0026470374 -0.0005598346 -0.0018277706 -0.0020756067 0.002636079 0.003125538 0.0024297987 0.0025164916 0.000733589 0.0049894205 -0.002885055 0.002827198 -0.0007856303 0.0021648312 0.0014545494 0.004292122 0.0019186194 0.00078579865 0.0024159513 0.0022184947 -0.00069260865 
GLI1	-0.0019581951 -0.0028130426 0.003529814 0.0029424776 -0.00095727236 0.00077133597 0.0016227339 -0.0005327861 -0.00066586846 -0.0004167073 0.0044385456 -0.0011145532 0.004241105 0.0016512488 0.0025369143 0.0039235265 -0.0025239096 0.0044093505 0.0001761446 -0.004887297 -0.0022038065 0.004418902 0.0025366892 8.769598e-06 -0.004939094 0.0048218397 -0.0006826567 0.004353188 -0.0013506238 -0.00022583909 0.0049750153 -0.0049534906 -0.0028471868 0.0028153693 0.0036335115 -0.0018280355 0.0023699154 0.0021638973 0.004682846 -0.0003687091 0.00032992125 -0.0008723909 -0.0027102141 0.0010943282 -0.0043733437 -0.0029012721 0.001640956 -0.0021173588 -0.0028070712 0.0007110596 -0.0022984713 0.0032106382 0.0037530318 0.0030732548 -0.001072295 -4.7046145e-05 -0.0047938265 -0.0013061363 0.0011169958 0.0022210719 -0.0043598246 0.003638484 0.00015176466 -0.0021388077 0.0016806079 0.00033264363 0.001480733 0.0035471995 0.0005376369 -0.000306025 0.0031078036 0.0034533397 0.0013483029 0.000341217 -0.0013184295 0.0030998092 0.0049693226 0.0033329006 -0.004406783 -0.0018856651 -0.0041801315 -0.00045107448 -0.0024479136 0.0025104608 0.0013653068 0.0026393635 0.004488293 0.002856596 0.00460015 -0.0016423188 0.004852925 -0.00019359546 0.0014494905 0.0047289715 0.0039008085 -0.0026405423 -0.0015143997 0.0012208078 -0.0036745414 0.0014483897 
MAML3	0.00046610093 -0.0029502572 -0.00075973617 -0.0043463847 -0.00183888 -0.0008150645 0.0032562607 0.0032020193 0.0034798244 -0.0019302664 0.0029503917 -0.0041439296 0.002956649 -0.0023178686 -0.0048005087 0.0027168638 0.0047357827 0.001527279 0.00059657 0.0029921792 -0.004842938 -0.00094129395 0.0047890465 -0.0036066389 0.003081387 -0.0039189616 -0.0046725255 0.00319232 0.0023928198 -0.0005545731 0.0006210997 0.0026460942 0.0022810998 -0.0029419514 -0.0008441205 0.004876486 0.0016446182 0.0012781797 0.00022004703 -0.00088491244 -0.002583047 0.002157522 0.004365271 0.0006185643 0.004162537 -0.00029089965 -0.0035547584 0.0021311382 -0.0030552766 0.0003869405 0.004818632 -0.00012667151 0.000785059 0.0027953296 -0.0021942141 0.0012602403 0.00029887233 6.615237e-05 0.002782912 0.0034843346 -0.0037473864 0.0023129808 0.004893077 -0.0008644655 0.003571215 0.0043707914 -0.00021216758 -8.6609594e-05 0.0005942163 0.004666805 0.0047169873 0.004391164 0.00084950164 -0.0036710477 -0.00081416836 -0.0016587503 -0.003010409 -0.0025276642 0.000999578 0.0014208684 0.004316332 0.0012434945 -0.0044161337 0.00086561334 0.0012543114 -0.0018760042 0.0018938709 -0.0016994352 0.003621247 -0.0022845077 0.0010036121 0.0035008132 -0.0034108239 -0.004303514 -0.0043127993 0.002518315 0.004049409 -0.0024787209 -0.0006072229 0.0034145624 
DMD	-0.00051248673 -0.003779005 -0.00038895692 0.002498822 -0.003134357 -0.004788516 -0.0040874816 -0.0031705431 0.004435013 -0.001320554 -0.0015317812 -0.0023363016 0.00019819339 0.0019649044 0.004539961 -0.0024091164 -0.003308747 -0.0032446852 -0.004523146 0.004199033 0.0005243376 -0.003000376 -0.0019807862 -0.004435923 0.0008627097 0.003141366 0.0017266731 0.0028255077 -0.0044781896 0.0017934791 -0.0035699292 0.0037448676 0.00215579 0.0037972915 0.004275985 -0.0026480372 0.0010860369 -0.000479761 0.0022764213 5.656617e-05 -0.00031200322 0.0048957453 -0.0036006914 -0.0012447805 0.0012634123 1.6251928e-06 0.0023464775 -0.0018743858 -0.0035845358 -0.0018180207 0.0038887109 0.002250278 0.0039872555 -0.004836299 -0.0014270284 -0.0044509764 -0.0023655954 0.0036274446 -0.00245104 -0.004140367 -0.004515591 0.0049105664 -0.00058717956 0.002593685 0.0025480934 -0.0034980183 -0.0011712292 0.0009704969 0.0033534097 -0.002180444 -0.0002587058 -2.532276e-05 -0.0018941899 0.0038078777 -0.004834561 0.0037751778 -0.0014892343 0.0029765735 -0.004010395 0.00050953304 -0.0046794578 -0.0042777825 -0.0025049448 0.0030568906 -0.004935104 0.0017740459 -0.0018122056 -0.004069248 -0.0008275779 0.00021839493 -0.0022070613 -0.002593625 0.0019185334 -0.00037708814 -0.0023967468 0.0033327888 -0.0016545334 0.0033323143 1.4922422e-05 -0.0006554905 
NOL8	0.000590662 -0.0032031198 0.0013822528 0.0030789913 0.0006156634 0.0035079685 -0.002816169 0.0017263822 0.0038728314 0.0032764978 -0.0022216856 -0.0008884317 -0.0020725238 0.0029789098 0.0033326005 -0.0025755654 0.003930938 -0.002638918 -0.0022401079 5.3910146e-05 -0.0047064587 -0.0017913148 -0.0034894235 -0.003109989 0.0020002127 0.0022954338 0.004999745 -0.0020878785 0.0005466514 0.0019648299 0.0017181407 0.001985529 0.003175853 0.003261789 -0.0011963294 0.0011636137 0.00015960503 0.0015951733 -0.0033848514 -0.0022032757 -0.0048618643 0.0028508983 0.004980318 0.0031837106 0.00217057 -0.0009164643 -0.0023954508 -0.0018633973 0.0019010735 -0.00018161228 -0.00468677 -0.0010904087 -0.004874024 -0.0036879543 0.0014327584 -0.0017099276 0.0010051677 -0.001464268 0.0033668864 -0.003952459 0.0026522637 0.0037263874 0.0028675986 -0.0030299756 -0.003421049 0.0040439884 -0.0025401697 -0.003320156 -0.002209645 -0.0011451024 0.003128636 -0.0014396571 -0.0042321947 -0.0022806872 0.0034812272 -0.0016778097 0.0022311271 -0.0012632575 -0.0027745473 0.0033338242 -0.00025748514 -0.0014756444 -0.0009571026 0.0022463617 -0.00035430145 0.0019841911 0.0013146552 0.001464452 -0.0007052389 -0.0008676145 -0.00053457 -0.004054009 0.0006664757 0.002123236 0.0019167969 -0.0018144445 0.00340732 0.00014572874 -0.0020876885 5.306065e-05 
TUSC2	-0.0049089156 -0.004685389 -0.0042085703 -0.00441474 0.004475 -0.0032062817 -0.0019073138 -0.0026970548 0.001324851 -0.0026470846 0.004981942 -0.0014950996 0.0044002216 0.0045462046 -0.003911819 -0.00026434887 0.0003918573 0.0021777465 0.0029165053 -0.003199101 0.00088521576 0.0036537298 0.00015029171 0.0032069467 0.0028045068 0.0036868209 -0.0029962948 -0.0039957007 0.002332523 -0.0037829312 -0.0018452632 -0.0008020894 -0.000636872 -0.004462749 0.0034422465 0.0038425275 -0.0008914691 -0.004795556 0.004729237 0.003130676 0.0028804145 0.0017549641 0.0021805556 0.0022698257 -0.004758752 0.004064381 -0.0011825344 -0.0031714488 -0.0014074368 -0.004013029 -0.0013229274 0.0017609566 -0.0022863203 0.0040133214 -0.00042709432 0.0034689913 -0.0020838408 -2.6272044e-05 -0.00024352262 -0.0039617214 -0.0036926859 -0.0036869836 0.0039529097 -0.00087812374 -0.0037066184 0.0042365897 -0.0025752133 0.00045101964 -0.003365582 -0.00024487314 -0.0006631362 0.0024550841 -0.0023771976 0.00085970183 -0.002474076 -0.0039313408 0.0027038676 -0.0044895923 0.0008886197 -0.0010109002 0.0022894298 0.0024001042 -5.4646272e-05 -0.0012079453 -0.0008500269 -0.0030988494 0.0020393103 -0.004821127 0.0036797412 -0.0019403917 0.0038070516 -0.0037430164 0.00401911 -0.004518085 -0.004661425 -0.0029936507 0.0020715736 0.002046223 -0.00057519885 0.001391405 
ADRA2B	0.00077055744 0.0007821876 0.0018292576 0.0042124353 0.0011100706 -0.00016027788 -4.802676e-05 0.002546292 0.0047421567 -0.0036544483 -0.0037941632 0.0044181445 0.0029551527 0.002200059 0.00051296526 0.0036443681 -0.0031092186 -0.0014260588 -0.0033420178 0.0013075476 -0.0021544837 -0.00028569248 -0.004819572 -0.0020107809 0.0014886556 -0.0042635202 -0.0018087314 -0.003585071 0.0044218428 0.0017875832 0.0032578 0.0023440935 0.0034180724 -0.0012464629 -0.0031049713 -0.003827666 -0.0039728344 0.0028318558 0.0010384177 0.0010856976 -0.00032927547 -0.0043248297 0.0027797685 -0.00051860814 -0.0040895594 -0.0031319412 0.0026499499 0.0014503242 0.0037439496 0.0030111999 -0.0034354532 -0.002880057 -0.003393865 0.0031166964 0.004839426 0.0029416583 -0.0012812844 0.0028332479 -0.0010345975 -0.0036398168 -0.0043282197 -0.0006211731 0.0031414668 -0.0013284604 -0.0030893367 -0.0037884181 -0.0037238658 -0.004048129 -0.00435077 0.003602896 0.0045911507 0.0011591407 -0.0018743413 0.00034931197 0.0048122527 -0.002754529 -0.0011732372 -0.0034599402 0.0047435085 0.0019126161 -0.0010824417 0.0022966142 0.0022931963 0.0032012723 -0.0010337102 0.0025865925 -0.0019154932 -0.00043354186 8.203867e-05 0.002494671 -0.001027765 0.004131673 0.0045111813 -0.0021186555 -0.0047452385 0.0021567685 0.00063976547 0.00067780254 -0.0018381809 0.0012364725 
MAS1	0.0008471499 -0.0016277451 0.0029766823 0.0012720176 -0.0013874506 0.0036620714 0.0017282268 -0.00013947711 -0.0014537587 -0.0028684638 -0.00271178 0.00024306156 -0.0012660008 -0.0017024295 -0.003225024 -0.004861027 0.0034861914 0.0040381704 -0.00086773006 -0.0038911009 -0.0025068028 0.0027180684 -0.0026589944 -0.0048545063 -0.004305116 -0.00030960765 0.004144111 0.0001355702 -0.00023614433 -0.003240089 -0.002528686 -0.0032027538 -0.0024384107 -0.0039452473 0.0043104733 -0.0041540405 0.0027095296 -0.0038573812 0.0031583481 -0.00070977607 0.0032166555 0.0044680894 -0.0014776041 0.0006288472 0.0035811726 -0.0047914498 -0.003990045 0.000533343 -0.0036562148 -0.0023036646 0.0016370803 0.0023451378 -0.0030868591 -0.003629596 0.0018161995 -0.0030863986 0.0006421448 -0.004175244 -9.5179974e-05 -0.00022611527 -0.0044306987 -0.0037734825 -0.004509451 -0.0023502398 -0.0010400439 -0.0046729553 -0.0031915044 0.004915439 -0.0025035453 -0.0014415615 -0.0018961286 -0.0025182678 -0.002855682 0.0007996218 0.0030990525 -0.0018293388 0.0046815937 -0.00011093947 -0.00020148129 -0.004638824 0.0013246196 -0.0034180258 0.0005931891 -0.0031490887 -0.0034035302 -0.0010039387 -0.0029422857 -0.002544666 -0.003169307 -0.0028311943 -0.004698644 -0.0030256067 4.5689943e-05 -0.00416218 -0.0030677498 -0.0026764115 0.0036485754 0.0012201649 -0.00149506 -0.004382499 
PTGFR	0.0028284325 0.003798063 -2.9297522e-05 -0.002447813 -0.0021795153 -0.0034766374 0.004220688 0.002868119 0.004296485 -0.0015305784 -0.0042772535 0.00015254063 0.004573397 0.002888406 -0.0015189645 -0.0013892894 -0.0025366864 0.00414681 -0.0043893983 0.0044925795 -8.9749265e-05 0.0047894004 -0.0048698527 0.0046403087 0.002881899 0.0035949775 0.0040810406 0.0006271263 -0.0041040843 -0.0048827594 -0.0039735995 -0.002445008 -0.0025037332 0.0024729203 0.003557959 0.0023428646 -0.0031444314 0.003852008 0.00015496784 0.0011489599 0.0006641009 0.001930584 0.0016075463 -0.0031638548 0.0035019729 -0.0021754866 -0.0010578048 0.0024675836 0.0010927179 -0.0035036218 0.0008630379 -0.0031712542 -0.0016723952 -0.0009708265 0.0023438828 0.004381991 0.0004823559 0.0008097749 0.0046687233 0.001795691 -0.0036097132 -0.004655916 0.0025831945 -0.0032851894 -0.00015002434 -0.0045506656 -0.0043102102 0.0036924076 -0.0021484299 0.0031489667 0.0038566845 0.00040981226 -0.0018028609 0.0025353732 0.0033961905 0.0035113404 -0.002064107 -0.004666084 0.0040933415 -0.0013597406 -0.0032758198 -0.00073191756 -0.004141416 0.0047497004 -0.0043083406 0.002501685 0.002641696 0.00078176317 -0.0031220056 -0.0010408732 0.0016571722 0.0020590238 -0.0020229497 0.0011980175 -0.0045247134 -0.002938953 0.0027132405 0.0017119172 0.0020175474 0.00020046538 
FOXL1	-0.0005753377 0.0044780825 6.0740527e-05 0.0039334935 -0.0030793569 0.0020598175 -0.0032578157 0.0042240643 0.0021152112 0.00061034394 0.0045847967 -0.003973974 0.00010714497 0.0017085547 0.00084639015 -0.0035049038 0.004446268 -0.0047345585 -0.0018497014 -0.0038864748 0.0015385395 0.00486402 0.0013921452 -0.00422816 -0.004987318 -0.003952096 -0.00025104484 -0.0033270023 -0.0008800929 -0.0037385835 -0.0046003354 -0.0021763653 0.004239486 0.004877682 -0.002722584 0.0047317035 0.00033876466 0.0023810961 -0.00019457283 -0.004500923 -0.0019614957 0.0033455037 0.0021245352 0.0034358257 0.004920609 0.0042617014 -9.7672266e-05 -0.0002880271 0.001381405 -5.6373447e-05 -0.0047629145 0.0039008923 0.002440507 -0.00013852426 0.0044759493 -0.0011584423 0.004571188 -0.00026756513 -0.004175173 -0.0013755417 0.0013359436 -0.004206289 0.0014002954 0.00034824453 0.00044497618 -0.0032324565 -0.0026228917 -0.0023091559 -0.0029333998 0.004689366 -0.00087060506 0.0008568168 0.0025882057 -0.004380628 0.0012536875 -0.0016938662 0.0042684977 0.00264621 0.0013206693 -0.0004314505 0.0039915005 -0.0038998413 -0.002843383 -0.0025424275 -3.190628e-06 0.0020804345 0.00035547375 0.00086605886 -0.0015998125 0.0020618504 0.002548847 -0.0021171717 0.00049053796 -4.2859923e-05 -0.0018774307 0.0036830783 -0.0018162144 0.0005588881 -0.0037253883 0.00020440694 
ICOS	0.0006484056 0.0042615687 -0.0019888368 0.00420712 0.00036777178 0.0034709352 0.0004715483 0.004496425 0.002161409 -0.0035884099 0.00087124034 0.0025295685 -0.0022196325 0.0023699093 0.0016448098 -0.003420471 -0.004168747 -0.003964949 -0.004164103 0.0042567756 0.0006031472 0.004333411 -0.0030444644 -0.003981537 -0.0037611756 -0.000301984 0.000746641 -0.00052992796 0.0036218166 -0.0013895337 0.0028679802 -0.0039521987 -0.0036593243 0.0015975335 0.0046466836 0.0019350525 -0.0049785594 -0.0013982902 -0.00042594335 -0.0017815377 0.0016332674 0.0027908047 0.004847795 -0.00453197 0.0034262768 0.0041822917 -0.0019122238 -0.001959408 0.004507829 -0.0038978178 0.0019220245 -0.002065925 0.004607532 -0.0049986993 -2.6339918e-05 0.0048550065 -0.0010025885 1.3140335e-06 0.0044821627 -0.0017418971 -0.003580921 -0.003562593 0.00033462857 -0.00025277692 -0.00067876163 0.002613714 -0.0037963418 0.0015463411 0.0021611522 0.0038679175 -0.0046585244 0.0006155559 0.0032834117 -0.00025351293 -0.004093008 -0.00038145707 0.0033345895 -0.003337902 0.0008936148 -0.0040716645 0.0048787156 0.0019452386 -0.0039024511 0.002329257 0.0003524954 -0.0021351716 0.0035376628 -0.0046711736 0.0046061496 -0.0049943817 -0.0042542373 -0.0022535394 0.0012385412 -0.0012492124 0.0034560391 0.0025643469 0.0012825747 0.0012274878 -0.003352942 -0.0013467702 
MLLT1	0.0045325127 -0.0037846414 -0.0037151265 -0.0043359487 -0.0046108165 0.0036823663 0.00089901075 0.003444157 0.0012627966 0.0008552727 0.0035152016 -0.0034866473 -0.003414352 0.004307153 0.0025251133 0.002175629 -0.0049390085 -0.0015708111 0.0037632294 0.0016434317 -3.392267e-05 0.0028564364 0.0038814207 0.0029392147 -0.004402747 -0.004941063 -0.0023362846 -0.004664351 0.00052817044 -0.00433695 -0.0042943787 0.0011329093 0.0035009945 -0.003310419 -0.0004763477 -0.0017230407 -0.0024466356 0.00090604654 0.0023396846 0.0015241418 0.001150535 0.0008154843 0.0021411348 -0.0014284366 0.0029424913 -0.003658916 -0.004635518 -0.004711373 -0.0024608492 -0.00043443684 0.0030445596 0.0023802356 0.00059065194 0.0041271276 0.00049884187 -0.0019806304 -0.0035854839 0.0027227723 0.0015232445 0.0031687813 0.004821283 0.0030981016 -0.0006697396 -6.281808e-05 0.004252586 0.0028995837 -0.00062424404 -0.0034758993 -0.0006995243 3.0745312e-05 -0.0006949445 0.000707682 -0.0029367465 -0.00080608967 0.0048401854 0.002045921 -0.0032038847 0.0014503718 -0.0013510566 0.0029073858 -0.003937623 -0.001995919 0.0042512766 0.0028665543 -0.00051294354 0.0016521058 0.0024350528 0.0010068368 -0.00074425666 -0.001492281 0.0025976112 0.0011634004 -0.0041162916 0.0036152292 0.0029162888 -0.003873901 -0.001889462 0.001401248 0.0049499874 0.00014504408 
ETV7	-0.004759531 0.002266757 0.0026198325 0.003412937 -0.00044406732 0.003363216 0.0019749478 0.001309067 0.0039221183 0.0033463072 0.003071056 -0.00016210061 0.0011823158 -0.00071938836 -0.0037336892 -0.003471674 -0.002372645 0.004277766 0.0038307938 0.0037706902 -0.0018579464 0.0034541062 -0.0023046902 0.004554131 -0.002150399 0.0029723186 0.0036580176 -0.0036137383 -0.0049451203 0.0036598006 0.0031526396 0.0037208234 0.004539328 0.0023902464 -0.0026000969 -0.0019403864 -0.004623749 0.00017423721 0.0006651225 -0.0011910553 -0.0038599933 -0.004267037 0.003809164 0.0042892112 0.0025568833 0.003997 -0.0012098465 -0.003632309 -0.00075567944 0.0012386165 0.0003997942 0.0032209984 -0.0022955048 0.0016276224 0.00035099656 -0.0012451333 -0.0015337713 0.0032242886 -0.0001258505 0.004804454 0.0037478434 0.002346915 0.0008229043 -0.0034562536 -0.0046657836 -0.00019099019 -0.002297546 -0.0005985328 -0.0024738961 -0.00074653514 -0.002494265 -0.003062607 0.0031847071 0.0045723864 0.001906067 0.00275362 -0.0027965496 0.004991061 -0.002130534 0.0036864046 0.0031798917 -0.0035326593 -7.820714e-05 -0.004871939 -0.0039479886 -0.003039159 -0.004749551 0.0018245805 -0.0017415109 -0.0015329102 -0.0011633879 -0.00062760204 -0.001879804 0.00402321 0.0046378826 -0.0024154389 0.0018803828 -0.0035119485 -0.004003022 -0.004234015 
OR4S1	0.0012004955 0.0010115437 0.0026876999 -0.0039572706 -0.0024682034 7.741942e-05 -0.0025582497 -0.0021776117 0.004441366 0.004438592 -0.0010265874 -0.0005675851 0.004000696 0.00434176 0.003907738 -0.003507559 0.0028252178 -0.00043775392 -0.0048586605 0.004071432 -0.001680949 -0.0019802798 0.0007071114 0.0022645516 -0.0029534076 -0.0039846217 0.0020468493 -0.003502247 -0.0019216357 -0.0019182129 0.00013822138 -0.0011069711 0.0032658207 -0.0045570317 -0.0040415144 -0.0035973762 -0.0049057296 -0.0044777095 0.003671292 -0.003947529 0.0039037685 0.004772384 0.0012504683 0.003306023 0.0047827335 0.00023322088 -0.0038625477 -0.004162162 -0.0029694452 0.004419375 0.0022511028 -0.0014685435 -0.0013205719 0.0044075074 0.0010698317 0.0047977315 -0.0010360786 -0.0015850023 0.0018493948 -0.00211768 -0.0042872997 -0.00031730777 0.0008350742 -0.0027600878 -0.0032269184 0.0048796833 -0.003398588 0.004027994 -0.0030714697 -0.0017045501 0.0028054842 0.00020215625 0.0006721606 0.0049602706 0.001243264 -0.003927466 0.0024149548 -0.004519618 0.0033440592 -0.0006052026 0.0048699863 -0.001096218 -0.0024944465 0.0003257561 -0.004764498 0.0019871849 -0.0042351186 0.00087743695 0.0036363576 0.0018048367 -0.0026596023 0.0014083146 -0.0017360583 -0.00081185414 0.0022682766 0.0038043757 -0.0039122896 -0.0043990226 -0.0015611608 -0.0016363045 
HSPG2	0.0048190695 0.0005305891 -0.0048380713 0.00069219165 -0.0028663508 0.00460406 -0.00073148287 -5.487478e-05 8.214687e-06 -0.0035397194 -0.0027886326 0.0018791918 0.0036438506 -0.0013503684 -0.004611737 -0.0031019652 -0.0018866151 0.0016877633 -0.0023081354 0.0022863178 -0.0044392934 -0.0002554371 -0.0025470916 0.003546858 -0.0003630378 -0.0021834394 0.0017791231 -0.0004451601 0.0013461803 -0.0014732025 -0.0012108475 0.0026151617 0.00019627408 0.0035029575 0.0023804537 -0.004846657 -0.00050976494 0.00332176 -0.004719567 -0.003071944 -0.001222056 -0.003095856 0.0012401148 -0.0023886457 -0.004417057 -0.0012235361 -0.002841276 0.0017455777 0.0049232673 0.0017067362 -0.0035899843 -0.004677866 -0.0009221731 0.00012534775 0.0022927646 0.0009558144 0.003596846 6.396218e-05 0.0044323867 -0.0045773275 -0.0016504377 -0.00018393963 -0.0026270014 0.004037902 -0.0006206177 -0.0033681414 -0.00038904435 0.0016662723 -0.0024010604 4.8301306e-05 0.004706924 -0.0046677603 -0.0049735373 0.0021783921 0.0031178806 -5.118123e-06 0.0031964835 -0.002248077 0.0014908821 -0.0035646108 -0.0006857437 0.00028268842 0.0015777504 -0.004929972 -0.0026513827 -0.003418953 0.002122857 -0.0009178988 -0.0025981483 0.0010231858 0.003841653 0.0008914726 0.003806362 0.002307618 -0.0033977956 0.0032516082 0.0048513087 0.0027318778 -0.002006411 0.0014169345 
PEMT	0.0008655353 0.0031502927 0.00040344638 -0.004035952 -0.0017225136 -0.002321729 0.0019425071 -0.004188228 0.0015084676 0.0028515137 -0.0006928766 -0.0033063316 -0.0023788959 0.002636744 -0.0048201717 0.002047345 -0.0011891319 -0.0043921755 0.0026598233 0.0018956816 -0.0019524897 -0.0043769698 0.0010583021 0.0017563833 -0.0019164648 -0.003251392 0.0030719773 0.0027108542 -0.00030812703 -0.002227604 -0.0037838044 0.0007124935 0.00024238868 0.0030768702 0.0021792583 -0.00052563386 -0.0028766422 -0.0029942235 -0.003760656 0.0011337129 0.00047884733 -0.0019741799 -0.001970237 0.0022899222 -0.0021883347 0.0005453349 0.000164307 -0.0032908563 -0.0042650783 -0.0017668724 0.0049520987 -0.003990026 0.0032513088 0.0017738843 -0.001649402 -0.0031187544 -0.0035868792 -0.00051840546 0.0039487616 0.00038664287 0.004309482 -0.001954206 -0.0009374604 -0.00070394337 -0.0037490528 0.0011794734 0.0047401283 -0.00050169555 -0.0027080893 -0.0022930016 -0.004141382 0.0021198976 -0.0020803604 -0.0011408821 -0.0018461668 -0.00021027852 0.0033088296 -0.0043596397 -0.0016349044 0.0013457793 0.004360139 -0.0028596716 0.0036951979 0.0027309589 -0.003272489 0.000928618 -0.0006433083 -0.0013476744 -0.00012901981 0.0028537505 4.659633e-05 0.0031498983 0.00086418487 -0.0026119305 0.0037756907 -0.0019123629 -0.00036213183 0.0017380276 0.004397252 0.0015545363 
BST2	0.004938288 0.0025143 0.004864048 -0.0015946035 0.004556765 0.003645874 0.0010493707 0.00056421134 0.00490748 2.69703e-05 -0.0018984067 -0.00081430934 -0.0025660656 -0.0032357161 0.00011089443 0.00074419 0.0019532223 0.00024162767 -0.0025665837 -0.00034877777 0.0037870689 0.00039157548 -0.0014298029 -0.00022140793 -0.00034902882 -0.0012184925 0.0036492418 -0.004973339 -0.0007467498 -0.003022826 0.0036082368 -4.7229547e-05 -0.00041730914 0.0017205391 -0.002469659 -0.0021087357 -0.0036378466 -0.0038488924 0.0012046582 -0.003595241 0.0025802325 -0.0012092349 -0.0030601167 0.0036841494 0.0010541469 -0.0030286969 0.003793844 -0.004311902 0.0016424349 -0.0016673275 0.004286748 0.0011377187 -0.00068263797 0.0046739276 0.0043920823 1.1362204e-06 0.0011663745 -0.0018599236 -0.002514599 -0.0014163082 -0.0008101019 -0.004809846 0.0033759845 -0.0029833429 -0.003076651 0.004494103 0.003252655 -0.0041893357 -0.002701475 -0.0011767468 0.003475561 0.0025609913 -0.0033611357 -0.0023657044 -0.0037571865 0.0035821511 0.0028110065 0.0038725983 0.0035984507 0.004221012 0.00074000395 0.003051295 -0.0045531015 0.0019226992 0.0047157756 0.0030256913 0.00015175238 0.0013369787 0.0014521735 -0.002443901 0.0016086724 0.004104623 -0.003389679 -0.0031659724 0.00404657 -0.0002001798 0.0040412406 0.0020208526 -0.0043193 -0.0003147441 
PRKACG	-0.001184828 -0.0019643616 -0.0007826176 0.0025187375 -0.0043142634 0.0009508253 -0.0029833294 0.0016241178 -0.0018183951 -0.0004580965 -0.0019150802 0.0009781729 0.0024409248 0.0042420886 0.0023527401 -0.0035724246 -0.00042306443 -0.0028376447 0.00033810135 -0.0030933532 -0.0014171951 -0.0049413894 -0.004507786 -0.004043916 -0.0018319419 -0.00053275225 0.0032767418 -0.0037264125 -0.0022830444 0.002128849 -0.0031548487 -0.0010239865 0.004804359 0.0025598085 -0.0016123601 0.0044322717 -0.002628558 0.0049468423 0.00033530671 0.0009678871 0.0045453385 -0.0018068572 0.0014401686 -0.0021466403 -0.0021065085 0.0048073563 0.0026076557 0.0007351156 -0.003546193 0.0010507338 -0.0031470975 0.0010985191 -0.0031339433 -0.0011227136 -0.0016438597 -0.0003983595 0.001332513 -0.0015993773 -0.0046845707 0.0023259346 0.00064560765 0.0041937 -0.004901455 0.002085636 -0.0013415271 0.0021389523 0.0003216065 0.00013660817 -0.0042873817 0.0021515586 -0.0016169265 -0.004987066 0.00038473718 0.0010724185 -0.0019486485 0.0047710305 -0.00083974533 0.0038866494 0.0047264346 -0.0026337332 -0.0012548829 0.0026894147 -0.0038929493 0.0038784642 -0.0049755266 0.0043451064 -0.0022871702 0.0026733666 -0.0046535362 -0.002726259 0.000922439 0.0029591504 -0.0028116794 -0.0013237728 0.00026507417 0.0010402548 0.0005155097 0.0006111564 -0.0014770067 5.2348346e-06 
PRM1	0.0008481847 0.0024642607 0.0029382564 -0.0010207302 0.002680929 -0.0031088393 0.0040560868 0.003095673 -0.004111597 0.00027716253 -6.585615e-05 0.0006974875 0.0021886185 -1.04789015e-05 0.00034984853 0.0045503816 -7.947659e-05 -0.004794004 0.0040270546 -0.0035560871 -0.0022174306 0.004923173 -0.0022075542 -0.0015513602 0.002068056 -4.9580027e-05 0.002225126 0.0032153074 0.0019876393 0.0047617457 0.0033511657 -0.0018590273 0.00394673 0.0022810753 -0.001419688 0.0034778183 -0.0007289706 0.0030719067 0.003424787 -0.0012341045 0.0046544042 0.00069072685 -0.0023633793 -9.486639e-05 -0.0039081024 0.001348493 -0.0030437743 -0.0047821095 -0.004017083 -0.0007507172 -0.0043787975 -0.0015865957 0.0004119182 0.0037983886 -0.0026124234 0.00099486 -0.0005383302 0.0019123424 -0.004843157 -0.0046787686 -0.0040209247 -0.0045103757 0.0030408248 -0.0040856837 0.0015013388 -0.0030297854 0.00037198313 0.0034988832 -0.004056965 -0.004514902 0.00014970113 0.004883081 -9.790513e-05 -0.00013269545 -0.00054728927 0.004985821 -0.000895193 0.0025368894 -0.00426012 0.00064011256 0.0011028455 0.0026499208 0.004879314 -0.003513255 -0.0036849072 -0.002705288 0.0013200637 -0.0028694812 -0.0007294966 -0.004571959 0.004509582 -0.00207699 0.0020574848 0.0040725544 0.0003807077 -0.0014959637 0.0046421415 -0.00096595584 0.0011860201 6.603285e-05 
MDH1	0.00024035132 -0.0023754458 0.0029354314 -0.0017712931 -0.004027712 -0.00084491755 0.0017817477 -0.002833072 0.0025269454 0.00114374 -0.003294931 0.0029769158 -0.003745786 0.004397799 0.0037015209 -0.00066644995 -0.002315578 0.0036740277 0.0003308674 -0.0027869304 -0.0023173306 -0.0034320303 0.002480169 0.00091034285 0.0020104095 -0.0018618293 0.004619969 -0.0044127707 0.0009514013 -0.0022096802 -0.0019320662 0.0013706468 0.00035930146 -0.0009686774 -0.0010747581 0.001409643 0.0027188724 -0.00488735 -0.00073974713 0.003906101 0.003991661 0.0026096413 0.000319588 0.0020927365 0.0027343722 0.0003105294 0.0038369768 -0.001815613 -0.0027491038 0.0041062045 0.004659232 -0.00034086863 0.00048742953 -0.0034734495 -0.0041095736 0.0046781437 0.0018405569 0.00052422506 0.0006443022 -0.0030269683 0.0016043838 -0.0015428485 0.0048010047 -0.0044554714 0.0026168518 -0.0016396103 -0.0032443223 0.00048414647 0.0016959612 0.0006376505 -0.0046868646 -0.0010140806 0.0017508377 0.0017731035 -0.004329065 0.00090405345 0.0013258536 -0.003816018 0.0029161894 0.0031777776 -0.004908827 0.0010416621 0.0016058253 -0.0013081442 -0.0020988362 0.0014675609 -7.175198e-05 -0.004796782 -1.0920581e-05 -0.0008714221 -0.0040445225 -0.004944752 0.0032748647 -8.1398925e-05 0.00074626977 0.0034702097 -0.0022709994 -0.0032156294 0.0032640453 -0.0047825756 
CD24	-0.0031595337 0.004233357 -0.0012959251 0.0041107563 -0.004354745 0.00096089236 0.0040529305 -0.0028163719 -0.0007668331 -0.001471075 -0.0029924877 0.0033745167 -0.0034234803 -0.00085182546 0.0028636174 0.0038623302 -0.00019127561 0.0035473483 0.00422579 0.00010087222 0.0020057156 -0.0011495192 -0.002881171 0.003559251 0.003612087 -0.0039480687 0.00045902134 0.0017958181 0.0029011676 -0.00388075 -0.00053943635 -0.00017960518 0.003636002 0.0035599577 -0.00057692605 -0.0029872404 -0.0025301776 0.00068380474 -0.0037416553 -0.002662071 0.002979355 0.003522861 0.003644976 -0.004871483 -0.00050633866 0.00011876546 0.0033436436 -0.0041401144 -0.0012270974 0.0010263203 -0.0024504727 -0.0016772638 0.0018312974 -0.004860644 -0.0032382768 -0.0028383308 -0.0047389283 0.0008653246 -0.0016486868 -0.00013403519 -0.004811162 0.0021044714 -0.000106659274 -0.003832196 -0.0047308304 0.0043767816 -0.00029057983 0.001962436 -0.004067997 0.0016007656 0.0034744875 -0.002558895 -0.00030544438 0.004797005 -0.0009024512 0.0009289335 -0.0026825226 0.0022708417 0.0040831277 -0.0037402774 -0.0049683494 0.0013126138 0.0048330696 0.0022444145 -0.0022357223 0.00074192195 0.0020806233 -1.2753886e-05 -0.0010264192 -0.0019458826 0.0047691236 -0.0026365547 -0.004585563 -0.004459137 -0.0036415597 -0.0008649137 0.0026088785 0.0022230565 -0.00464221 0.00049551774 
SH2B1	-0.0019971158 -0.0046807113 0.0005326676 0.0030938694 0.0048800358 -0.0046112444 0.004989005 -0.0013177465 0.0034689582 0.002416625 -0.0039951275 0.002064 -0.0011921808 -5.4023294e-05 0.0036499493 0.0010609038 0.0048372415 -0.00087409565 0.0016421736 -0.0013442112 -0.0010014167 0.0035905212 -0.0044197044 0.0005030033 -0.0016757923 0.003435631 0.002790866 0.0048183505 -0.00245519 -0.0029146594 -0.0043023876 -0.0048743384 0.0040511754 -0.0029837908 0.0031697017 0.00044227557 -0.003060434 0.0047534527 -0.0045865155 0.0010043897 0.0006124378 -0.0026386527 -0.002226664 0.0007435489 -0.004446605 -0.0005393677 -0.0028691667 0.004298914 -0.00061233144 -0.0016325752 -0.004708604 -0.00018641716 -0.00012589246 -0.0026186048 0.00016679522 0.0035970123 -0.00085156655 0.0007041022 0.0047999215 0.0019887106 -0.0034964145 0.0040868074 -0.004759081 -0.0038374558 -0.0039924965 0.001465694 -0.0022842917 0.0027505588 -0.0039848466 0.0033325914 0.0029085476 0.0020569544 -0.003188675 -0.0005662569 -0.0025458925 0.0029511962 0.0010709881 -0.0017177289 0.0034725275 0.0004204615 -0.00019794308 0.0011186695 0.0025938675 0.0024564627 -0.004092699 0.0043896567 -0.0029068522 -0.0021024134 -0.00040259346 0.0046303347 -0.00034467175 -0.00073343795 0.0045434376 0.004271982 0.00077841425 -0.0021418738 -0.0018994155 -0.00026665436 0.0031551064 0.0017553759 
IGFBP7	-0.0035577056 -0.0015342586 0.003522705 -0.0007361671 0.0038135624 -0.002493164 0.0046758032 0.004081955 -0.0019055518 0.00058864197 0.002979558 0.0025213242 0.004638996 -0.004439748 -0.003162392 0.0034395235 0.0033768055 -0.0016357405 -0.004915333 -0.0038030795 0.0022104364 -0.0038173113 0.0010001989 0.0013752475 -0.0023520542 0.0019158891 0.00070959906 -0.0043017776 0.0022398073 0.00083043706 0.00027130876 -0.0010669993 -0.003921284 0.0010727347 -0.0034632115 0.00051184645 0.0040780823 -0.000525736 -0.0046003116 -0.0004601404 -0.0015609559 -0.00068619166 -0.004381118 0.004470749 0.0015395434 0.00038430825 -0.0020934418 -0.0037443126 -0.0005387254 -0.0014478308 0.0028603629 0.0009187274 -0.00017150996 -0.00070811214 0.00056405383 0.0027419445 0.003369403 -0.0043508895 1.0785137e-05 0.0041528414 -0.002092893 0.0034655812 -0.0024873337 0.0039348304 0.0048935725 -0.0042327964 -0.0032788268 0.00038812472 -8.8264416e-05 -0.0021619014 -0.0033848197 -0.0023311314 -0.004162695 0.0045160465 0.0027585072 0.003184102 0.0026005458 -0.0025002407 -0.0014195502 0.0011700274 0.003035904 0.0029199903 -0.00016547207 -0.004903511 0.0029547876 0.0032164247 -0.0017992476 4.362384e-05 0.0038070271 0.003661704 -0.00016521213 2.3026792e-05 0.003915117 -0.00058201735 0.004292471 -0.0042388886 0.0040319716 -0.0022017623 -0.002307496 0.004636044 
TBX22	0.0016819694 -0.0027711887 0.004120274 0.0029583499 -0.0006792911 -0.0044391416 0.0021413616 0.0032404421 0.0048098755 0.0040383744 -0.000119581375 0.0033401717 -0.002720764 -0.0021583487 -0.00016376164 0.0048378026 -0.0010907481 -0.0013786753 0.003972619 0.00056154584 -0.0034041724 -0.0017418549 -0.0036973474 -0.0027685033 0.0039687976 0.0006241149 0.0049526202 0.00027956028 0.0009029817 0.0013807258 -0.0047969767 -0.004125318 0.0034776377 -0.00090389117 0.0010091527 0.00078057963 0.00022541673 0.004044629 0.0023685447 -0.0027443413 0.0022807054 -0.0012419152 -0.0031484945 0.0020859474 0.0033219429 0.0041479985 -0.0011597816 -0.003186327 0.0009347529 0.0038480968 -0.0019262745 -0.0019655137 -0.0014146233 -0.00174229 -0.0026993197 -0.004175203 -0.0033966212 0.00023338111 0.004842463 0.0019172766 -0.0027560943 -0.0013106742 -0.0041930135 -0.0004655407 -0.0010536817 -0.001726635 -0.0021758627 -0.0045219497 -0.0035479197 0.0030052403 0.00013888362 0.004355356 0.0031253805 -0.0043578474 0.001229616 0.00024795675 -0.00447872 0.0032715756 0.0012284691 -0.0017832643 0.004536972 -0.0049973866 -0.000772129 -0.003436078 0.0038093168 -0.0019678478 -0.0025322866 -0.0021690035 0.0033648037 0.0032815435 -0.0011134121 -0.00071041647 0.0016180087 0.001320143 -0.0031509898 -0.0022857285 0.00068125397 -0.004111699 -0.001861782 0.0014505252 
TLE1	0.0016981544 -0.0030240817 0.000543153 -0.0016384216 9.4487725e-05 0.001501673 0.0023890694 -0.00022923035 -0.004869939 0.0004991034 0.0027447098 0.003293436 -0.004120656 0.00328636 -0.001503503 -0.00055145426 -0.0035690698 0.00094830093 0.0035500827 -0.002509598 0.0018425523 0.001746803 0.0036945122 -0.0026504595 -0.0036262353 -0.004171887 -0.00044943482 0.0046765306 0.0011925484 -0.0027891574 0.002045174 0.0021087143 0.0049693533 0.0011587307 -0.0013490826 -0.0016086989 0.004758023 -0.0014377228 0.0035597123 0.0015730662 -0.0032245389 0.0015946164 -0.0028104328 -0.0016673645 0.00083323626 -0.0046996153 1.52516095e-05 0.0011553196 -0.002826321 0.0033608743 0.0024085788 -0.00035284928 -0.00016454735 -0.0041197776 -0.0002599073 0.0041654217 -0.0017837627 -0.0020947433 -0.001410298 0.003204953 -0.0007779721 -0.0042808116 -0.00029098993 0.001689299 -0.0007855537 0.001104319 0.003009006 0.0043733907 0.0012469738 -0.0016425219 0.0048660003 0.00015758247 0.004196661 0.001028681 0.0033724853 -0.004911373 0.0027541171 0.0036054554 0.002114837 -0.0007458582 0.0011270461 -0.0012301597 0.0034200144 -0.002647781 -0.00247072 -0.0020714498 0.00033830613 0.0030712718 0.0022178406 -0.0047796173 0.0035669059 0.003392586 -0.0032037196 -0.004055603 -0.0024057396 0.0028812552 0.001163075 -0.00058507256 0.0016162109 0.0012560951 
CLC	-0.0021775498 -3.0487805e-05 0.0036320619 -0.0026581602 -0.0005164924 0.0025306235 -0.0013369591 0.00064874813 0.0018155063 -0.0012919831 -0.002498491 0.0042337445 0.00016983949 0.0030108304 0.002777961 0.0038328154 0.0016531349 -0.0016548495 0.0025704363 -0.0048346436 -0.0049269614 0.0026386348 0.004111375 0.004028197 -0.0046846126 -0.0034030173 -0.0014639513 0.0025339012 -0.0020192803 0.0016491733 0.004902048 0.0017049827 0.0011662813 -0.0006807512 0.0010997882 -0.00016484334 -0.00050282094 -0.00021739659 -0.004494119 -8.497456e-05 -0.000418586 -0.0021886432 -0.0017030863 0.0005993772 0.00010521242 0.0006707984 5.799103e-05 -0.0034156118 -0.004737229 0.0013324302 0.0025716014 -0.00024553898 -0.0044394773 -0.00031263215 -4.2034088e-05 0.002651063 0.0015333499 -0.0042828657 0.0010822937 -0.002422147 0.0028480452 -0.0043824227 0.0013543316 0.0012522086 -0.0037257539 0.00023343426 -0.0032501745 0.0030199015 -0.002683459 -0.00431239 0.004072456 -0.0028699243 0.00130638 0.0013529586 -0.0016920815 -0.0037478455 -0.0029485773 0.003988394 -0.0034527879 -0.00271437 0.002778595 -0.0028063564 -0.0008692458 -0.0021135453 -0.0030795601 -0.0027127673 0.0029128927 0.0035242632 -0.0015757382 0.0017122797 0.0031280657 -0.0016120691 -0.0020725648 -0.00016743611 0.0016818066 0.0019307957 0.0017466953 0.0016120311 0.0017766076 0.0029639981 
NMS	0.0030248042 0.0006908 -0.0032495735 -0.0023084427 -0.00094981695 0.0005839291 0.0035835102 -0.0039069206 0.0035425231 -0.0047026 0.0040608337 -0.0013660063 -0.003420045 -5.2968467e-06 0.001718962 -0.00042976878 0.002073603 -0.002425264 -0.0038856375 0.003392396 0.0014786269 -0.0026551862 0.0047532287 0.0028788648 0.00177781 0.0027310972 0.002629131 -0.0018570824 0.0003422838 -0.0028792615 0.0049011717 -0.0019897104 0.0004305189 -0.00036126276 -0.0018249106 -0.0040139263 0.0048897294 0.00396575 0.0035171967 -0.004078755 -0.004251673 -0.003527988 3.2464828e-05 0.0039549326 -0.0044840267 0.0008537633 0.004328399 0.0015450066 0.0005386819 -0.00023579808 0.0015869996 0.0026807443 -0.0038103391 0.0010448573 -0.004848166 0.0013437842 0.004893693 0.0021873475 0.0015714774 0.0023387745 0.0033723975 -0.003991946 0.004646875 0.0011667877 0.0036225475 -0.0033892083 0.004076791 -0.0046247086 0.0037881506 -0.0002805285 -0.0007145242 0.004795931 0.0036187042 0.003199352 0.0006356013 -0.0031131408 -0.001203152 -0.002768214 -0.001379158 -0.0012149434 0.00019584669 -0.00029426208 0.0026902526 0.0014520817 -0.004950316 0.00020046654 -0.002558554 -0.0032092328 0.0015368718 -0.0039610495 0.00064344 0.0011907336 0.0037102583 0.0028395439 -0.0011654915 -0.0015547007 -0.0034601726 0.0013576624 -0.00034206265 0.0018940541 
ZDHHC22	0.0030056927 0.0030750227 0.0024840957 0.0030482651 -0.0011697399 -0.004721713 0.004031252 -0.00040487226 0.003163699 0.0035068926 -0.00089085166 0.00055094203 0.002497932 -0.0038457802 0.0030090874 -0.0022165098 0.00034286373 -0.0003933323 -0.0018969196 -0.00046653647 0.0031486694 0.0015459838 0.0012754066 0.0020615559 -0.002839713 -0.00035491254 0.0036434755 -0.0049827453 -0.0021480806 0.0048570125 -0.0039978884 -0.0026255604 -0.0011977735 0.0031316746 -0.004228297 -0.001798824 -0.0012954493 0.004498385 0.003472448 -0.004616786 -0.002305216 0.0029902998 -0.0038089827 0.0021854674 -0.00096778537 0.00293913 -0.0036662358 0.0007719693 -0.0007121102 -0.004411684 -0.0041187755 0.000655191 -0.00020959633 0.0048999093 0.0015115882 0.0017947782 0.0040181763 0.0025572984 0.0015250377 -0.0002707495 -0.0007644336 -0.00013554943 0.0014318272 -0.0035091436 -0.0004922798 -0.0016108745 -0.0047401227 1.3716849e-05 0.001441563 -0.0025988896 -0.0037871485 -0.003001098 0.0016554407 0.004802973 -0.0012784041 -0.0036246262 0.0005373167 0.00027204136 -0.00254291 -0.0038757569 -0.0011369609 0.00089074456 -0.0012599278 0.0027792687 -0.00033823872 -0.002929422 -0.0028745832 0.0023895763 -0.0045717196 0.003570627 0.003089671 0.004200795 0.0010428941 -0.00404529 0.00335156 0.00097259844 -0.0010103976 -0.0030316487 -0.0018076184 -0.004526345 
MYL9	-0.0025495938 0.0005952844 -0.0048023807 -0.0027095252 0.0044202255 -0.0027057927 -0.0017501866 -0.0019440091 0.00073257944 -0.004711997 0.0021196073 -0.0037223075 -0.00060497056 -0.0015965016 -0.004758633 0.0012315314 -0.0036066675 0.0006251272 0.0046059666 0.0030681046 -0.0033394522 0.0005033441 -0.0011388233 0.0013392615 0.004115166 -0.0029393763 0.0013400621 -0.0035248224 -0.00225469 -0.0019964513 0.0013925133 0.0013777625 0.0011330937 0.004777759 0.0046082325 -0.0034963305 -0.0014609923 0.0005526405 0.004438028 0.0008452823 -0.0050002844 -0.0040345783 0.0008333984 -0.0017197496 -0.001800091 -0.003828744 0.0035964216 -0.0036934656 0.004605436 0.0016110698 0.0035159725 0.0016586974 -0.0023212817 0.0036584637 1.1167101e-05 0.0009575644 -0.0022835338 -0.00079885934 -0.004319925 0.003450961 0.000532272 -0.003315445 -0.0012576641 -0.0038698644 -0.0021477337 -0.0002601872 -0.0034474984 0.00014721495 0.00049566355 0.0030109398 0.000600343 -0.0033379102 0.0047674063 0.0011288405 -0.0048419004 -0.0038454789 0.0009383978 0.0026911304 0.0002565205 -0.0039836615 -0.0024352842 -0.0027914147 -0.0023212284 0.0019361885 -0.0025635066 0.0008645248 0.001163922 0.0034846214 0.0041617295 -0.001509035 0.0010638867 -0.0014282069 0.0004715002 0.0022299776 -0.0005074525 0.001722093 -0.0022688417 -0.0047774855 -0.001829789 0.004785101 
ADCY9	-0.0030161974 0.001846171 0.0048811594 -0.0025785102 -0.004854374 0.0016498991 0.0038502587 0.0025736233 0.00396209 -0.0034680767 -0.00030157762 -0.0031153557 -0.0014732218 0.0035311717 0.0016097617 0.0039609065 0.0013275759 -0.0013631313 -0.0027727291 0.002232998 -0.0048893783 -0.00093401654 -0.002246304 -0.0014914168 -0.0028052167 0.0009244746 0.0013570206 0.00027905143 0.002217225 -0.0042178873 0.00079888717 0.0048417053 0.0032648994 0.0039363215 0.00074177387 0.0037921283 0.003601942 -0.0007863704 -0.002214221 -0.00022937982 0.0018746606 -0.0036465912 0.0027043049 -0.0002772144 0.0013894411 0.0031843563 0.0025211682 0.004253796 -0.000831055 -0.0017494055 0.0035077408 -0.00020679005 0.0017861032 -0.0019110345 0.002962391 0.0047858157 -0.0038156977 -0.001320396 -0.00043841958 0.0038593998 -0.003796489 -0.00053484185 0.0036061187 -0.00024353914 -0.0029961807 -0.0014223563 -0.0032879876 0.0020023314 -0.0029785086 -0.0036077853 -0.0028270397 0.0014391557 -0.0037903548 -0.003536801 0.002151898 0.0042876247 -0.0007303256 0.002928338 0.0030684697 0.0016843769 0.004661894 0.0035712854 -0.0025115535 -0.004618378 0.0019781487 0.0007480356 -0.0025311022 -0.0046472377 -0.001470299 -0.0029981202 -0.0013558127 -0.0025378342 -0.0040732143 0.0035751646 0.0028528366 0.0027844443 -0.0030280722 -0.0027859204 5.6108354e-05 -0.00084330834 
NCR3	0.002961159 -0.0030930787 -0.0040393597 0.0041890726 -0.0009010046 0.0036912474 0.0025166725 -0.00027954573 -0.0028349692 0.0039559994 -0.0044573946 0.0010907393 0.0022328089 0.0015315888 -0.00039897504 -0.0006131591 -0.0015216217 0.0016079783 0.0030794642 0.000111158086 -0.0031909312 -0.004412956 6.106179e-05 0.0026414196 -0.0008540761 -0.0026644105 0.0020288366 0.0028384447 0.001061755 -0.0012018792 0.000742521 0.002865864 -0.00079980405 -0.0047056302 -0.004335055 -0.0031294308 -0.004889627 0.00041257983 -0.0010262046 0.0032227205 -0.0043204664 -0.002154856 0.0004955079 0.002998421 -0.0030316766 -0.004270328 -0.004456046 -0.00464389 0.0034747806 0.0023435766 -0.0032473132 0.00051109924 -0.004467734 0.00040613284 -0.0010246199 0.0021643809 0.0021808478 0.004954888 -0.0027146614 -8.295086e-05 -0.0016792207 -0.00055682234 -0.004324213 0.0023229287 -0.00041316688 -0.0034837646 -0.0049391794 -0.00076900644 -0.002023882 0.0029471493 0.0031895526 0.0012210271 0.0032509705 0.00072666904 -0.002659557 7.931163e-05 -0.0018734214 0.00067704887 1.0664432e-05 0.0044816625 0.0008518838 0.0015054204 -0.00036387128 0.0026648187 0.0017029098 -0.00349892 0.00036713586 -0.0024413106 -0.0018030358 0.0041363146 -0.0020087394 -0.0010472119 0.0014886054 0.004265159 -0.00086592947 -0.0011648231 0.00028764387 0.0033766087 -0.00025248664 0.0024236995 
